{
    "activation_funcs": [
        "relu",
        "relu",
        "sigmoid"
    ],
    "layers_amount": 4,
    "weights": [
        [
            [
                0.1615938762233987,
                0.40120142945186255,
                0.27539825479915014,
                0.47381170387631444,
                0.27854586214694754,
                -0.2344418244865487,
                -0.3974378926062686,
                0.30581578456394143,
                0.2347962162620192,
                -0.4227920382366266,
                -0.2261178830768681,
                -0.338548148758386,
                0.4361991387388303,
                -0.21706499303147153,
                0.1314169388318095,
                0.24848001364437522,
                0.4066200266199579,
                0.31481103642171915,
                -0.1034792635746613,
                -0.36597723584176645,
                -0.4170617121945387,
                -0.1421423177622555,
                0.4580180994867057,
                0.05062426259947783,
                -0.496708687284382,
                -0.025684182999148875,
                0.37897193310300137,
                0.3004548795993046,
                0.024457314565920374,
                -0.2965261516825197,
                0.14404105626492392,
                -0.05878951178140979,
                -0.37438042991072207,
                -0.4818841719271646,
                -0.4988288149146337,
                0.02185747692040585,
                0.12667633044129867,
                -0.10722422225357564,
                0.1319536694975656,
                -0.15494280768350877,
                0.3735942566585929,
                0.005399115397910159,
                -0.11805345069674356,
                -0.3388068894140426,
                0.2790960207409876,
                -0.21944106430733623,
                -0.01072425160434931,
                -0.4446657856651267,
                0.03308386112279171,
                0.3064215926116677,
                0.4629206991317769,
                0.4951904088455821,
                -0.3610236819183813,
                0.29585246635929796,
                -0.07814699401463598,
                0.22412486369968387,
                0.006226933118076761,
                -0.1632996119227509,
                -0.07200389651503458,
                -0.40531373142478655,
                0.3803376659173562,
                -0.43223509787845094,
                0.04963844921934013,
                0.1361627834357696,
                -0.32397805128784984,
                -0.4824623022465349,
                0.27655556764010664,
                0.35568371588373765,
                -0.22517621877459093,
                -0.41549901957940366,
                -0.1831365375525512,
                -0.2660810490112026,
                0.036867235962729804,
                -0.16916039016347492,
                0.06973170463590829,
                -0.2311825745312778,
                0.42526895925705616,
                -0.4405459903852095,
                0.4315254456750779,
                -0.24329069563318362,
                0.2799217126563105,
                -0.0649424040279345,
                0.438986507143877,
                -0.3915368109653605,
                0.08424603623844584,
                -0.2955148308238551,
                0.40785193047035373,
                -0.0039037014140939075,
                0.2505969109565548,
                0.4469318510554688,
                0.04710473134631771,
                -0.18355272631328826,
                -0.3358887679950132,
                0.3462450101071591,
                0.2498204774331496,
                -0.15604622355245745,
                -0.27892728774031905,
                -0.3719565980820564,
                0.17353552183309345,
                0.48111403207838654,
                0.36190964762430944,
                0.3503941053740368,
                -0.07397951797776334,
                0.031555164244051824,
                -0.005025209228485644,
                -0.43505941852850677,
                -0.1387728557993587,
                -0.2560617371606896,
                -0.0690725121586094,
                -0.45048737192038524,
                0.06102397878297883,
                0.20908529794276887,
                -0.07576453074078249,
                0.4394495014000035,
                -0.37810547321644783,
                -0.2944514521887871,
                -0.48109149369284887,
                -0.09218940177785437,
                -0.06857381606881,
                0.06304029449515709,
                -0.06775740665802689,
                -0.35353168573973454,
                0.09305169910153467,
                -0.1948300722524604,
                -0.4285212302636316,
                -0.47861719111675183,
                0.07485194778708319,
                0.2276302597008846,
                -0.2533406697671159,
                -0.41388478783025734,
                0.2847579457382387,
                0.00031962633371690496,
                -0.1838539564457676,
                0.06209077860186596,
                -0.05908304148801475,
                0.3014046383860638,
                -0.16960557365014042,
                0.39270421890464335,
                -0.2594717514791116,
                0.20826884245281407,
                0.0051927463000267515,
                0.41943670460431604,
                0.09970963972662672,
                -0.3606335549530949,
                -0.27977074330310836,
                0.12567941618224815,
                0.24858088079321383,
                -0.19089990986942307,
                -0.24113700956639605,
                -0.49002832061269264,
                -0.2810137284264786,
                -0.4855041406300033,
                0.321733896933374,
                0.06586500895447289,
                0.37819361602139506,
                -0.34909354186619374,
                -0.4551269127859178,
                0.41649333863979676,
                -0.04954264776063556,
                -0.11989629020763751,
                -0.26466234139970074,
                0.17509148253085294,
                0.29484664173327546,
                0.4999969644724663,
                0.3048830782230525,
                -0.0046356014270087864,
                0.28368784703590694,
                0.09658429769415011,
                0.16770172775122483,
                -0.3848546652194722,
                0.38790614239559007,
                0.23895659801101987,
                -0.1301692555938267,
                -0.21938028361042752,
                -0.4493206989185772,
                0.13925212798975697,
                0.1169531501614384,
                0.28957171144995136,
                0.09325785205198178,
                0.37818781528147505,
                0.04692015637607822,
                0.37649724393361766,
                0.13410076009473557,
                -0.048435771288701655,
                0.22950265300583558,
                0.23574591015830212,
                0.03551875660435405,
                0.16936519927519478,
                0.19596273834744554,
                0.19206605473418095,
                -0.2596431218753269,
                -0.25434413834369357,
                0.37175425285842756,
                -0.3443765956404464,
                -0.33291789656997495,
                0.3125081225790225,
                0.006789541685302325,
                0.17539249504211024,
                0.4436007701379418,
                -0.10615779150904797,
                0.4645503880645055,
                0.3303178843312432,
                0.46144941225309294,
                -0.2443542819877179,
                -0.2735579096224256,
                0.37776869804283936,
                -0.14397235689216556,
                -0.11307247952039137,
                0.08070069553574917,
                -0.42662302387298207,
                0.178424542529647,
                -0.354372646832114,
                -0.18921963033135064,
                0.29977836761233806,
                0.2199510917472979,
                0.07050640497605405,
                -0.39616825101245234,
                0.07817566997979503,
                0.03519895338153864,
                0.291104651832106,
                0.09426793625470486,
                -0.11839180002275694,
                0.3618353770304538,
                -0.4332368787826011,
                -0.14985419909234587,
                0.28398495097915133,
                -0.04155226244999163,
                0.11254767147514762,
                0.490806233718667,
                0.45272875864890294,
                -0.4712786306585533,
                -0.2829160445032285,
                0.03814212924676318,
                -0.30093383740379986,
                0.3630396419228656,
                -0.3703515198289902,
                0.32053987688359464,
                0.2178769688036628,
                0.15207821465319207,
                0.3678594012554615,
                -0.543246929303322,
                0.18986675140429737,
                -0.3787096296112979,
                -0.2809452593275035,
                -0.27932477818378126,
                0.4579512485302159,
                -0.4225901503561409,
                0.11085837714081799,
                -0.06419539316446815,
                0.18392512732461078,
                0.0023130998843897237,
                0.14656641945856042,
                -0.09262816943622476,
                -0.3906845327245593,
                0.11086128187631972,
                -0.24461578062155045,
                -0.2486437979835738,
                -0.2988114148277987,
                -0.29115972172521576,
                -0.13041087793184725,
                0.48280606644672547,
                0.45410118259762056,
                0.33447275082644146,
                -0.4248207268196663,
                -0.32759851119583566,
                -0.13946766755692508,
                0.3396484059177393,
                0.2840023804143651,
                0.30298425889596653,
                0.3649923530961913,
                -0.41302215508343715,
                -0.3593020930766382,
                -0.192017051879964,
                -0.09912388483694162,
                -0.06082124518351437,
                -0.33982379507937127,
                0.08293322227466586,
                -0.4229399687655562,
                0.008860978994113982,
                0.4690070073952005,
                0.017755609275084128,
                0.1804661432433261,
                0.10017357421848315,
                0.15404927795744014,
                0.2392873989713354,
                0.30814526733500835,
                -0.032139896178283965,
                0.2676535811801747,
                0.3901047045368313,
                0.2541514405796724,
                0.4347122497656315,
                -0.2580388764262169,
                0.4117159045021928,
                -0.28049942864740846,
                -0.14108511593306078,
                -0.4061140770957211,
                0.04294008834043979,
                -0.10558355341866997,
                -0.21760760291592843,
                -0.4253784189225402,
                -0.3778167543973758,
                0.3372214184566838,
                0.21698333927019453,
                -0.2550958548308409,
                -0.21839943272239276,
                -0.3247997157518696,
                0.10017070455403036,
                0.2788421909040798,
                0.39412712971526553,
                0.20978131471316985,
                -0.22886626592024198,
                -0.0309720665061527,
                -0.05210818224004119,
                -0.0641690101411288,
                -0.437723421213213,
                -0.43700250477335956,
                0.012047020309339757,
                0.3767738533369832,
                0.034695628147416564,
                -0.2092312626396927,
                -0.45106183469920785,
                0.4338778634562733,
                0.17488778385720904,
                -0.14150295249863956,
                -0.08885640452166194,
                0.11363902931553262,
                -0.24734752958274805,
                -0.06727018438232985,
                0.4439942065314067,
                -0.40637648755919137,
                -0.2231746501663792,
                0.007608754615856768,
                -0.3183545908424395,
                0.30290167422124714,
                -0.09434044771327019,
                -0.028220919147164403,
                0.4013927095286156,
                0.39867360869124624,
                -0.3050021334442621,
                0.4416410086582947,
                -0.10483688683990688,
                -0.14374943569026308,
                -0.48614436893981766,
                0.19849768108358018,
                -0.2835840911193511,
                -0.45618040002030585,
                -0.11556590292602438,
                -0.36942663968043254,
                -0.3508197892779263,
                -0.3201762372559041,
                -0.016954182074358653,
                0.07456008914438957,
                -0.314090654974663,
                -0.048088165283277744,
                -0.36266499837922966,
                -0.09092560831235692,
                -0.3026740970836651,
                -0.5071050131870822,
                0.07442680558911455,
                -0.029935773421770763,
                0.09761746413281905,
                0.11518115731339346,
                -0.00021141682029035547,
                0.11722615661409586,
                0.21261723969623436,
                -0.37378735986926404,
                0.020790761280892855,
                0.29417136461224636,
                0.4554825212556466,
                0.36155459420288416,
                -0.20193219939546875,
                -0.03875497213464471,
                -0.41299415247019855,
                0.24209760422614757,
                0.16948530299137377,
                0.4126682436555845,
                0.33501222274046816,
                -0.4084143351908347,
                -0.16435177205479387,
                0.4016728098396565,
                0.3069348501723983,
                -0.16606631644486772,
                -0.01912373536370451,
                -0.38750082100898714,
                -0.05600440277289597,
                0.16741855659643604,
                -0.2526810211894531,
                0.2328501349922431,
                -0.09860740250712823,
                -0.3455983248205532,
                -0.1151965530125636,
                -0.2716923573646792,
                -0.20664794997163383,
                0.1557401945682758,
                0.13669175034592584,
                -0.21326519930902632,
                0.25132629742459517,
                -0.2696826929114712,
                0.04673530787766772,
                -0.13712850396050272,
                -0.08680205974391816,
                0.025253144398082992,
                0.01376587213626624,
                -0.4201519043013308,
                0.42334913155173215,
                0.35908227179010155,
                -0.2209083356079647,
                0.05946417987993764,
                -0.22980484588978317,
                0.2631455145646207,
                -0.3498445687060719,
                -0.09462242821422645,
                0.26610011591614724,
                -0.40230612284031847,
                0.4852299547111813,
                -0.3348722309263428,
                -0.2647277384177733,
                0.47274483393686983,
                -0.06224955111194963,
                -0.2644412112174346,
                -0.4158118891915318,
                -0.36240809270831187,
                0.15522088538552403,
                0.33656842286918964,
                0.4209295438063118,
                0.19871697479402325,
                -0.41829358951886936,
                -0.08899165286484771,
                -0.0988516595712802,
                -0.4597694098868848,
                -0.18291073529390434,
                0.35804592971703475,
                -0.038844021456377706,
                0.12530335254148595,
                0.4037313197506729,
                -0.19756355891179692,
                -0.006709457575528476,
                0.26120070805140605,
                -0.48263196905702677,
                0.26334540117911126,
                -0.30029709382641223,
                0.01819832787085592,
                0.16548330976223055,
                0.3716965915132753,
                -0.3382792866948132,
                0.22885960661355556,
                0.3688942471960276,
                -0.040165932204697,
                -0.29840765021069215,
                -0.26377808144597237,
                0.05713272171818218,
                0.33900514588289393,
                0.11658199096111999,
                -0.2302516093882047,
                -0.4819514219362002,
                0.3563050973554575,
                -0.011200732853415947,
                0.11408485599261514,
                -0.3559545212966823,
                -0.0389124380031524,
                0.3571491820738397,
                0.1254610440620097,
                -0.4512244406329899,
                -0.03292932542713428,
                -0.14553339472713903,
                -0.03774762958709146,
                -0.07345275593252439,
                0.20300931839814518,
                -0.38904242409455597,
                -0.48957919501567343,
                -0.25074003170375564,
                -0.18472361867315684,
                0.01881321848300358,
                -0.47932636540273416,
                -0.0927040364370952,
                0.11032061735813847,
                0.22402550680673938,
                0.38556056755801826,
                -0.44783907686303726,
                0.1870430538623741,
                -0.2578239702332572,
                -0.37814029945660205,
                -0.22023000830363965,
                -0.1366590206867527,
                0.007396973277591093,
                0.2707969380179075,
                0.36136226317293174,
                -0.10184655297281452,
                -0.15353512730693808,
                -0.4849740881587578,
                0.34457467847791085,
                0.2994386221999091,
                0.29357761705326263,
                -0.3290822442808838,
                -0.1901410865850216,
                0.2903910640459889,
                -0.1540601473184374,
                -0.11801105628020979,
                -0.37193472633063057,
                0.2247891599053488,
                0.03477728080592231,
                -0.3471744606188608,
                0.32970930501149576,
                0.37087719302636757,
                0.3641669889070459,
                0.03620005496773426,
                -0.07943703386514489,
                -0.2718117937176776,
                -0.4835134130001299,
                -0.27060743988351454,
                0.45617277816433716,
                -0.250481958181824,
                0.31622689375215457,
                -0.0159143702410192,
                0.04947124670632459,
                0.1957988443693417,
                0.170706401876977,
                0.3597862411340582,
                -0.24545640171791175,
                -0.11353243109428852,
                0.2906190527505946,
                0.19782413111369446,
                -0.12260680546964683,
                -0.4483820806000172,
                -0.470050425331004,
                -0.5236299869488701,
                0.346979691923797,
                0.040968209684555244,
                -0.04214985966468784,
                -0.39046392205689856,
                -0.4585815109061555,
                0.21204614758506543,
                -0.044245562494786284,
                -0.33278921247565374,
                0.3197908358684093,
                -0.10073671016079562,
                0.4421029718681126,
                -0.29384016212302944,
                0.1673868833908721,
                0.365924253929059,
                -0.4550704835255605,
                -0.4307904302027887,
                -0.3583044121714255,
                -0.027810107873666303,
                0.35260026721406507,
                -0.14153948549447704,
                -0.12112868334628887,
                -0.045758256008684405,
                -0.553368597613507,
                0.09858890624351865,
                -0.12054927624723828,
                0.4033373620397863,
                -0.07516411796534565,
                0.4211405612139129,
                0.050643438676506496,
                -0.042351531413625236,
                0.13362248543461921,
                0.02483764141631108,
                -0.21684165216382967,
                -0.20507626888730235,
                0.3254797902535257,
                0.118589564003446,
                0.32397490833673614,
                0.32187292956057945,
                -0.036513248501473236,
                -0.1406137067673045,
                -0.32843567726111655,
                0.02395517993829538,
                0.36073608181898836,
                -0.5006697826371351,
                -0.2136623791894922,
                0.3642508442778743,
                -0.1660181342082452,
                -0.15557208660278793,
                -0.005401069027336911,
                -0.2506095912111714,
                -0.42697227598901305,
                0.3780510365963686,
                0.007022228313779595,
                -0.016092290885384,
                0.05118928211950546,
                -0.284595536133997,
                -0.44532192848969093,
                -0.32918235016440284,
                0.3776215052189809,
                0.1879541042676417,
                0.1190038334912823,
                -0.25088726022522156,
                0.0324249137901268,
                -0.0637236785179387,
                -0.15140488728572843,
                0.14126180556889448,
                -0.4022302200019591,
                0.36129677085597267,
                -0.27815074712340226,
                -0.24764411615155504,
                -0.3133663714675298,
                0.10079045663618988,
                0.052207069445363824,
                -0.36610400158709194,
                0.30472382376069707,
                -0.3652568847959886,
                -0.0025966219945117155,
                -0.2342850115526172,
                0.11638048331159437,
                -0.21660486769918044,
                -0.19108573759623593,
                0.45854680675874937,
                0.02535906481099522,
                -0.4168670075863277,
                -0.012343808739350417,
                0.359198258542672,
                0.18612434399533656,
                -0.34038537754536,
                0.11074032592437988,
                -0.13086850479566725,
                -0.26288434199642274,
                -0.25324659718632747,
                -0.4556709623683045,
                -0.3892850327833982,
                0.42450197219948593,
                -0.036812475983840166,
                0.25201610780064576,
                0.08138659897370153,
                -0.007374523129612811,
                0.27303667239565266,
                0.16594081413747352,
                0.08713533028873173,
                0.3870971395402741,
                -0.3539485741789717,
                -0.3889890330392162,
                -0.4318740128413704,
                -0.4853940631993337,
                0.4832220848681887,
                -0.2697209473066685,
                0.37366679717787266,
                -0.28980458562366096,
                -0.12487767113826694,
                0.3334247162266539,
                0.006305840380786799,
                -0.05491928969882368,
                0.1380307291050875,
                -0.4360402909456007,
                -0.21151969205167698,
                0.34468905554219154,
                0.2169371102850589,
                0.25528855851527343,
                0.41738904133941296,
                0.09226686119031817,
                -0.13414703366713196,
                -0.35506490043902805,
                -0.20457365895240434,
                0.451709024647975,
                -0.3951105423203082,
                0.3166641670114822,
                0.2281282033809007,
                0.036130770900418295,
                0.4891001384506748,
                -0.1257189354330758,
                0.1850870283587173,
                -0.45695870094654356,
                -0.47756446552162657,
                0.3595406416440239,
                -0.36377973785436957,
                0.0692456768268273,
                -0.16323664742486613,
                0.00955217979483905,
                0.3809782758188519,
                0.1383640134133579,
                0.48049018533616017,
                -0.1510719211693683,
                0.19850967303865996,
                0.4053473190346104,
                0.0333848123047743,
                -0.10718754855961188,
                -0.21109109398321912,
                0.08964393701449941,
                -0.27604887690095503,
                -0.3729447631650324,
                0.36143732513298116,
                -0.4283156589660493,
                -0.35821413993428386,
                -0.037195209398010805,
                0.1091388174236657,
                0.1867501525802816,
                0.30242076139048285,
                -0.0749141688559065,
                0.39746119779812084,
                0.2600150544271186,
                -0.4743063063096693,
                -0.48659284704410444,
                -0.3086092164067908,
                0.22487448576597951,
                -0.12582091467470605,
                -0.43027454029183054,
                0.33986908863517395,
                0.25452401362019905,
                0.06985671618692246,
                0.22436887846417386,
                0.11447555595440517,
                -0.3370063554425927,
                0.3905001125419698,
                0.27302604888517557,
                0.4925280515201237,
                -0.3320571745970825,
                0.3391606090420239,
                -0.23848061657725422,
                -0.3932926134525516,
                0.15972704237795887,
                -0.47136957654445244,
                0.40280060492369324,
                0.3179512490869298,
                -0.034853103980388246,
                -0.4885268886372954,
                0.057251795713535364,
                -0.5020912009747422,
                -0.05173806747720086,
                -0.12196335500305006,
                0.26844017724937097,
                -0.3819248622849704,
                -0.44825449856360894,
                0.019335077651686832,
                -0.05411580941641861,
                -0.23761896951074268,
                0.0955763887342087,
                -0.1897521032915025,
                0.11567358014708651,
                -0.02071385602057807,
                0.49041755391916864,
                -0.2331446848097536,
                0.09143251359652016,
                0.25323604807840816,
                -0.37889144938159425,
                0.10988004736671532,
                0.3363335185335922,
                0.0491515021066817,
                -0.44909573927568724,
                0.22075542781201343,
                -0.3444733925076099,
                0.19217966632967692,
                -0.2146587342005298,
                0.4168100847821511,
                0.200944691427924,
                0.28036641838275117,
                0.3613373633252425,
                0.2163536497766449,
                -0.04698812465604378,
                0.40402373847082435,
                -0.27395696913812945,
                0.009564576636968636,
                -0.22967549476041338,
                -0.027148108270734883,
                -0.1378542004393497,
                0.13780295907285212,
                -0.216601163294165,
                0.41785908304059627,
                -0.1047884089635781,
                -0.05903917260339819,
                -0.009145887547681086,
                0.33943601298466763,
                -0.27411798010241595,
                -0.13435909897386833,
                -0.12711397814198866,
                0.0076181735469489364,
                -0.48953586547782,
                -0.2950392795303196,
                0.0687575609012264,
                -0.3187539144544831,
                -0.12903533871852116,
                -0.0916077521483416,
                0.36736862042648655,
                0.4301039169983797,
                -0.3685563798190445,
                0.45632707537440076,
                0.49932572749467724,
                0.22728940518149243,
                0.1413359111200515,
                0.08687448992587155,
                0.1200676315658099,
                0.4876567899396186,
                0.33752290672238283,
                0.4851154670665041,
                -0.15897480105653983,
                -0.3572727854082669
            ],
            [
                -0.3980469191959418,
                -0.31415528600218257,
                -0.0631890924386741,
                -0.22901106692523132,
                0.45399427423854277,
                -0.20291065474904035,
                0.18581512413728984,
                0.28370328941546175,
                0.23508794605142047,
                0.053954677677214624,
                0.16572998956732776,
                0.3993860591534515,
                0.30738200100958546,
                0.3921775466477838,
                -0.32806336164621663,
                -0.25399227686640746,
                -0.24878588814507552,
                -0.3617202553448119,
                -0.16389501413333052,
                0.02752962678538462,
                0.0010157379488425766,
                -0.0759378220405712,
                -0.40996948560551594,
                0.13907270986563947,
                -0.1632189708132903,
                0.36567736529068195,
                -0.03696839095326998,
                0.37471341246660983,
                -0.031338427442852756,
                0.06680656269883556,
                -0.3327371768469146,
                0.014982616162060536,
                -0.41779834560637674,
                0.36729098824389605,
                0.13237463626904789,
                -0.2587375413154378,
                0.06587717908283452,
                -0.30139130456513963,
                -0.3338435763704529,
                0.16673419546621404,
                -0.3120507855670748,
                -0.37787914205504014,
                -0.036122743765507614,
                -0.1965234395032911,
                0.23685261846388428,
                -0.3124131737830361,
                0.2339552157621625,
                0.46351654584327695,
                -0.34390161267475083,
                0.2201524728714137,
                0.3470715336656671,
                0.47584727312459096,
                -0.4593375345335716,
                -0.37428773758234146,
                0.10346467547845206,
                -0.11579709541446837,
                -0.3489510148073972,
                -0.16075237156172173,
                0.4265310156462706,
                0.14307655056761126,
                0.14837747311034288,
                0.3084122522552044,
                0.46362066312720773,
                -0.1762218697441156,
                -0.3189008486682217,
                -0.12846242412529016,
                0.42325765625146416,
                0.2384460691757744,
                -0.08429529405182151,
                0.5608602134906653,
                -0.24736743394625832,
                -0.3182548319011951,
                0.3181350185076393,
                -0.11233074632968562,
                -0.08842383162699383,
                -0.28902639277348446,
                0.05290763679216708,
                0.17296589883781163,
                0.3950997090769114,
                0.14162420083181737,
                0.22243936465634362,
                0.005022777670576017,
                -0.4197279861406963,
                0.41015735403252396,
                -0.16697411990198052,
                -0.3309862150407502,
                0.2953110759660309,
                0.08923146541119564,
                0.17334067093566274,
                0.44203521798420964,
                0.12426408985764775,
                0.2916410592936393,
                -0.09183032935675502,
                -0.17041109209606647,
                -0.10674967212137834,
                0.46367510295291015,
                -0.2436878412374071,
                -0.34400590644220447,
                0.08283115684720863,
                -0.3689169440123545,
                -0.1752111498422423,
                -0.27384974858932354,
                -0.27850830209381267,
                0.6120724553914901,
                -0.28295078290719894,
                0.22314951369364103,
                -0.15442826699977205,
                -0.13927284355378206,
                0.11253987997262227,
                0.13295647602490201,
                0.24725661692834944,
                -0.11571101665203654,
                -0.31790580575453065,
                -0.3910460442121011,
                -0.2720072571902551,
                -0.1984846454962763,
                0.4588715929665992,
                0.4209010472242194,
                0.10819642129853643,
                -0.3885652788204079,
                0.34119192337023546,
                -0.5261196771255324,
                -0.26591548798416365,
                0.10575899715544008,
                0.36602541055830684,
                0.16769490033107287,
                -0.40482397634009953,
                0.03274079014462949,
                0.6074269815355082,
                0.4825690254806214,
                0.3146366848176134,
                -0.04172912007510368,
                -0.4026017904284417,
                -0.3319338981957912,
                -0.19593083724131957,
                -0.4257800533998685,
                -0.24980270834906554,
                0.12480064829408476,
                0.1804832372526528,
                0.43228848473735704,
                0.21303612092251867,
                -0.16671577218802625,
                -0.3342406144974096,
                -0.30355584985090045,
                0.12239478352229646,
                0.05916218460168736,
                -0.5045763435361853,
                0.26438547943717683,
                -0.26619860484884333,
                0.13536622550746208,
                0.07135788910295619,
                -0.6130845322949706,
                0.023499793592423206,
                -0.3418943278635328,
                -0.21432420390670157,
                0.06837101665708764,
                0.3006735123976613,
                -0.37526871232356757,
                -0.42983244805677834,
                -0.4090691708045748,
                -0.4055576028590831,
                0.3696796301315698,
                -0.045342388856889126,
                -0.4768321819906025,
                0.1105442289223454,
                -0.016290874797232822,
                -0.4876848256048142,
                0.1758121818053343,
                0.49185595491984146,
                0.17230858237010993,
                -0.34950748670120324,
                -0.15958980561275282,
                0.4103578305174898,
                -0.18220626280212732,
                0.1272502207662107,
                -0.3813858229998348,
                0.08266580407951643,
                -0.4563275848394277,
                0.20990168665540376,
                0.31845072089496873,
                -0.2966843450993649,
                0.18198047551713636,
                -0.052063194923702864,
                0.0879748250450694,
                -0.3570191776745876,
                0.3377833772610112,
                0.20626334449585848,
                -0.2306194157403243,
                0.27300975285809065,
                -0.5680402105874671,
                -0.3283697008998618,
                -0.32675929811249715,
                -0.33891633973948876,
                0.13827460969949157,
                -0.36131381335582874,
                -0.11337215035628123,
                0.3665785515913851,
                0.014813650073605087,
                0.3347035285718728,
                0.3053397183513513,
                -0.2089813153283066,
                -0.3627696447164063,
                0.2485023754555324,
                -0.12649247846896666,
                0.36313191284320545,
                0.08774779965985126,
                0.39320910489164346,
                -0.41295448990353306,
                -0.13119070350236517,
                0.24690723454799476,
                0.6135895585553673,
                0.012564422753704355,
                0.5159464466221786,
                -0.38441610068442084,
                -0.36360063643380475,
                -0.2796989841252695,
                -0.4294695420016561,
                0.09457829125555034,
                0.04069281786875611,
                0.12627225788208576,
                0.34499397593578274,
                0.09708746574199291,
                -0.3949098713341656,
                -0.09260855087430275,
                0.21284002677573532,
                -0.4772654248735054,
                0.32223960357756104,
                0.35545992028572915,
                -0.029899650248217658,
                0.33207033040149125,
                -0.20608263674242924,
                -0.31410797905929366,
                -0.335298008415149,
                -0.004022181310377387,
                0.49441808112811997,
                0.19729283698185449,
                -0.115789480130357,
                0.16602192135742005,
                -0.15698170794071828,
                0.1816422107401342,
                -0.02049926726974796,
                0.40985417269578106,
                -0.474578624808801,
                -0.48779808367176547,
                -0.34244903305388275,
                -0.2306521968888053,
                -0.2106587078139272,
                -0.19184290130308138,
                -0.08368659814435295,
                -0.005205821041075124,
                0.31481313868628824,
                -0.03971067268668582,
                0.44635978879006455,
                0.08181456219773309,
                -0.28728298429511434,
                -0.4811841247477048,
                0.05616372228628491,
                0.47791005245396195,
                0.42356825092775496,
                -0.1061232002873028,
                0.45269605093961846,
                0.012171618035073621,
                0.20209846593297776,
                0.4306157959370788,
                -0.06953564019891055,
                -0.07606033700320383,
                -0.3635375297593638,
                -0.12245259647580095,
                -0.490413432181782,
                0.0757268293864323,
                0.17561030918262444,
                -0.03345082898295672,
                -0.12316218562362177,
                0.01300316596212469,
                0.03821097818716065,
                0.34887749906563004,
                -0.3398484305211881,
                -0.2500165541894792,
                0.07743238512781885,
                -0.24214451004367943,
                0.12235612072508428,
                0.4167402303970045,
                -0.2443405371334534,
                -0.11749715894501998,
                -0.3435550400874883,
                0.1498603486252807,
                0.4360820947601005,
                -0.28483274209151216,
                -0.09708307843710967,
                0.008762585670746182,
                -0.16477607867261534,
                0.582348364628034,
                -0.20424882343674416,
                0.3900017470218586,
                0.02418569560496716,
                -0.10413234831671567,
                0.23416377483440762,
                -0.4908242910599548,
                0.3055594780889485,
                -0.4681675351515146,
                -0.04674153235685629,
                -0.3205345510766049,
                0.08252799183362565,
                -0.5039959744624565,
                -0.20378910659917449,
                -0.46304092281745357,
                -0.006974752569784636,
                0.12589603967579288,
                0.17615891670583184,
                -0.25743662692465097,
                0.46319494217959173,
                0.31786514559911794,
                -0.20989304269935827,
                0.3852581418263893,
                0.5034106958429342,
                0.49137867788543305,
                -0.041820412156617325,
                0.5318278383078195,
                0.4292787896071729,
                0.329343180387721,
                -0.058786957148959644,
                0.03614887954420663,
                -0.35710064314422507,
                -0.3728596177304842,
                -0.053280913560866075,
                -0.19549930294832923,
                0.1169548562913147,
                -0.031091338921454617,
                -0.13726298945568569,
                -0.1627291176900322,
                -0.037787689530636374,
                -0.18873341875930977,
                0.5128490687998204,
                -0.5143039229860051,
                -0.10060964902083802,
                -0.2808079092460315,
                0.3290188711064098,
                0.43748529367700995,
                -0.10155849367296356,
                0.39514941419460387,
                -0.2189421200241047,
                -0.29934930270433335,
                0.1970313802887182,
                0.5759981247207232,
                0.4951757997239495,
                0.31367443233345904,
                -0.12319800204496041,
                -0.1615975336640868,
                -0.17796960511269763,
                -0.43955452734925987,
                -0.04993708014219298,
                0.35359616342302647,
                -0.4047987244645017,
                -0.07584653705258643,
                0.2470088797027974,
                0.2290542249212549,
                0.09272482061529298,
                0.4077942655701845,
                -0.08683225194548098,
                -0.02932999778079019,
                0.032854268123081794,
                0.07889686439676753,
                -0.004391153576692952,
                0.29162790911955006,
                -0.4894552039036456,
                -0.21479846069379382,
                -0.05509835186059603,
                -0.048178505141375276,
                -0.42535588567611377,
                -0.010930740477576308,
                0.23771815343191638,
                0.6123166983182133,
                -0.34424062859239973,
                0.10460564029005652,
                0.33567809411836375,
                0.18528812463512356,
                -0.03268068658994372,
                -0.2932444019440136,
                -0.4026877134903633,
                0.0768311765195812,
                0.3718611404183767,
                0.2593555555291637,
                -0.13147096168518727,
                -0.000580990130364019,
                0.5250470245430284,
                0.18901596999711304,
                0.4154783789920005,
                0.2064846919009278,
                -0.4355763156298173,
                0.33182760893732394,
                0.21009309964060519,
                0.31175920454215733,
                0.22726534962232292,
                0.2262696352149155,
                0.4439996669854357,
                0.009902702588575927,
                -0.2989569302210519,
                -0.04616018884749848,
                -0.05458259243845686,
                0.0096556318653241,
                0.22503210463553014,
                -0.1797289251633394,
                -0.24946236575439706,
                -0.5321615761192443,
                0.3403900894143452,
                0.0643066572917111,
                -0.20250401377577817,
                -0.0023831923305244326,
                -0.019803535041161134,
                0.0019270897713880525,
                0.23199497863313184,
                0.0646964784360945,
                0.03385240239528279,
                0.253986480524069,
                0.17312336108193413,
                0.378567958113701,
                -0.42175720784983733,
                -0.1871716130370482,
                0.2659125984141544,
                0.23217329996150082,
                -0.43363968450577617,
                -0.10918784761623346,
                -0.01763987515808063,
                0.44274659743009254,
                0.047002109693779874,
                0.01793823263350417,
                0.0916968351058366,
                0.10434497505547737,
                0.2132920313384975,
                -0.0070613538671037085,
                0.522060112395402,
                -0.1574800113817986,
                -0.11485685364768768,
                -0.14234661397934836,
                0.45512551989544786,
                0.3976368997194596,
                0.07981022251837878,
                0.47775928153238945,
                -0.24859464250765478,
                0.005683764691069114,
                -0.34021291668945763,
                0.10394158574619208,
                0.0978515710781946,
                0.47783206891362295,
                0.4200822288667354,
                0.186672785086521,
                -0.04555055595419715,
                -0.14063438367932835,
                0.15598005562341066,
                -0.06794786253644813,
                -0.17515673140607332,
                -0.4639276490726187,
                -0.25466003888324784,
                -0.0619722657902536,
                -0.30504936361019425,
                -0.3024259519768537,
                -0.25367534204962083,
                -0.2587703688776894,
                -0.10052926100243244,
                0.2194786026364078,
                -0.34464468632225115,
                0.06485819620732212,
                0.2991589837505021,
                0.16067579447873837,
                -0.4994648524644884,
                -0.4956039840965395,
                0.3873870929858274,
                0.2727152410923725,
                0.3123980132044518,
                0.18489844301419253,
                -0.16757283237243734,
                -0.19485683994133596,
                -0.3690212918017518,
                0.22030324374944438,
                -0.31355899279595345,
                0.2067708991834224,
                0.38769676488332605,
                -0.17528438067446228,
                0.028566820796191016,
                -0.07053986408730463,
                0.01012780138300524,
                -0.1898241392910943,
                -0.03321564216415702,
                0.00882451378455341,
                -0.07413661464049245,
                -0.12560630128969444,
                0.3200143224345432,
                -0.030437168129735986,
                -0.05587974585011816,
                0.03141484285368754,
                0.14276116692083213,
                -0.37843484258561055,
                -0.37639792259724203,
                0.35908281918985124,
                0.30041771390338684,
                0.13530589963505202,
                -0.13387513846716495,
                -0.10443059881813115,
                -0.24739320932065315,
                -0.1586034361218558,
                0.2625910970233162,
                -0.08447420619760732,
                0.004911804788668904,
                -0.3104015476036445,
                -0.3961800471186966,
                0.49554797039014453,
                -0.2647411508784716,
                0.24011647951098777,
                0.01340072964242306,
                0.10823966635661275,
                -0.5852898987867615,
                -0.07618079128236976,
                -0.11722146100103484,
                -0.29052743323411406,
                0.09015055397000703,
                -0.2209305346223097,
                0.08152169036225097,
                0.04240924880215347,
                -0.14728372243074248,
                0.41152616434565126,
                -0.5350741347252933,
                -0.10088178585507898,
                -0.05295354463122825,
                0.3953081323659535,
                0.35299715006070687,
                -0.0664756854612625,
                -0.49608217997464893,
                0.2890868023266022,
                -0.027733883638336128,
                -0.4351639297825525,
                0.013968286060858882,
                0.11638855613354591,
                -0.09163165430810394,
                0.4037362413699156,
                0.16213574031586955,
                0.34598600384471323,
                0.3202627575480813,
                -0.43019995537947076,
                -0.00428270953117103,
                -0.39208627434164234,
                0.2799454563102591,
                0.11097910739441198,
                0.1420169268060793,
                0.25031557131296667,
                0.3232165737210297,
                -0.010876410905636553,
                0.2605191023581964,
                -0.3959978846655036,
                0.0020416831332588483,
                0.1795339523521122,
                0.22784955452545574,
                -0.3153082233718428,
                0.41882491343758027,
                0.3344269844181594,
                -0.04604923916469087,
                -0.3028526617703724,
                0.27683085186665396,
                0.1060437502110532,
                0.2851950278556308,
                0.32152570496714117,
                0.3566487946618798,
                -0.2075025379233093,
                0.17107921759183822,
                -0.3527473330884687,
                0.21271327934622491,
                -0.5958257801468396,
                -0.43214002484599473,
                -0.31621383181883234,
                0.26906183866945904,
                0.34687949268431356,
                0.32279789737426223,
                0.3700869118464315,
                0.35210151930867445,
                0.2129572438407073,
                0.6364336718056904,
                0.5904267730035354,
                0.15344907157104787,
                -0.1647282592535203,
                0.16559672774282888,
                -0.002266674262360588,
                -0.17216284874244753,
                0.12590590822906575,
                0.18971275539734303,
                -0.14471026653722985,
                -0.0621613454586085,
                0.15142132297939911,
                -0.10759985798810312,
                -0.04400062731620347,
                -0.3117701849365736,
                0.12328660586123363,
                0.006844986185849281,
                0.20779952494926093,
                -0.5921983689052748,
                -0.5874370982469902,
                -0.09155324089809792,
                -0.15409688274511876,
                0.09229090162096197,
                -0.011224617132447259,
                0.298890959625782,
                -0.07136580579902278,
                0.2236556945816774,
                -0.30584518927720294,
                0.11692298104064967,
                -0.2667702912313911,
                0.11241987261638209,
                0.10758138076975869,
                0.28993426166509834,
                -0.30631205901394404,
                -0.20534812627202081,
                0.20938864702347396,
                -0.2907137774993155,
                0.07613506570869452,
                -0.04815623457973062,
                0.12216228531485603,
                -0.22748407197138287,
                -0.18765071446207704,
                0.04159352057671506,
                -0.35200987711935194,
                0.19005235364742853,
                -0.41191651711599025,
                -0.22932459104186312,
                0.1879087997869539,
                -0.5366499587599105,
                0.07394788309455692,
                -0.5382728239497327,
                -0.4037253095697193,
                -0.1354059873741817,
                -0.3915966798780779,
                0.39053530583926965,
                -0.31427722994178736,
                0.44838814381661624,
                -0.23674635443796732,
                -0.3535478316340556,
                -0.00041275985207883204,
                -0.4909423235074528,
                -0.3050916971746091,
                0.08866998459056077,
                -0.13229328540581486,
                -0.4741987407849348,
                -0.3538797487035908,
                0.11868970074880376,
                -0.4686526508059879,
                0.21489162906749049,
                -0.23200389872039806,
                0.3580667827491367,
                0.17579725192753648,
                0.25012131979398566,
                0.37876249934075973,
                0.0391889068361283,
                -0.2884312151791633,
                0.3594815969755512,
                0.27138191541850426,
                0.1776952907091766,
                -0.2838442264865129,
                -0.44428716076296415,
                -0.2310112560204564,
                -0.6028861053496112,
                -0.22437639309150306,
                -0.5781258193950252,
                0.21815194874053165,
                -0.5338641022813044,
                0.14259620699328854,
                0.027459012368506456,
                -0.38595759046033473,
                -0.10280655176710053,
                0.04833365368291944,
                0.3025258091757874,
                -0.2283777908631574,
                0.25704048221174536,
                0.1596799986790126,
                -0.2840217326525424,
                -0.35238631517670627,
                0.49572943866374064,
                -0.01359270973182758,
                -0.3983888826588834,
                0.030437486438512233,
                0.40916042208318715,
                0.3235950725998702,
                0.15362695319479272,
                -0.3415605138988025,
                0.043598786480638446,
                0.4012006571672902,
                0.11052599976618968,
                0.4458084171689517,
                -0.13899041917687704,
                0.23587417175789896,
                -0.026668889275826377,
                0.38716446700193996,
                0.07323891242637369,
                0.010573584662034277,
                0.18058385411923003,
                -0.3479980986405392,
                -0.4172661995836413,
                -0.0992823473281857,
                0.15465105903398113,
                0.09500506721343666,
                -0.40208534612408164,
                -0.07121441130604489,
                0.1576128460730707,
                0.20107592318805834,
                -0.4669319263993623,
                0.42242427542017513,
                -0.09735458569365041,
                -0.1782785542533829,
                0.12111908189185654,
                -0.127192523245538,
                -0.4177350207084698,
                -0.02707769772975779,
                0.062417031841387666,
                0.014333630266816142,
                0.30475537295192734,
                0.13869361710437936,
                0.526256077347298,
                0.1042999506311079,
                0.36554375125608396,
                0.5798047132645592,
                0.5329639924270396,
                -0.07163227313812444,
                0.13857940316638404,
                0.561755113670787,
                -0.24042554124475743,
                0.527308003585026,
                0.38938943503575557,
                -0.39982019502460786,
                -0.18793505233280872,
                -0.35536440612904396,
                0.09139351153446307,
                0.48483928916476193,
                -0.4087010930403667,
                0.23320424026454634,
                0.11991570892760461,
                -0.05219698978421938,
                0.401781889479789,
                -0.3692889698637721,
                -0.06710358025423162,
                -0.38720607326328405,
                0.21851497718771942,
                -0.2328457519862849,
                0.026820379848185773,
                0.0792192737999524,
                -0.36271548484429766,
                -0.402696185039858,
                0.3889200492565496,
                -0.3274341677003379,
                -0.25991032089467614,
                -0.021164373062272656,
                0.24052639444384097,
                0.17832328709776446,
                -0.0300321231937702,
                0.28494655812843883,
                -0.23116461343021666,
                0.1063804874125357,
                0.4787618124755192,
                0.1253465704342841,
                -0.40369874271414796,
                0.3128649009034481,
                0.1550242942550546,
                -0.4777574359152862,
                -0.40926746114014645,
                0.4859287238024138,
                -0.04468739799615662,
                0.349114946172114,
                -0.354134787363388,
                0.3038083785407103,
                -0.44974296949222103,
                0.47727039793346454,
                0.2712316426354045,
                0.4544086478112995,
                -0.34046066005247044,
                -0.4291010384025359,
                0.4340376596098031,
                0.4037246275643578,
                -0.14094313047251894,
                0.30997294776083606,
                -0.38237257012062614,
                0.5070794219620303,
                -0.4647573765582252,
                -0.013714242617651307,
                0.0024624447956428375,
                0.018396119445139303,
                0.02184985389600902,
                -0.2719783070274332,
                0.4433976012310695,
                0.04313943335504289
            ],
            [
                0.3019757881969738,
                0.03181301767063793,
                0.19933735408372122,
                -0.4335383783525377,
                0.2356187698640837,
                0.37283447869415776,
                -0.47598138530210343,
                -0.02176736196780693,
                0.368454513349901,
                0.44750919291585733,
                0.41379808672787055,
                0.12869591713415895,
                0.014218075072211067,
                -0.48228304853888837,
                0.056658193778779786,
                -0.3372136187461998,
                0.46438105689711806,
                -0.4109202540490481,
                0.3726899769686991,
                -0.19945487721347865,
                0.15866196540247446,
                0.06833457634778761,
                -0.3979339281257117,
                0.4004774282110374,
                0.15062444010513465,
                0.4764875205628837,
                -0.48014877521782073,
                0.09636959557601632,
                -0.20765173322215236,
                0.42043671668163607,
                0.14343068431263406,
                -0.14087805981026635,
                -0.07825366505065545,
                0.15781165704349853,
                -0.12232308436992767,
                0.48172840932309713,
                0.4244981505433847,
                -0.4988749390138517,
                0.37528699186477554,
                -0.4901118024321448,
                -0.05049613709688339,
                -0.30040595038666484,
                0.12361304593482536,
                -0.2971139627051257,
                -0.1859401082037354,
                0.30887509999334717,
                0.48650716539243244,
                0.08720863928958078,
                0.13416888969443597,
                -0.02783088047946103,
                0.4891868600594461,
                0.3917613948150054,
                0.19792109114462264,
                0.37227724032390797,
                -0.3084489274409422,
                -0.09599566000157522,
                0.002168322700075165,
                -0.09430275928838028,
                0.03298846995683358,
                -0.061817385460219976,
                0.007670946003823564,
                -0.2966679448327777,
                -0.022599619060343246,
                0.21677936473074733,
                0.42407518239529385,
                -0.0715077710030297,
                0.34166093063830405,
                -0.11428271007294676,
                -0.43926938392259585,
                -0.2250040595376426,
                0.2932456379539856,
                -0.28393965836608354,
                -0.20750569274386593,
                0.497370309753516,
                0.16170530829188318,
                0.3377919872976407,
                -0.38191462775863844,
                -0.4511621880644855,
                -0.38090317458648193,
                -0.10247124600249158,
                -0.30143511887742314,
                0.49162929968381897,
                -0.3842152708231832,
                0.32710066953393135,
                -0.4240941892691694,
                0.20008098226529158,
                0.15093859576192792,
                0.34434574152168296,
                -0.375841161186966,
                0.3623229586717594,
                0.2829785123224545,
                0.05338423944956425,
                -0.32820913188724005,
                -0.23328100933277712,
                0.4318523963641619,
                -0.3594835162770335,
                0.24677835651635463,
                -0.2136833402707803,
                0.470236006792364,
                0.05654170715276749,
                0.3353803189108183,
                -0.28422846751205966,
                0.2646261884992467,
                0.16342321973439244,
                0.315936598564411,
                -0.38414561580835394,
                -0.0491691565986963,
                -0.19042941872960975,
                -0.07166667011891445,
                0.45114583277934805,
                -0.04092807723049874,
                -0.3840614193568971,
                -0.24711033279867667,
                0.057732897847740716,
                -0.10702923519284324,
                0.4575873069392281,
                0.3246122999412563,
                0.3996195174102308,
                0.3939239913754555,
                -0.3468191134018295,
                0.40591929419142686,
                0.28249783462282074,
                0.39749816356870277,
                0.16329757706836479,
                0.3084947010650537,
                0.34111400030254063,
                0.2969579864332936,
                -0.13177552039731122,
                0.37610826500553396,
                -0.12837962037119882,
                -0.24970557648442748,
                -0.33592956129012985,
                0.4627987489474437,
                0.12034072123108014,
                0.4168199969697628,
                0.4889478723893785,
                0.3184594589180015,
                0.07355546897285768,
                -0.36552704256600077,
                -0.46737216285335303,
                0.13056794000620398,
                0.041476562640339054,
                -0.014113800347138494,
                0.036917322337759094,
                0.20815661633137292,
                0.3964226576612744,
                -0.12461318441897357,
                0.2797720611850053,
                -0.39612537780454843,
                0.259239067587549,
                0.0315376144729393,
                0.5159146570745259,
                -0.04997036901481485,
                -0.29757208123264595,
                0.4521718249180487,
                -0.4775648975990614,
                -0.40175071455921824,
                -0.037492845686702664,
                0.3674394805282811,
                0.2799821788378476,
                -0.1229790406489185,
                -0.2583891436586736,
                -0.18693469246553604,
                -0.28521016117111186,
                0.434701076584013,
                0.06067231830474907,
                -0.0050756521278893275,
                0.12384293074824926,
                0.2515320113763275,
                -0.4239618794316966,
                0.055170723914924835,
                0.34254878881990075,
                0.34582298826206986,
                0.5228057604713943,
                0.40323083274381555,
                0.35562866172861207,
                -0.029299240445736202,
                0.3204361909390052,
                0.18805315062131975,
                0.42425432080285663,
                0.22461013287046083,
                0.31762551680717904,
                0.1508427697271173,
                -0.29389881331137024,
                0.17395480070419664,
                0.16887789027113653,
                0.1987889018597585,
                -0.28784840600665357,
                -0.11641595507718826,
                0.45497976085145925,
                0.4121323895860432,
                -0.3403435108578878,
                -0.28611863447312974,
                0.2120625583815153,
                -0.25949045905162277,
                -0.03158592242336211,
                -0.4702424485366401,
                0.4864915416490295,
                0.09558160562255179,
                -0.12470055258913208,
                -0.33686698010667643,
                0.31158460329110665,
                0.330268724651696,
                -0.36006693769502024,
                0.02136376112423363,
                0.20938466915827092,
                0.02392727332427103,
                0.2643954343873088,
                -0.05182710418376557,
                0.01084184436410167,
                0.46693409900158644,
                -0.1265850584652957,
                -0.2718758429116415,
                0.45690591702728367,
                -0.21062388735610335,
                -0.3683413547555056,
                0.44195313512611273,
                0.20045606474235783,
                -0.28898651009005294,
                0.2562037302372428,
                0.4974129908116034,
                0.44025052739472204,
                0.4643873079155537,
                -0.223957642923722,
                0.2362883575244672,
                -0.14211061864549224,
                -0.44018069905847407,
                -0.1782767455687545,
                0.3074808005322363,
                -0.18982341715599582,
                -0.3446985063361745,
                0.3981226976671962,
                -0.17671835197082428,
                -0.19165557277228987,
                -0.11185577674949353,
                0.14692098580391916,
                0.35966016127734335,
                0.2911310112390826,
                -0.148915713516748,
                0.14247038451371294,
                -0.2928377449211456,
                0.23624883476762312,
                0.469446297287908,
                -0.11860583620252618,
                -0.03205031470464225,
                -0.15294467629406236,
                0.27790567118385834,
                0.18236932225037888,
                0.017977229845692232,
                0.04827267569676095,
                -0.35114147097717374,
                0.040601706660625125,
                -0.339028181222537,
                0.17969664267541485,
                0.3570783593821642,
                -0.07291183417820596,
                -0.43514517544521153,
                0.24097461503184264,
                0.4345661872261577,
                -0.48637673162453926,
                0.41580699120670506,
                -0.33013572319275064,
                0.24740962099935976,
                -0.30451414685044803,
                0.15005647312295511,
                -0.0665333385968715,
                0.6442823712575139,
                0.5959169816424921,
                -0.40882426438372244,
                0.47993904724712905,
                -0.2722130257847056,
                -0.42680786758623873,
                -0.11001005546646662,
                0.3691412040231629,
                -0.36392471043093344,
                -0.49725314173396357,
                -0.37012634247478127,
                -0.3776455488619429,
                0.0390695217393527,
                0.06754617288895493,
                0.2047613411723097,
                -0.014616928220805625,
                -0.06336351621249216,
                -0.23718702976109804,
                -0.2989611698469502,
                0.34729311872496843,
                -0.019803841953369358,
                -0.0890212962858204,
                -0.4512841548457569,
                -0.38873530305646015,
                -0.04364274423528429,
                -0.20351491426808907,
                0.05955683071779746,
                -0.3212546144742702,
                0.19535118005921934,
                -0.10055628052487717,
                0.43624177993978536,
                0.2828013809065013,
                -0.1588057509754138,
                -0.42369628590189856,
                -0.0927503393772492,
                -0.28012135247749836,
                0.30864656294955556,
                -0.21837063207818488,
                -0.1217891322229296,
                -0.1359246132147855,
                -0.08303069850479594,
                -0.3659559678346923,
                0.13918303118538466,
                -0.4437902110094014,
                -0.046400326574667555,
                -0.35673495598276633,
                0.13269406060765546,
                0.29067076161312994,
                0.4127411226703699,
                0.05915710221427953,
                -0.08821199063633568,
                0.0739602130961857,
                -0.49746725016396803,
                0.0451463756650395,
                0.022123793932230913,
                0.2387137875239815,
                0.36658834703157045,
                0.3415371743115383,
                0.016901416214766006,
                0.03714659430396868,
                0.14765353778781815,
                -0.4303844761945606,
                -0.20297581860717698,
                -0.5433336228315029,
                0.36847455812470625,
                0.3785596636531296,
                0.2894832342443621,
                -0.27814992990476906,
                -0.4766699326506305,
                -0.11525771883579738,
                -0.045570948471786665,
                0.026555269763730238,
                -0.4852699876644705,
                0.2668600672166178,
                0.2109007633440598,
                -0.058731506988520296,
                -0.34763026006835823,
                0.09330991771802079,
                0.3635275041401153,
                0.24939899050332906,
                0.44791895073707705,
                0.3345284949726443,
                0.06391280004058823,
                0.5426347589450256,
                0.22259230965426136,
                -0.22945094406867192,
                -0.45740824555862425,
                0.1284679535412094,
                -0.2661430973058142,
                0.4715210088302463,
                -0.4612691740322719,
                -0.205141364211775,
                -0.356355524991035,
                -0.17389168873308733,
                -0.21634817926606717,
                -0.41096764813753933,
                -0.1673692251790373,
                -0.0864896859591554,
                -0.3565247743922577,
                -0.08028114453152413,
                0.155212244456703,
                0.41675761951677076,
                -0.35979691024964805,
                -0.12407670819766575,
                -0.4204727790235516,
                0.3299276005145452,
                0.04629891683193609,
                0.40570119172098296,
                0.32217784092677554,
                -0.24037142662479763,
                0.17609532905749517,
                0.35784526347013346,
                0.23227343465258884,
                0.08392967451397701,
                -0.3783553825743289,
                0.4025760676476202,
                0.2446188182212335,
                -0.22831914169204742,
                -0.3111388732225705,
                0.03436022088082761,
                -0.03193531495767258,
                0.38451950461325857,
                -0.18998736851221468,
                -0.39151986992164794,
                0.2450427231215574,
                0.4858278680746113,
                0.30953803758946363,
                0.3712629971842196,
                -0.314194806146071,
                0.05073653134074292,
                -0.07924559317666416,
                -0.06516709488281093,
                -0.28633996765306513,
                -0.37305689613221676,
                -0.043817680531652914,
                -0.18551865997750946,
                -0.1590476811660103,
                -0.3537905021205342,
                -0.3203688893404957,
                -0.2692301559202893,
                0.3619204429805071,
                -0.06488160108698426,
                -0.37112202488169094,
                -0.22452016742097822,
                -0.2590951125545723,
                -0.3442364335951324,
                -0.06219233348230301,
                -0.0748127095613392,
                -0.3786667580832634,
                0.013581760608996093,
                -0.3789831226377101,
                -0.45500768121353347,
                0.14174342493114722,
                -0.14600774488416657,
                -0.41835817383174256,
                -0.006680100401781908,
                0.453953773243881,
                -0.42670860564156493,
                0.42880104676026426,
                0.48556999016841806,
                0.34708049173046296,
                -0.12085633829417686,
                0.007040775460516829,
                -0.26676619921773653,
                0.26046211909675326,
                0.14038801215514352,
                -0.34242673978143473,
                0.0818623921068353,
                0.3555550987439842,
                -0.3443751297137181,
                -0.32800473261314866,
                0.06112894355928821,
                0.4396803642395553,
                -0.29039734326683214,
                0.12114201869919533,
                0.4434572821968019,
                -0.09904242515712397,
                -0.017569174121363818,
                -0.015786995123114874,
                0.35554282028686224,
                0.43791654382574213,
                0.4685504901233588,
                0.3614946647472361,
                -0.18491687031003112,
                -0.27239124560313216,
                0.013738083001099861,
                0.0586647353337531,
                -0.1976368100222062,
                -0.3121820133039841,
                0.40164690019042915,
                -0.23898474704137002,
                -0.3389732986715121,
                0.48677468395977247,
                0.1730849006517541,
                -0.08091618442824282,
                -0.12805543303110112,
                -0.23889789692359437,
                -0.414208824130696,
                -0.10537157165643707,
                -0.2858943229982748,
                0.5016372307594024,
                -0.07583745208040937,
                0.09292108300382056,
                -0.3277676359862556,
                -0.17648964552560448,
                -0.10227457237393707,
                -0.3766398128594068,
                0.2985012579342778,
                -0.14614663440083073,
                -0.12992647759975984,
                -0.017611634265456533,
                -0.49760746526238,
                -0.37700496858275223,
                0.10897407924920013,
                0.20116990523625383,
                -0.2667552165002058,
                0.07919414276055795,
                -0.2725622031290548,
                -0.4087470674226849,
                -0.5617407227452083,
                -0.4828127004180951,
                0.15834711482541394,
                0.007148310710410972,
                0.05327116031890107,
                0.18902498488348607,
                -0.36855045975572026,
                -0.3694014170607315,
                0.4674464181026129,
                0.28899679989044075,
                -0.19399333652639567,
                0.47832716279593784,
                -0.348702725870582,
                0.3881769524976589,
                0.05890198886943105,
                -0.40785930723574304,
                0.41889356942161593,
                -0.07813382910531297,
                -0.39708523617807706,
                0.3586369249158896,
                -0.44182287852720636,
                0.07903206998204886,
                -0.2620180505466024,
                0.5017879962140039,
                0.06465112437735902,
                0.44058826592572453,
                -0.4335688336374554,
                -0.41936432387673184,
                -0.4864463944283425,
                -0.5098721828824443,
                -0.614545923724891,
                -0.21704462104634187,
                -0.25147718980469996,
                -0.44620482436580744,
                -0.1532560758438385,
                -0.07921447009206237,
                -0.39869533093052134,
                0.4910200697869315,
                -0.10655664547752812,
                -0.11732835849304402,
                -0.3040996275567988,
                -0.030137128280614617,
                -0.032049912505770974,
                -0.12120922854826814,
                -0.041098376910170854,
                0.15687144106297513,
                -0.046354945843453885,
                -0.4204464005039469,
                0.006367165494651883,
                -0.14529881029374037,
                0.2750267653396619,
                -0.28187952051739357,
                0.2690446925813426,
                -0.03996288375793623,
                0.259488519585431,
                0.09118104478414502,
                0.0021151131262418096,
                -0.3290535522222091,
                0.1338030525980547,
                0.1710943597598612,
                -0.4541539224852794,
                -0.06089630857214959,
                -0.31088323794479106,
                0.04548880774881254,
                -0.22546460596620735,
                -0.26259163634410054,
                0.17477232700534848,
                0.3836653761479986,
                -0.1771971008469683,
                -0.38479290430165797,
                0.07715981109740003,
                -0.07187457987719698,
                0.13562680052819331,
                0.1496686374782903,
                0.10170796221566059,
                0.2638393573204546,
                0.12128909073829064,
                -0.19599660936601213,
                -0.27953706059757727,
                0.3738770308885319,
                0.10649449255553634,
                0.40712137214327637,
                -0.3740742945814782,
                0.5655771689111025,
                0.42381949543287134,
                0.1435023685591743,
                0.448545699579722,
                0.1229559411737803,
                -0.20711674679559303,
                0.058525012851262125,
                0.609443411017193,
                -0.36591500201931787,
                -0.4720574744563547,
                -0.2381207759203595,
                0.3340922080051463,
                -0.37490611227183385,
                -0.3559124778624881,
                0.4081499065755665,
                -0.4190911278250564,
                0.1561338706630209,
                0.4040865430506977,
                -0.45482285765971975,
                0.4644806663349559,
                -0.4167822065279505,
                0.12660835434020545,
                -0.18737874914782884,
                -0.23527750582609816,
                -0.1724237774642998,
                -0.24084822209714235,
                0.4463339918227566,
                -0.23514395833539892,
                0.4233640234694175,
                0.049125720907713624,
                -0.10411601116416702,
                0.07618925656634846,
                -0.12401489117279305,
                -0.02864695664303079,
                -0.2223099082053085,
                -0.13305740071912223,
                0.5271353249029693,
                0.36624118708819703,
                0.16944603502865013,
                -0.506026163151256,
                -0.01995481575556757,
                -0.2563921539822003,
                0.15387799390386547,
                -0.034772881947092535,
                0.28939593441661965,
                0.09835764104958587,
                -0.26724416419227226,
                0.2536622498424962,
                0.4608765870967537,
                0.1013689748083294,
                -0.16165496512222444,
                -0.3561793522363906,
                -0.17601877871042365,
                0.11494219363779445,
                0.2847270714713887,
                -0.26926287057452036,
                0.19256697854154348,
                -0.018505198308617403,
                -0.08318502354677203,
                -0.48466950815757714,
                -0.3178884555806794,
                -0.3615806158428312,
                0.37665928966879314,
                0.20511821773119154,
                0.383634838082662,
                -0.10180431822550587,
                -0.16662841616274793,
                0.45636486861630354,
                -0.37207081248330237,
                -0.45445662747626214,
                0.06456371143136413,
                0.4181000922474724,
                0.10499647637521337,
                0.45391336899883483,
                -0.17350989562031627,
                0.27256460864955645,
                0.35019437289811184,
                -0.009999481731392756,
                -0.12432063025119673,
                -0.4700689133879289,
                -0.2264781062964356,
                0.21630242151812176,
                -0.054059169105443235,
                0.507197059705546,
                -0.0784276385505152,
                0.2191609129264748,
                0.4723033634045989,
                0.14603470982676522,
                -0.2830739870718557,
                -0.29668625586421415,
                -0.0819404944159063,
                -0.048323554441650096,
                0.2784904489379024,
                -0.02366531661911072,
                0.10758846537569196,
                0.3227644278005083,
                0.43253320767219455,
                0.28095090667477157,
                -0.009662245818005195,
                -0.11010376576044446,
                0.1297550550877844,
                -0.3225945832151025,
                -0.05872579118025045,
                -0.48396178044586513,
                -0.4453765035776842,
                -0.355065119325796,
                -0.0690649587506208,
                -0.41549915158687895,
                0.37998668229689425,
                0.18805243779166403,
                0.019112806511778248,
                0.502521153397931,
                -0.4560406936114952,
                0.27869614866698833,
                0.4314710620038872,
                0.3797991880230402,
                0.3232666372574322,
                -0.09700136084506633,
                0.1511812408277336,
                0.024971231645878316,
                0.12649549526166307,
                -0.14609873566016301,
                -0.18985697912226182,
                -0.2872457196035274,
                0.4303805922713301,
                0.48674026150608646,
                -0.08619851755843498,
                0.20569820730249289,
                0.012545492591616081,
                0.14933137858001433,
                -0.2705587058621236,
                0.33233655509629345,
                -0.1698092853399401,
                -0.36853887242252037,
                -0.3037609752349475,
                -0.36687430696360024,
                0.4758743174906783,
                0.3210592767033874,
                0.3355167068970353,
                0.2755098479914137,
                0.06568031022697247,
                -0.4549038091814305,
                -0.09941863444728848,
                -0.27995938672273746,
                0.43999056878869147,
                0.004889885699809014,
                0.2922717858744524,
                -0.42299818333007566,
                0.41861610916298353,
                -0.22494846178031627,
                0.12509618004908532,
                0.12308396610783309,
                0.07850901295385937,
                -0.28803655108312526,
                -0.3093700065832305,
                -0.38886623935217557,
                0.4035166825249461,
                0.46132562796113163,
                -0.17255578939253446,
                0.38640038035123436,
                0.2494621922165442,
                -0.23939522315584638,
                0.059509359254086736,
                -0.476368033183468,
                0.11748311927807253,
                -0.2814127065538478,
                -0.33521731823623835,
                -0.2969181815022649,
                -0.4310580378511649,
                0.06397672117909281,
                -0.09010329932868248,
                0.3965021166020633,
                0.16302551841487348,
                -0.010567578713960777,
                0.1237131972223065,
                -0.4664380777276291,
                -0.17835269472469525,
                0.4639330672938959,
                0.2948326716744031,
                -0.26563049680990647,
                -0.194235893112456,
                0.39426229132851065,
                0.4843390882329224,
                0.07014846846244438,
                -0.018637878255729046,
                0.06650582344642197,
                -0.16683155003433636,
                -0.47578556948386364,
                -0.4074942083375588,
                -0.16600252440559393,
                -0.24213154346542376,
                0.23246884165686676,
                0.37611406262080804,
                -0.14614943931384794,
                0.05555389018326884,
                -0.1812400371840479,
                0.33363545049139265,
                0.3703464279042405,
                -0.3383146781527677,
                0.3595269698082103,
                -0.0380167691627546,
                0.029708796997713,
                -0.15797641167989102,
                -0.1486648292934277,
                -0.09086075069391183,
                -0.2030123398842267,
                -0.44563356900941603,
                -0.23014084709937765,
                -0.1219746262085788,
                -0.27734648099958137,
                -0.10961422783015595,
                -0.38087928724365194,
                -0.21264563964415195,
                0.2479582516950617,
                -0.04009303262839714,
                0.1543784980259606
            ],
            [
                -0.11609473258050385,
                -0.20351776106082298,
                0.03934032927302511,
                -0.4810485041371647,
                0.18480063252101597,
                -0.4940195351697726,
                -0.48886993405750256,
                0.2170927905409198,
                -0.1905086758072243,
                -0.37994986007196574,
                -0.35197929953506746,
                -0.4594864243393464,
                0.06139438319199708,
                0.20909744049555568,
                0.44079208391735425,
                -0.25605660094070337,
                0.4027348843541113,
                -0.132869243352716,
                0.25883621574023485,
                0.058674729463551345,
                -0.16258885085600727,
                0.4714265763021659,
                -0.12322301059532137,
                0.06685080537332977,
                0.4559279414350793,
                0.023606315562609725,
                0.32018056186795285,
                0.4247282734354185,
                -0.3195049055676862,
                -0.11956992532673583,
                -0.018427657320630453,
                -0.10125753495104473,
                0.4875306613312693,
                0.32109473081865636,
                0.036630626251148435,
                -0.427343507041949,
                -0.07336092523518067,
                0.10497114805322871,
                -0.44310962400668463,
                -0.022379124882026424,
                -0.43884391635525033,
                -0.18216401398156812,
                0.16879654648115217,
                -0.06565665964618417,
                -0.059859950717782606,
                0.15589296235150307,
                0.3712893674991591,
                -0.15616098289846403,
                0.37300721503930845,
                0.48654922412570145,
                -0.39624950291039185,
                -0.4681324096169789,
                -0.13075297697244614,
                -0.48771582072218855,
                -0.30781651284754896,
                0.22142536605386476,
                -0.18505950837543161,
                0.009709143632334771,
                -0.04047783896739554,
                0.20614115734733274,
                0.09439278766678605,
                0.365449395338465,
                0.33934131202523504,
                0.4107677572338987,
                -0.05929437419401459,
                0.008363234083708149,
                0.18824008517560467,
                -0.28554621665151464,
                -0.03051460246130051,
                -0.4867963369301294,
                0.0705280169120853,
                0.48291805579008634,
                -0.059003451170564804,
                -0.2908545592620017,
                -0.001427675334959093,
                0.49230827761033447,
                -0.22370219184572038,
                0.24083714968708997,
                0.4043932646717364,
                0.4772733534708725,
                -0.3768994554212367,
                -0.465378984342395,
                0.06830224066355084,
                -0.051201094199223696,
                0.49234238818679876,
                -0.19133758159212855,
                -0.12357225495793844,
                0.09958043254827431,
                -0.07736168037745295,
                -0.401911203028424,
                -0.20607779456689654,
                0.1314258447891979,
                0.10947387014154564,
                0.028680128138608662,
                0.13911170361715505,
                -0.3285554243631073,
                -0.16023659499669185,
                0.24954819526281322,
                -0.17563111460035685,
                0.08153141487828885,
                -0.38366906800553113,
                0.47564875024468506,
                -0.19006942729658768,
                0.1134991759112358,
                -0.20601063070850167,
                -0.4130234352218868,
                -0.48452882053416346,
                -0.0755880218254799,
                -0.3224350290232557,
                -0.03830424413718159,
                0.07444766031999028,
                0.1902653224884202,
                0.13109372784196938,
                0.4769899482194976,
                -0.11819801211992442,
                0.19512895468342795,
                0.33734824031478594,
                0.23920295901750638,
                0.018804387494198258,
                -0.40000613033562143,
                -0.4926385584985115,
                0.23199118778314384,
                0.044786683443096706,
                -0.3523603203209916,
                -0.26789855097263754,
                0.08244856408219228,
                -0.32950272801133457,
                0.45466217376052503,
                0.48236005951272853,
                -0.3190473763279177,
                0.16576730592988628,
                0.2092154740787122,
                0.43407571701553244,
                -0.15857378129858601,
                0.07646069953925735,
                -0.08150055655329096,
                0.08990474811845367,
                -0.25920699648399076,
                -0.33302194377195593,
                -0.2808272243793897,
                -0.4996733581073529,
                0.2734195948973983,
                -0.2059984286665706,
                0.11512888057616498,
                -0.05533599594890458,
                -0.39605439504210777,
                0.15211701020876445,
                -0.3000292992540048,
                0.047396099090843385,
                -0.3880579512458314,
                -0.16424032234768915,
                -0.37424035746904566,
                0.12557946822844104,
                0.16659606960789194,
                0.16681377506719566,
                -0.4255637543248755,
                0.42939920943492377,
                -0.011381432217213324,
                -0.08885493725263204,
                0.03939139836810647,
                0.2962072783745921,
                -0.4321500011715243,
                0.27428034778738897,
                0.07949882443304568,
                0.14634457068447634,
                0.25188825480896104,
                0.1541948600047398,
                0.24928323879710945,
                0.3841593780241914,
                0.4010704656707418,
                -0.17736290885159534,
                0.4779257759527679,
                0.2551916286473916,
                -0.4347632808009574,
                0.48075209230345833,
                0.017812193461226557,
                -0.4829441897831649,
                0.4253219613985747,
                0.2910008594893638,
                0.3211738292706512,
                -0.13598902799108303,
                0.33732378817868125,
                -0.3067727490198168,
                -0.40176055675208383,
                -0.24919005637724548,
                0.06838561874795177,
                -0.057333874480524405,
                0.138179429349554,
                -0.15433617375405703,
                -0.11463156245860287,
                0.2823454204616565,
                0.36624660512187623,
                -0.3535167941498026,
                0.45826788410799196,
                0.48541666585958126,
                -0.3366146246775481,
                0.48271119855576516,
                0.3817076888123358,
                -0.2847626356294929,
                0.17837527180591214,
                -0.3340096918876485,
                0.020711566014063355,
                0.13370522439858515,
                0.020987533402236764,
                0.15383834967354001,
                0.2873209603423803,
                -0.26352091530727717,
                0.1368642689039696,
                -0.11089710162142012,
                -0.0993108992616238,
                0.34727861343021055,
                0.1895066758940655,
                0.21775433280189152,
                -0.41245993094964073,
                -0.3327370243244136,
                0.24641879424392368,
                -0.117503344639009,
                0.5180798406132778,
                -0.20301189382487844,
                0.2979517235191418,
                -0.32174884295529077,
                -0.3656256567365778,
                -0.11782981175138961,
                0.024681458071990736,
                0.2986269445121047,
                -0.1713588354968282,
                0.4009351529967317,
                -0.4886044205702582,
                0.4704150594153231,
                -0.4864602620856023,
                -0.11520780905997,
                -0.5555731062511798,
                -0.19361441564450865,
                0.34089583314188643,
                -0.26490915431308537,
                0.1875538343710186,
                -0.019514103566458184,
                -0.031488539285403246,
                -0.3232094027492271,
                -0.140393409703852,
                -0.12616550518626413,
                0.13262137909533953,
                0.018034248206673292,
                0.20985134072075085,
                -0.07608255812024883,
                0.4046994770858811,
                0.18153927090567795,
                0.29092154427685285,
                0.2663563362198894,
                0.09091278483044962,
                0.2619523080364026,
                -0.48967966615659275,
                0.359506096094373,
                0.3964803161018047,
                -0.06808771786182259,
                -0.3900420671208023,
                0.1529218903082172,
                0.4443891033120114,
                -0.4410599644546975,
                0.42492107746508184,
                -0.051032918869972466,
                0.22020934464103628,
                -0.53976147315649,
                0.04342983692265877,
                -0.15188320030428046,
                0.2886394492141011,
                -0.39543766998238716,
                0.19304209658301577,
                -0.15776810459220772,
                0.23134573603851552,
                0.055149923595508514,
                -0.12446890618863166,
                0.07519545346957968,
                -0.022734431644972228,
                -0.4149137026114847,
                0.28821050705965046,
                -0.25962592806684637,
                -0.4811236202010041,
                -0.39746665895172306,
                -0.32753703013698077,
                -0.31590008445864015,
                -0.3554042870226771,
                0.22671199406380074,
                -0.3221921839626411,
                -0.1107874349166565,
                0.3952436344464242,
                -0.09866250749443474,
                0.4222848341957243,
                -0.4976142217738331,
                -0.1655832182154831,
                -0.1112655080592099,
                -0.0166334891712779,
                -0.6416382012978841,
                0.2552772031984614,
                -0.048985857401326556,
                0.4111794049345359,
                0.051717495413432214,
                -0.47310826434704717,
                0.06535334106651314,
                -0.21199142288888595,
                0.3164144318759962,
                0.24168494765739953,
                0.33994545172289264,
                0.15529117418731606,
                0.20542158136320113,
                0.3769926282227317,
                0.15473678231416266,
                0.4484933658876059,
                0.1366650575380759,
                -0.23253694652005508,
                0.414143034933815,
                0.4938228803550802,
                0.3856556154617537,
                -0.28479197400571665,
                -0.23211131458355527,
                0.20700239129872755,
                -0.5932630368552602,
                -0.20535040067494417,
                -0.559152015079481,
                -0.5373265913178282,
                0.30439687364869855,
                0.06836736557359176,
                0.1124159442531645,
                0.6156290110916941,
                0.05544500077870713,
                0.3932658242046307,
                0.28895604007812453,
                -0.26980164996349365,
                -0.07529684706412784,
                -0.37663222859561607,
                0.1467311147232845,
                -0.35462354069221025,
