{
    "activation_funcs": [
        "relu",
        "relu",
        "sigmoid"
    ],
    "layers_amount": 4,
    "weights": [
        [
            [
                0.3877536262986173,
                0.212060861090564,
                0.43283419884661223,
                -0.479108251729062,
                -0.20885600554270134,
                -0.3543136160518201,
                0.39456555378947045,
                0.17579592391892385,
                -0.36606384501191325,
                -0.3280564984225556,
                -0.37330766194434317,
                -0.12854732441252448,
                0.04547511991074071,
                -0.19976036506381245,
                -0.43261379941709854,
                -0.023169044112639092,
                -0.3531730132539318,
                0.23043104993717334,
                -0.17889622955353157,
                -0.2688319753725017,
                0.02534530432393567,
                0.4858098746138698,
                0.1487457850502788,
                0.16652339013460526,
                -0.4596684442727422,
                0.2578933988938579,
                0.19956091067305715,
                0.0033874203151913473,
                0.06723871415663896,
                0.0847192557305767,
                -0.005380700910634695,
                -0.1229224115505334,
                -0.12551885106991245,
                -0.2644136710393825,
                -0.17762580553100624,
                0.29631913232828905,
                -0.3136896493522685,
                0.0705779430631519,
                -0.43184956755844933,
                -0.3779182982965871,
                -0.19579492423974607,
                -0.19827364727621039,
                0.3750130175823198,
                -0.2605633677090731,
                -0.3343833208600272,
                -0.3405843654454632,
                -0.16448462327545002,
                0.23693568319814381,
                0.06252497949390827,
                0.03605515981858143,
                -0.15388383160377395,
                0.05228133505635024,
                -0.4505243985906583,
                0.2230491176908832,
                -0.472321197315679,
                -0.23788346292583962,
                -0.3622130531125244,
                0.006020505313225066,
                0.3840227841715901,
                0.41716110557866426,
                0.20777718998572847,
                -0.4575971086610468,
                -0.15918575352828418,
                -0.29577389313477903,
                -0.47121927102885297,
                0.05149660552270473,
                -0.45661336389711293,
                0.44334113739180464,
                -0.3118868268597891,
                0.10783905321809001,
                0.31335288680427237,
                0.019877684541886084,
                -0.022078016618680713,
                0.10878997722734088,
                0.46705514789102726,
                0.09555595575708667,
                -0.2527853945115935,
                -0.010840278659127182,
                0.33014631659882676,
                -0.3430794567817057,
                0.2345081192637538,
                0.02876981081914698,
                0.2800344283227574,
                -0.3070961308614545,
                0.12905412793428006,
                0.10797314091953547,
                -0.02250000221255962,
                -0.21146317912231716,
                0.3596903695842675,
                0.2517811221410485,
                -0.47814617702623397,
                0.44409472486320845,
                -0.3094072497231043,
                -0.3035218994371901,
                0.4934286639406028,
                -0.1670564023420374,
                0.10992974927064227,
                -0.15575076174551375,
                -0.024595868740538273,
                0.36073883511628074,
                0.27105074347896435,
                -0.2387421019830019,
                0.2543695276688884,
                0.4824562893705698,
                -0.3753989284713268,
                0.17141893869036431,
                0.2969550680289411,
                -0.02232202969177849,
                -0.1353417904315167,
                -0.4998023643949852,
                -0.2074646613213823,
                0.2874716262016519,
                0.4921131377785861,
                -0.18228850613581515,
                -0.37301496122246314,
                -0.048966953935673685,
                -0.3626326712393249,
                0.17957128741566805,
                -0.41393772030401793,
                -0.10721996324719671,
                0.4516611238857041,
                0.01784344005209757,
                0.4967069719507722,
                -0.26794229725301166,
                0.13327203265286974,
                -0.16278209034061067,
                0.08207731259258401,
                0.07235705903924922,
                -0.3739684261614467,
                0.13739393151684737,
                -0.08437309565157994,
                -0.15664660630550523,
                -0.3674952629615311,
                -0.1605568000057243,
                0.09058112710949699,
                0.0012760712343645873,
                0.3323614312830161,
                0.2594551652764853,
                -0.41393204288091356,
                -0.025500488685955336,
                -0.1803106884751874,
                0.48102750699187147,
                0.2615698890731804,
                0.12645195074708043,
                -0.24997542646127083,
                0.347823757117325,
                0.3544326655154551,
                0.35769243599412087,
                0.06271888496434248,
                -0.13694587785378864,
                0.3730057436473074,
                -0.28714653551622116,
                0.2774310211700466,
                0.44125896700267864,
                0.21580406100137603,
                -0.024412970482179833,
                -0.3204354913189014,
                0.22388304096173134,
                0.12036370701270675,
                -0.37836235102922666,
                0.08241087104529152,
                0.5253609180016428,
                0.4556853423726972,
                0.019777832412886418,
                -0.055401796263005704,
                -0.36552799659947033,
                -0.3910243079975474,
                0.35695425662673097,
                0.3710417092952898,
                -0.11853956841789626,
                0.2314090898913085,
                0.46907481007747137,
                -0.3557985102467885,
                -0.3083274068044866,
                0.524698974855422,
                -0.024043318081829995,
                -0.31234578054216194,
                0.14361297221383584,
                0.005328441368542348,
                0.5315350067651905,
                0.41790010968010344,
                0.2120236902610532,
                0.17291754165415663,
                -0.1596903377792896,
                -0.4997999943589737,
                -0.06784835215813938,
                -0.20975190176888606,
                0.601608237916587,
                0.40071974201281646,
                -0.0808028201766826,
                0.4534046799667937,
                0.2666423867563084,
                0.052813701573934856,
                -0.2535011635641667,
                0.21260093067271701,
                -0.33397869596886176,
                0.0038818688966580916,
                -0.38809582117516583,
                0.4158457744239751,
                0.11765548182177706,
                -0.41493673014974425,
                0.515319765038092,
                0.5759971563130215,
                0.4533300826826157,
                0.18466889225834968,
                0.20754739931009497,
                0.31359064351382754,
                0.2494342287087386,
                0.40742992646428833,
                0.299153135194668,
                -0.05694198579927025,
                -0.18317365821191173,
                -0.057453931608405756,
                0.2472675776693728,
                -0.4408575203403069,
                0.1477407319207573,
                0.36571797273673284,
                0.1076991379067847,
                0.09816634237715062,
                0.0013834719122299225,
                -0.33498686882321305,
                0.16494213525431342,
                0.2382729667110631,
                -0.4423925740132522,
                0.02936735839628324,
                -0.10226059044893708,
                -0.14295100849902706,
                -0.22967875644035135,
                0.1843705818569115,
                0.01368594932845241,
                0.30031143349228445,
                -0.13825977718416693,
                0.2748177029713295,
                0.4508818772535694,
                0.08138126819425122,
                0.5178192683548121,
                -0.07813044572489025,
                -0.3196076771895001,
                0.29433653478931726,
                -0.17533986863152917,
                0.209648119475018,
                0.3919280630815217,
                -0.3740272529964248,
                -0.1628426364421495,
                0.206298796301178,
                0.513128794448643,
                0.06401808893433023,
                0.4491466201645062,
                0.08734009773426915,
                -0.16208591982921777,
                0.03472230116601119,
                -0.2979598733316545,
                -0.03786504140819236,
                0.1478283233480567,
                0.45470486806442834,
                0.38747279883936636,
                -0.44194439545824465,
                0.044935401924366,
                0.24487608184705767,
                0.2750874459431522,
                0.42931390615697834,
                -0.3154715618474973,
                0.5366482932854097,
                -0.21409173886921098,
                0.11760296864199896,
                -0.42055835678594083,
                -0.03316598092033469,
                0.25634106067256096,
                0.0364053064209642,
                -0.2655328004867987,
                0.30118243317179566,
                0.4906647296500925,
                0.27523961925667556,
                0.3272413883272031,
                -0.09253575157614832,
                -0.05457132022352977,
                0.15662077338835304,
                -0.4425601606261359,
                -0.4887179569975964,
                0.437963840984413,
                0.06559281650125681,
                0.2790262474055268,
                -0.3789287690532754,
                -0.12422674869890848,
                0.17109533408508407,
                0.08358304463835926,
                0.47542954449588914,
                0.46598199823156417,
                0.43062241685376534,
                -0.40945426677909674,
                -0.421535397943967,
                0.3901421656767699,
                -0.5858278362929049,
                0.12856028119840318,
                0.21810829242605528,
                -0.058672312915425386,
                0.6028561490665695,
                -0.18356447698295378,
                0.4784796562001182,
                0.1418221493334869,
                -0.3950216180114403,
                0.31172998084868553,
                -0.047843079851618085,
                -0.4339488096263771,
                0.28940048625493303,
                0.008525411154448779,
                -0.2658540552916698,
                0.4551833312638057,
                -0.09330369051724818,
                0.36858342901286434,
                -0.44054982566747153,
                0.2948688507313815,
                0.08201178781577954,
                0.30028431136268874,
                -0.0437415628931022,
                0.307564103655357,
                0.2124033322606119,
                0.19296900507695777,
                0.20258365795185057,
                -0.26285840836704,
                0.26709383916148266,
                0.2679493930584766,
                0.34994841941040805,
                0.3244313141349063,
                0.5370403129128245,
                0.18096182568080751,
                -0.10096439021601081,
                -0.058334562362723705,
                0.010291042982094543,
                -0.25637030452836956,
                -0.4925449386103792,
                0.2930238759362106,
                -0.03944191954600163,
                0.39318736646715147,
                0.14936644138238048,
                0.13559200709769842,
                0.17527467241997985,
                0.3035354423728956,
                -0.14397532032243235,
                0.09492645790573248,
                -0.4663127487611502,
                -0.1545892910420412,
                -0.40515036493874107,
                0.09862198519046772,
                -0.3752098106769616,
                0.34395467008993125,
                -0.43392507251342793,
                0.39806062999242264,
                -0.37433633120008064,
                0.483276638932844,
                -0.10616870835171381,
                0.5395383961999319,
                0.37772709334990134,
                0.10162385528645992,
                0.22336098428385454,
                0.28042351379851294,
                -0.18666503029731749,
                -0.5498381158676983,
                -0.3811076819764574,
                0.4167260124706825,
                -0.32400925450094864,
                0.41188159144501413,
                -0.22621608006850139,
                0.15232080576018175,
                0.0927633250818447,
                -0.3677018926711281,
                0.33998112632728394,
                0.3940829531855074,
                0.23572092174245218,
                0.26611931492081703,
                -0.500441486037577,
                -0.3509743516643976,
                -0.13264884714128675,
                0.24485780625989337,
                -0.2861802821106201,
                0.16536623350382165,
                0.028900733330765524,
                -0.4053503004479496,
                -0.22632971572844457,
                -0.19013028478248867,
                0.29540583584611485,
                0.30179960027387776,
                0.27687463925689615,
                0.05468144289133126,
                0.03406967284298847,
                0.45111085752075786,
                0.1133495618445503,
                0.2525161219308343,
                0.4330387616254013,
                -0.09101234424283197,
                -0.27900537969389944,
                -0.43106748416769014,
                -0.1954126796891693,
                0.05918559553276914,
                0.16775685033467036,
                0.2770344221530973,
                -0.32684071548524374,
                -0.4727490574967255,
                0.12061753429688504,
                0.1235251316050767,
                -0.3084738561167853,
                -0.4023111266908012,
                0.16107742981476345,
                -0.025386998318978515,
                0.3914841821824741,
                0.1885114546909064,
                0.2815620191534071,
                -0.2785312986497818,
                -0.006557611152145449,
                0.024363783382260615,
                -0.2050236556236655,
                -0.3400753302307183,
                -0.020392515146426416,
                -0.4395080223389746,
                0.1444857071861402,
                -0.3250708021602456,
                0.3900875803420433,
                0.06628074800756795,
                0.484994229787775,
                -0.09544903341650024,
                -0.4589784724744793,
                0.3110150348087447,
                0.3525884107216662,
                0.06382549084769122,
                0.2837275992534864,
                -0.12414092369548542,
                0.08748709687735946,
                0.27183188409947784,
                -0.4115993034800208,
                0.29183183994076306,
                -0.38143075376946783,
                0.20454598626098963,
                -0.22502204576376866,
                0.4288414496870682,
                0.28747710969673984,
                0.01824157272343451,
                -0.1276078510004023,
                0.40925606262428676,
                -0.1254739394076029,
                -0.15482093795872623,
                0.025510148072563035,
                -0.42066511091177816,
                -0.33557755048945476,
                0.11344727408263712,
                -0.15650327121096302,
                -0.0671852186881833,
                -0.23057432124416496,
                -0.016463746621593556,
                -0.22385350649408942,
                -0.23182631784299246,
                -0.04483702459097941,
                0.13580306688921304,
                -0.12666294110517934,
                -0.31807049104991625,
                -0.47795203415436677,
                0.04639084339541733,
                -0.1340757676835437,
                0.13780663972118185,
                0.22055192848387986,
                -0.15532049286711158,
                -0.014874649655126984,
                0.5388783213637461,
                0.5037063943668588,
                0.5207854837997369,
                -0.17569419184311655,
                0.04609517603397715,
                0.2028846348116813,
                0.07034860115844968,
                -0.14088296511684215,
                0.40933615351155006,
                0.3847926146851131,
                -0.026888747243893816,
                0.08434480218475492,
                -0.24953417966198324,
                0.4924085217305973,
                -0.32565924640087585,
                0.1408275955641688,
                -0.12521303230648267,
                0.2921804440553669,
                -0.4751481105024261,
                -0.05731088830214615,
                -0.10949007751693042,
                -0.19640776462903442,
                -0.20975439234675347,
                -0.2324772491135653,
                -0.5660790415690624,
                -0.4309390681260947,
                -0.18282691454152997,
                -0.11546837566588226,
                0.034970615846872964,
                0.233075170153371,
                0.12713127809930963,
                -0.030494118634688136,
                -0.29284439850828425,
                -0.16958070028985017,
                0.21121340799860952,
                0.2624090037771451,
                -0.03407022250778164,
                -0.428285872147143,
                -0.22052177206259058,
                0.050277587013298486,
                0.0944746299943038,
                0.4941435330888992,
                -0.3672985704764137,
                -0.04503057635877172,
                0.43798633121861863,
                -0.20217084332671817,
                0.48807781099839265,
                0.41614579178776234,
                -0.42113397197834845,
                0.18321800910337196,
                0.2587166672717373,
                0.17805738648064992,
                -0.38967029341269344,
                -0.20579492465528046,
                0.07525119522789846,
                0.17225542934711044,
                -0.3396871866248765,
                -0.34538516118175516,
                0.1929714343786807,
                0.025562271500585616,
                0.4066154640389804,
                0.49110161008686853,
                -0.2657228167565398,
                -0.21293973082054363,
                0.22703141013327097,
                -0.3759545757038382,
                0.279135387346339,
                -0.11789527944362038,
                -0.14957678858629722,
                0.14454826715239666,
                -0.35438949630503985,
                -0.23179800449340515,
                0.018341727231593885,
                -0.38701563248792165,
                -0.29563528550700174,
                -0.08607419978124436,
                0.22125978632590984,
                0.010519886491879262,
                0.12376862607545207,
                0.36305844907585355,
                0.03841690055577423,
                -0.28657254490425665,
                -0.2168855326701747,
                -0.11253918054817746,
                0.2596548991010721,
                0.3343989972268202,
                -0.33847712482936176,
                -0.3144844724974732,
                0.2517794644253567,
                0.33836328773038543,
                -0.3474291596873377,
                -0.21130012286686914,
                0.3417986707275225,
                0.49411700736601427,
                -0.0683932349647158,
                0.34450648913445087,
                0.06891561031292372,
                -0.14302467201579475,
                -0.18918468433568109,
                0.33377818894077504,
                -0.3771190470498268,
                -0.4519754876587399,
                0.5096268154291013,
                -0.023196566852276435,
                -0.18341123859635663,
                0.09830090244412436,
                0.45810776112478646,
                -0.401788906110153,
                0.11463433666192462,
                -0.24564999841470803,
                0.33232727632477227,
                0.3033796529054348,
                0.5703132254601243,
                0.3428093650495925,
                -0.018721214590066496,
                -0.3546832708466409,
                -0.4193300550973175,
                0.012781988177591358,
                0.5362260094764515,
                -0.05643989270008026,
                -0.2221091253234743,
                -0.326703157842942,
                -0.2975111752602455,
                -0.46570563549809446,
                -0.08558084933268038,
                0.06416553678071589,
                0.3802620895322997,
                0.3903968710738195,
                0.015674978493328218,
                -0.31804310283799264,
                0.20479802076077197,
                0.5075719497394312,
                0.36335538642290904,
                -0.35133414659309153,
                -0.21386134441584823,
                0.20383432193215625,
                -0.0516627563501934,
                0.3616545278894861,
                -0.34742191177745774,
                0.030951528718175365,
                0.23329159692097554,
                -0.27877865491475085,
                -0.411598080838539,
                -0.1471796041595802,
                -0.2834754073518871,
                -0.40481641212213243,
                -0.16531664544681035,
                -0.2946116874482483,
                0.2949401448992147,
                0.4605229686203333,
                -0.19913336162576312,
                -0.10887540568774366,
                -0.14721270859095903,
                -0.1697748254316945,
                -0.11235091613798986,
                -0.12590264833944742,
                -0.002493891841294338,
                -0.18860575355025283,
                -0.2133955560771451,
                0.4840454308226885,
                -0.22773620709804007,
                -0.37268736378891404,
                0.06830505115142524,
                0.33960240269071534,
                0.49344350214529203,
                -0.1526705490291139,
                0.0600342825327737,
                -0.4748965769784439,
                0.222892896874358,
                -0.01276590785739019,
                0.3609833676008211,
                -0.23810927132504214,
                0.03903758510564088,
                0.522925321390335,
                -0.38973854957655885,
                -0.38595810708646383,
                -0.18015183353000797,
                0.4089234726939807,
                0.0032848677205945405,
                -0.029183564842330152,
                -0.252557145151643,
                -0.35463579446800175,
                0.4453799699765514,
                0.23207360772450925,
                -0.3148939497579507,
                -0.47540779650762166,
                -0.34386486245897674,
                -0.09598748551434143,
                -0.3733805493809779,
                0.3964548329145439,
                -0.1827031358811081,
                0.08119596064796283,
                -0.4597793569393682,
                -0.040329727168605854,
                -0.49401229228268123,
                -0.32811585379217306,
                0.08154321914467254,
                0.28256995852748257,
                0.47626558476762315,
                0.05101344580790938,
                -0.3366023841129588,
                -0.4084287089453165,
                0.4522612344304211,
                -0.3525920836848638,
                0.27370694489039,
                -0.1886961924506536,
                -0.4839910375774208,
                -0.3888689677752855,
                0.3467059913965332,
                0.4620124767449205,
                0.2470111743073411,
                -0.3222429942105156,
                -0.15496922029993665,
                -0.1859085073042586,
                -0.44585244084521214,
                -0.06049807108396792,
                -0.4182239454227444,
                -0.4396255262371525,
                0.41419734857427154,
                -0.07938221820962615,
                -0.4749960893972246,
                0.19581566622245242,
                -0.3187048320265203,
                -0.20584096703610003,
                -0.3811041557756558,
                0.22538878841314436,
                0.28939920554265997,
                0.07862260588876303,
                -0.07162106610534025,
                0.2212250795970204,
                0.3374595101276492,
                0.4243662667581474,
                0.16454275789735856,
                -0.45675071770148684,
                -0.30086419111413065,
                -0.20149731736882737,
                0.3977654249525447,
                -0.36348667952855795,
                -0.1433325939211355,
                -0.4595854481771531,
                0.02318063636918144,
                -0.12186756774327345,
                0.398170472672179,
                0.35415221940833336,
                -0.17892497822108766,
                0.4947391150881179,
                -0.2810449542829615,
                0.18185493018516438,
                0.31592798052517074,
                -0.22077752615743942,
                0.11976296556323059,
                0.38776742458672114,
                -0.03327923805587978,
                -0.2405871265550968,
                -0.4129871913651629,
                0.4771595493412478,
                0.2373432212701996,
                0.23285833907126846,
                -0.4835659984115156,
                0.15917824626758134,
                0.05572319007896468,
                0.304554589795861,
                -0.020038420133119607,
                -0.1539387593220094,
                -0.47842255248180754,
                -0.3062795173971148,
                0.287005000926421,
                -0.42836544686075484,
                0.3652154448673304,
                -0.37297137377965195,
                0.3377420596159728,
                0.28968678902827605,
                -0.4628560325027237,
                -0.4988608776212098,
                0.06371054480657366,
                -0.4245622156202229,
                -0.2785541430093813,
                0.08479079172322934,
                -0.08703916436729993,
                -0.15455637728009242,
                -0.27035489226510284,
                0.09130701331505876,
                -0.10196146319635016,
                0.04858977566032227,
                0.33182893854977824,
                -0.24846722611757788,
                0.3934314490785968,
                -0.3838245488604053,
                0.32560969506075477,
                0.06641609771081089,
                -0.17148740777237437,
                0.26761656587652016,
                -0.3808045585213773,
                -0.46588315482678133,
                -0.44513579952145776,
                -0.05790029641614591,
                0.48579589545135526,
                0.2717457719176858,
                0.3108051419995035,
                -0.13165882159120723,
                0.37170474284346905,
                0.13369997225944744,
                0.08794304475772949,
                0.38900226745514255,
                -0.2686049279421573,
                -0.38263345343487104,
                -0.404583058303068,
                0.4687717062336005,
                0.008297541378050213,
                0.3807092031106345,
                0.10305420360607885,
                0.45284454968405674,
                0.09753227666621822,
                0.07068954608206483,
                0.19854867720375588,
                0.2734571806779726,
                -0.09870504706650704,
                0.21577030581420809,
                0.0886133321706043,
                -0.3680001888041481,
                -0.42031299056094695,
                -0.18229282628501742,
                0.21576349589175858
            ],
            [
                -0.008616577770687361,
                0.4965795438779935,
                -0.003376473259857793,
                -0.037849768240597714,
                0.31296964843314756,
                0.1539629228571986,
                0.22691114967510218,
                0.2090879957911278,
                -0.27512401651825114,
                0.3315336880584049,
                0.055871345832706476,
                0.4784955644552987,
                0.004674507205062017,
                0.4607336344075832,
                -0.287293971321687,
                0.3067610175400216,
                0.19199033667905985,
                -0.4549772923831744,
                -0.018197330842347315,
                0.2817458966181322,
                0.059894385826093854,
                -0.465149324500469,
                0.14161174080297367,
                0.15570319681763134,
                -0.14503144043235017,
                -0.13070845943330522,
                -0.49487081028673263,
                0.11416396583741761,
                0.15559161656291565,
                -0.24639057607781367,
                -0.058735827418780695,
                -0.4787589033140499,
                0.174352563681757,
                0.16327334433779947,
                0.05465205225334903,
                -0.023875961808998925,
                -0.3531294809990557,
                0.2921950762709083,
                0.24619619931793177,
                0.25808642963746936,
                -0.49860351715068174,
                -0.016441978963531157,
                0.27140536878040866,
                0.28627436492406194,
                0.2300966387058384,
                0.22462145422852797,
                -0.28368543498160625,
                -0.47135073403882133,
                -0.48662291562397386,
                0.19012295120632128,
                -0.37744792776042657,
                -0.10755180677453491,
                -0.22232011557333453,
                0.44278220071176166,
                0.287315313005414,
                0.26899796583441293,
                -0.116817418358796,
                0.3610545862915281,
                0.1876130009782987,
                -0.18292979046909263,
                0.23258120433460147,
                -0.4732149914815069,
                -0.3482458858199458,
                0.4751944587329649,
                -0.34989993317098483,
                -0.04677319007537338,
                -0.1307262572489472,
                -0.36356606864102536,
                -0.11195608520824908,
                0.21263699804743813,
                0.0634682008461776,
                -0.18349016506114252,
                -0.017210349008251448,
                -0.03669708499848907,
                0.44998587747596086,
                -0.43849014034098804,
                0.06520566358343936,
                0.17118198454149003,
                0.10442269148611336,
                -0.47451117132710496,
                0.08803401007646472,
                -0.00027525531527139435,
                0.009907815095734462,
                0.4899425918613941,
                0.10019275008943551,
                -0.2463312430025547,
                0.359895337446413,
                -0.2044596961752102,
                0.3387151331199925,
                -0.3763528459156695,
                0.3900102288694355,
                0.440957484095783,
                0.047914174688036215,
                -0.14307071315926803,
                -0.08484082266657277,
                0.1900633009862147,
                -0.29652387904463107,
                0.03438161222672593,
                0.08287543755178364,
                -0.33871293269425556,
                -0.009732393334401594,
                -0.16016444015672168,
                0.2492455704766839,
                0.0238067956819988,
                -0.06950039931622007,
                0.30920467057794276,
                0.03422135317350987,
                -0.025963050700901675,
                0.24537009397361673,
                -0.22357119716875895,
                -0.34092767356303466,
                -0.12782959829824758,
                0.21136435060617542,
                -0.29739942243311834,
                -0.48214310652522396,
                0.05411787591499411,
                -0.15948553402788446,
                0.4898697120483843,
                -0.2901486843931506,
                -0.07566347478859266,
                0.129992394776441,
                0.1009797640622124,
                0.1551839908906827,
                0.1409769090936311,
                0.22281270507291837,
                0.18607712452591557,
                0.04218596663999502,
                -0.509714055249333,
                -0.4074729197843795,
                0.1582473265760545,
                0.3141965272299085,
                0.35117262981486763,
                -0.2950235176955789,
                -0.3194117628833974,
                -0.1821813611475582,
                0.006144671337429865,
                0.4491867881518107,
                0.3253778524488377,
                0.41061231266593634,
                0.36124454743540635,
                0.4341504092579579,
                -0.2602559834393904,
                0.1253293228913721,
                0.47540066935540853,
                0.2998177853670614,
                0.38796922387588395,
                0.09314699745383331,
                0.34184901147539987,
                0.11547001704101696,
                -0.4104577561820261,
                0.20055811461887693,
                -0.15571427991441442,
                0.03836101779479504,
                -0.4236154394882408,
                -0.4167016676190528,
                0.044487544355984315,
                0.19035240065562706,
                0.40276798919051904,
                -0.1413694218230526,
                -0.37696928464873014,
                -0.49600071012639924,
                0.08735846826330569,
                0.2289974182968946,
                0.043024256328292064,
                -0.2740084346236274,
                -0.02100777894152436,
                -0.44241811817021726,
                -0.15988392634692516,
                0.37798756210382445,
                -0.3807726258696512,
                -0.11564038767453366,
                -0.07484538313141291,
                -0.3354843879433945,
                0.19835591648925127,
                0.2559497357088571,
                0.05604404108791902,
                0.31890183902353014,
                -0.3161093567670989,
                0.1980629451311419,
                0.4781531437515192,
                0.3793190865157805,
                -0.26943464110724563,
                0.35634490857943985,
                0.12640436329826793,
                -0.0641501807426239,
                -0.09400730273096142,
                -0.42041929616941065,
                0.17661776625045808,
                0.407747712095036,
                -0.06047401423471337,
                0.36747189655537416,
                0.28117647588167477,
                0.35278909591059976,
                -0.4633916490594397,
                -0.3013020237750219,
                -0.4712936186623007,
                0.4112317176009008,
                0.20260003122615264,
                -0.3018781121851882,
                -0.4656096101626097,
                0.3185902573252324,
                -0.00833173215808481,
                0.48887932252392796,
                -0.29177050842361746,
                0.24827476549166633,
                -0.4587841870646027,
                -0.07146736790725937,
                0.1525575479688899,
                0.24210596041958762,
                -0.08355818016104498,
                -0.2209356527850855,
                0.08594110604277481,
                -0.10980698801855907,
                -0.1202873020241944,
                0.18242350486484277,
                0.13381964546822825,
                -0.4576397480282135,
                -0.4712433047783956,
                -0.4507023653497438,
                -0.13084892854523292,
                0.45761113266346537,
                -0.2994736633624482,
                0.44001001193528744,
                0.31120249694055957,
                0.14543794809331423,
                0.16341129021752865,
                0.4177766207772304,
                -0.15209398755272252,
                0.298460580807592,
                -0.2583286241109191,
                0.4396955840160732,
                0.2886199219704858,
                -0.3703175540520989,
                0.35242417435535484,
                -0.35252492048148343,
                0.45982395226506134,
                -0.46812933643200494,
                0.27145694387351144,
                -0.18665125625787568,
                -0.15965156573363345,
                -0.2745279239302575,
                -0.16835243206592476,
                -0.43599626475522446,
                -0.4575628126796166,
                -0.5010185785546137,
                0.4043254483845808,
                -0.2485802377337861,
                -0.17437961152224016,
                0.37591145273008236,
                -0.4960120550824709,
                -0.4556394693314074,
                0.1924437455216292,
                -0.4283106299645225,
                -0.3524765251125223,
                -0.1287809930476185,
                -0.20522871822135794,
                0.34650340265380936,
                0.4345715876356736,
                -0.018107001851877292,
                0.16800619288895255,
                0.2996729196155765,
                0.2647459274207157,
                0.2692990087773976,
                0.38438231630101416,
                0.300695588980334,
                -0.2841156619149592,
                0.3416104817348691,
                0.18940730492271385,
                0.011880433118034002,
                0.08696923043745437,
                0.3077337937551202,
                0.43143026431483156,
                0.15058885292446894,
                0.16480193239176133,
                0.3045278722881931,
                -0.09992359905016249,
                0.06005679547816854,
                0.03427219768826502,
                0.38298200662898507,
                0.17125058476733002,
                0.40114719531845644,
                0.10126940513781434,
                0.4479861642118584,
                0.2464276062166973,
                -0.10190605953560058,
                0.05498866977232014,
                0.3146713918444951,
                -0.17734500084497815,
                0.3546412446413433,
                0.5149179874780192,
                -0.22249021489319518,
                0.2700763060573701,
                -0.06651422542640392,
                0.4283818431070018,
                0.41817069854121114,
                0.04473485639660852,
                -0.33969727147359097,
                0.2826244101077718,
                -0.24664370177531125,
                -0.07300564756000114,
                -0.10579646370277901,
                0.23337303500538037,
                -0.2692309294652364,
                0.23859922508408343,
                0.053448752160091775,
                0.18154461612338227,
                0.49259146221627437,
                0.010271822259451224,
                0.005851620334073271,
                0.43542690978107784,
                -0.2848764515067286,
                0.5020099651351281,
                0.3803434685808046,
                0.179214125889081,
                0.2024674550991908,
                -0.07078083991711906,
                -0.006198668814082834,
                0.3866632011061654,
                -0.25988373329976366,
                0.22127199098160308,
                0.3464870278311323,
                -0.24259094360177694,
                -0.37697227767830477,
                -0.4990256299892393,
                -0.27150305641840294,
                0.08759280887970183,
                -0.022208289441946596,
                0.41842593066461314,
                -0.3477139315143222,
                0.46160143123174746,
                0.4708194091461786,
                -0.2660336841118575,
                0.02078993202215516,
                0.14665364040942905,
                -0.45849904857910995,
                0.039461507838125964,
                -0.023842217017717937,
                -0.0869514898882458,
                -0.29423880742194963,
                0.32565077154370886,
                0.528929238717309,
                0.557599594164191,
                0.18929356177361129,
                -0.0676614998623222,
                -0.046959717423742615,
                0.13054361438074946,
                0.4179005193214656,
                -0.5469802945998036,
                -0.1503507219513,
                -0.13012866842892404,
                -0.5757077894669848,
                0.007520511377681353,
                0.4626612456658698,
                -0.01049275121030961,
                0.2085362436422506,
                0.5378731432568055,
                -0.3239317160386768,
                -0.05786920242624122,
                0.4346628785273285,
                -0.29526285256078894,
                -0.365522710912473,
                0.4468898136860458,
                0.05109923237077558,
                0.31348714997149607,
                0.21328686372093508,
                -0.2980911480322276,
                0.37901616986340525,
                -0.08545458584788296,
                0.2830304982831093,
                -0.016474879492979117,
                0.38251602747927466,
                -0.32227566426092935,
                0.35474263795442573,
                0.23842579428993418,
                0.040505910419013864,
                -0.33340355703282504,
                -0.5464526440818095,
                -0.15161709891067687,
                -0.024572007571848273,
                -0.11077889580423766,
                -0.40189404621452823,
                0.07971971668303472,
                -0.15858018084634753,
                0.07644087040233845,
                -0.09621431410155892,
                -0.16005012976799712,
                -0.3973673743200037,
                -0.053859683286323914,
                -0.18219236941802264,
                0.1739433251314248,
                0.46803281177048867,
                -0.1235869674819895,
                -0.015936286084069273,
                -0.04902411721180777,
                0.21506797667959576,
                0.11630265209407945,
                0.24163222366619486,
                0.42615099203741236,
                0.37799005486045273,
                -0.03811353660559679,
                0.42528444407289073,
                -0.3438431531240689,
                -0.5522157253494484,
                -0.6302937717598078,
                0.07843386027212303,
                0.25062593316673426,
                0.3150142913947574,
                0.23695603787085823,
                0.26426530590330266,
                0.5068753219036344,
                -0.16980232145250396,
                0.18854945272085943,
                -0.44753329841415174,
                0.015889675319388313,
                -0.10610484732631625,
                0.18012223628997007,
                -0.2842458151709081,
                0.18960869339935754,
                0.07996586573117671,
                0.11779257299024137,
                -0.10636910946700784,
                0.10527971436898809,
                -0.23412448139957867,
                0.29049882066351085,
                0.16162222961119904,
                -0.18475108834261134,
                0.4213413951893134,
                0.06747287217206574,
                0.14572826704538816,
                -0.332119897333065,
                -0.4737266089451319,
                -0.2634616887891287,
                -0.16072871453721566,
                0.2993010109869307,
                -0.2646402893629507,
                0.1771870061243101,
                0.4378021177747012,
                0.5076128534092659,
                -0.4098981173524076,
                0.003812718810790968,
                0.1892714593215026,
                0.07827680894542789,
                0.180136097934757,
                0.09688218767799463,
                -0.09180181693579886,
                -0.29590289793944125,
                0.1807313435937837,
                0.24018452241495647,
                0.009328805898293213,
                0.3220482522759395,
                -0.32252826022189585,
                -0.12943930016051258,
                -0.3993562675081762,
                0.03783686977858556,
                -0.08100330607294665,
                -0.04701452000581455,
                0.16782646765849632,
                0.1790040677235703,
                0.3355887146523055,
                -0.47609921781656583,
                -0.3747854877682263,
                0.4052906011156196,
                -0.1940243557467815,
                -0.2574688365119599,
                0.24970027226419383,
                -0.31729589641550127,
                0.19192735245089665,
                -0.24951643033995907,
                0.4406692824291564,
                -0.3913424110688243,
                -0.15042401717025103,
                0.04482282411175252,
                0.11683797628008157,
                0.22610541342055096,
                -0.04551755078569044,
                -0.1546571661013741,
                0.166094629876539,
                0.06739366429032362,
                -0.10009964945942668,
                -0.4694088506321356,
                0.34018089601453666,
                0.022828529926504467,
                0.3566406138936265,
                0.06326473902245125,
                0.34321885379390643,
                -0.07314985641003176,
                0.2798379713100862,
                -0.47757059874475605,
                0.26716860133801096,
                0.4645693199541655,
                -0.03329088247245799,
                -0.3827283261895838,
                -0.2821251949445172,
                -0.2581990331521507,
                -0.3155264399867832,
                0.08908120301620776,
                -0.25833584256261216,
                0.40468706025523843,
                -0.19007504572717804,
                0.07360544006018868,
                0.35446926947830204,
                0.04237922868804926,
                0.3831920419633081,
                -0.44998635182722957,
                -0.41512477397190417,
                0.38333104115819644,
                -0.21092530783622454,
                0.16559324597788486,
                -0.12377337856743018,
                0.324108520721491,
                0.399987638555264,
                -0.3741500595523354,
                -0.22799858871966,
                0.3522470900819902,
                0.17491135242939435,
                -0.3411027077995307,
                -0.43066095177700103,
                -0.4610388635930023,
                -0.2022680851209696,
                -0.4605699196938665,
                -0.38832896459083627,
                -0.16897922575452368,
                0.1937553003797405,
                0.3450194251366779,
                -0.2671569050559587,
                0.2677796049969032,
                0.2828273469406986,
                -0.46614305366828424,
                0.32082005377256967,
                0.3381800617510244,
                -0.47337286257131894,
                0.35960229805529276,
                0.18057755523853247,
                -0.43045759594118205,
                -0.26580028732516386,
                0.26269232972073536,
                0.06619239418608766,
                0.025681554784298122,
                0.19473310882005196,
                -0.3896662133789888,
                -0.30766963542328324,
                -0.46326335367958904,
                -0.4338581393636262,
                -0.20622820692933413,
                -0.18138746566679398,
                -0.16046390170256053,
                -0.3457809886988257,
                -0.4693035103803615,
                -0.10617144894693951,
                0.07651174888990361,
                0.04029311167497634,
                -0.4423527991745382,
                0.3660857773375721,
                -0.2760815909248901,
                -0.10557683683429431,
                -0.48661314008421375,
                -0.3392755906064555,
                -0.23269228925949456,
                0.22331819133093467,
                0.19143667347337534,
                0.16456834162306955,
                0.08899552757936924,
                0.4044282036637552,
                0.18229973179624906,
                0.46720222990895655,
                0.3406724114814842,
                -0.40230569147027967,
                0.2931459279629233,
                -0.19570658690321371,
                0.08231052689188463,
                -0.3353730219860055,
                0.047440390576701186,
                0.12188730205118553,
                -0.39968961228338395,
                -0.3931418540934679,
                -0.4097677736536895,
                -0.1225695647033558,
                0.15976488186667528,
                0.4795759776041041,
                -0.5012547363470541,
                -0.2728817227403771,
                -0.25755151263229376,
                -0.12523319753665468,
                0.3361615642529579,
                0.31274954122268633,
                0.3466412956150627,
                -0.1392975423400866,
                -0.407056978546543,
                0.13892041612191308,
                -0.32793568992344957,
                0.020599136088782825,
                0.11996727527541379,
                0.30887265861270913,
                0.09295589218967283,
                0.17541543985272373,
                0.4285158073225662,
                0.2072270928209282,
                -0.2763673507377584,
                -0.18568567517341417,
                -0.060594291323150376,
                -0.2760084132690871,
                -0.30250110046950496,
                0.12173176432976557,
                0.32915141905036654,
                0.3188646133005055,
                -0.32077392918517206,
                -0.4163596979883238,
                0.14780922319377843,
                0.4063967041225508,
                0.06407692959795806,
                0.2572147028642955,
                -0.38283495703824144,
                0.19498263630535884,
                0.0020331425604199265,
                -0.06765658165358251,
                0.4540302060233953,
                0.3574819523038749,
                -0.0010421398094629941,
                0.09913088761477981,
                0.04418560163627443,
                -0.07215531141854038,
                -0.3155353285082168,
                -0.3911892485734512,
                -0.10240655737399705,
                0.3028177796574727,
                -0.004853536427201884,
                0.17475830538294201,
                0.12676336821509318,
                0.19206143926005573,
                0.38474802808230624,
                0.3485065937825534,
                0.20498689748540302,
                -0.40155682438096196,
                -0.035808292330542654,
                -0.1114591884681633,
                -0.4273767541978595,
                -0.2138131785089318,
                0.22297924620198473,
                0.32348573373405853,
                0.4787105166736366,
                0.04734929018309402,
                0.21030500487366938,
                -0.259118251512484,
                -0.1000815265423497,
                -0.43144140604883086,
                -0.3600042496447218,
                0.45297267106020056,
                0.3750762294546257,
                0.20392300859130327,
                0.19949191801503777,
                -0.07446069528619784,
                0.4792910312129401,
                -0.21081966607497268,
                0.2433070499986076,
                -0.03989772892268497,
                -0.3825247103873116,
                0.06363470674353615,
                0.03739006583607837,
                -0.17416780587064504,
                0.13202463350454563,
                0.23274305579341406,
                0.44542610614926087,
                0.18527006286008665,
                -0.4173025058102915,
                -0.17563965025783973,
                -0.4324248021278506,
                -0.42018081528658197,
                -0.02263990933547535,
                0.23865211796510494,
                0.21794919776993055,
                -0.0658894264639921,
                0.09587603305371817,
                -0.3818084719868532,
                0.13412347085601006,
                -0.23110866062782776,
                -0.4006723216565263,
                -0.31726575087619613,
                -0.48846270876804027,
                0.456043249184775,
                0.3958510523120393,
                0.12851125084396722,
                0.029864592684250475,
                -0.44554708053569797,
                0.3294997054765328,
                0.01888357676672294,
                -0.1666459261288775,
                0.062223123255259145,
                0.3469184858913732,
                -0.11386416085627979,
                -0.3859248048875752,
                0.39760258416776884,
                -0.1671727160141619,
                -0.3976418529032808,
                -0.0532056697343342,
                -0.48804545164939145,
                0.002067039706396802,
                -0.28462070650630833,
                -0.08118643173586503,
                -0.3186561572611569,
                -0.10053517202120488,
                -0.27595094344814697,
                0.17208435071242034,
                -0.09002975814780878,
                -0.14699611092811943,
                -0.3458722293787747,
                -0.3339034535893149,
                0.18482093107969927,
                0.266328097985928,
                -0.1577931297889935,
                -0.005288358143762263,
                0.45821260764455896,
                0.03453851098516907,
                -0.3026101270372219,
                -0.36927916694333474,
                -0.35199586431007474,
                0.04709026242822866,
                -0.3236846652865394,
                -0.029963134069963968,
                -0.1264125274857937,
                0.35269845601836275,
                -0.1584119787081958,
                -0.47235529527490777,
                0.17598247108034354,
                -0.15348076443123382,
                -0.1521517271728209,
                -0.09853285383426613,
                -0.40905956728475823,
                -0.1267683606236808,
                -0.011685320666889987,
                -0.2038074722746589,
                0.06350886695596536,
                0.31610560267352095,
                0.064630758843665,
                0.4657840208745111,
                0.44840298633544595,
                0.17867782863376666,
                0.41059309347971024,
                -0.21598544761984634,
                -0.04979109180314279,
                -0.4467227045230424,
                -0.031384445613728953,
                -0.24551927503518203,
                -0.46374952141746284,
                0.28237912957146993,
                0.3732582507376362,
                -0.28573504923131465,
                -0.3569309919096193,
                0.3732112344665526,
                -0.417697178461156,
                0.0006672187057869963,
                0.06762235848840525,
                0.04698548035600747,
                -0.38537841349683244,
                0.30766913452916256,
                0.2940680928217333,
                0.11852992442130017,
                -0.4053615924897138,
                -0.339908497900515,
                0.393731747142556,
                -0.086858453403306,
                0.364538817041143,
                0.23736133380903654,
                0.3742969771761093,
                -0.12342592182574018,
                -0.020075982906921846,
                0.333581720636101,
                -0.4338385858804266,
                -0.37400236741823667,
                -0.3867142106790474,
                -0.27458078144922876,
                0.08643989187576522,
                0.2853320656975799,
                0.13119366793609372,
                -0.0320161950485378,
                0.43694540166075885,
                0.3468552714143816,
                0.4065999228799547,
                0.03935296352035191,
                -0.03782459586605147,
                -0.18646258199063248,
                -0.20115798307457455,
                0.033424042193704095,
                0.2558434445804756,
                -0.2516469806770478
            ],
            [
                0.3976170662521835,
                -0.3577917833509766,
                0.1447266619512717,
                -0.27317344828943557,
                -0.09350750469507385,
                0.1312507810141188,
                0.10078303153104773,
                -0.4814546441792442,
                0.17486941141597467,
                -0.40500825605163493,
                0.44731160844253803,
                0.4675859505763942,
                -0.02285032820772326,
                -0.1030538077695432,
                0.121901835587376,
                -0.2729619960705899,
                0.4770919959764972,
                -0.06077308022509331,
                -0.098409898145141,
                0.27433485380978684,
                0.4393241715406587,
                -0.3119869312316661,
                -0.1493177375471897,
                0.060857851362060456,
                0.35062486699129225,
                -0.11580927050907752,
                -0.4217507586277658,
                0.04946757565571047,
                -0.3333960975314265,
                -0.20005150290736384,
                0.20326300780715156,
                -0.1704328723728017,
                -0.04117887377081153,
                0.07577776178368967,
                0.1420191921901175,
                -0.31792421721148767,
                -0.09862762006386694,
                -0.3276445207788633,
                0.24915575640830687,
                -0.2872609667665055,
                0.3828227627084661,
                0.29501020958629887,
                -0.3872084803314745,
                -0.17152754589225824,
                -0.0689774480492657,
                -0.01541954227010442,
                -0.47369832821771857,
                0.28438264959433107,
                -0.1796459520760398,
                -0.40709107572931647,
                0.2797869933664847,
                -0.108313254975276,
                0.329820668238464,
                0.20353817956941944,
                0.36607698595432037,
                0.22666831034929402,
                0.43479609089707905,
                -0.019745619913131507,
                0.17329643130958283,
                0.0698827076659424,
                -0.11542438577472534,
                0.14474202023011526,
                -0.449724734308579,
                -0.4409292217818046,
                -0.08130046607404444,
                -0.3665091546258906,
                0.5646891137653828,
                0.3460697002404732,
                0.4803625381980621,
                0.36810648138976576,
                -0.3609148047415766,
                -0.35710645268555563,
                -0.3492554442326941,
                0.25662037242841707,
                0.2663258099382707,
                0.4496260490871463,
                -0.4214802127825495,
                -0.02656880757601486,
                0.20638720995976528,
                0.1517045715903554,
                0.39939675449684175,
                0.43518326167486476,
                -0.1278929944435684,
                -0.16593502027684415,
                0.3790978814794892,
                -0.32577975532108483,
                0.25543313280683594,
                -0.1568869858237989,
                -0.3475529498444203,
                -0.3199377908307949,
                0.05457116001747626,
                -0.15762472901597172,
                0.2858151501558908,
                0.46343434344821904,
                0.2636674095531704,
                -0.21498613834374014,
                0.5509998577335591,
                0.014201627583734786,
                0.5549182897655716,
                0.49247337551538634,
                0.19738358173613169,
                -0.31037977214529555,
                -0.09802776148003824,
                0.2644936191687773,
                -0.08018669512188845,
                -0.2587611237395764,
                0.5022392270652781,
                -0.26122455253604576,
                -0.32019807639897907,
                0.1724090559525794,
                0.390597193633915,
                0.3623531050745018,
                -0.2815897094964296,
                -0.29055964648417887,
                -0.2501511618250714,
                0.23372599215202608,
                -0.03605404877387521,
                -0.15091441587971588,
                -0.1063294822269951,
                -0.3527451617265186,
                0.20817791053333787,
                -0.37637616519121336,
                0.08242574399072775,
                0.5203259862705938,
                0.27857381067427583,
                -0.09015858186843385,
                0.19629385498852367,
                -0.030996156028478467,
                -0.2769079812574942,
                0.5937976370563375,
                0.6053096583249318,
                0.24592370643401812,
                0.037956332628848906,
                0.47956302206368806,
                -0.11936889513264501,
                -0.3293572169226075,
                0.1637782849189455,
                -0.20752386828350355,
                -0.11750964267524458,
                -0.2842915082164087,
                0.17645355652301487,
                -0.06605714120605088,
                -0.1362236814545729,
                0.015189757907416694,
                0.36924925103704725,
                0.21924149854404537,
                -0.1554905793060841,
                0.23825930213681384,
                -0.3858756788287389,
                0.48573922301912026,
                0.6110692105196782,
                -0.25106643467035844,
                -0.2850151719183482,
                0.297725874456791,
                0.11090270725053042,
                0.23906800034259748,
                0.422283788436163,
                -0.11254669719324886,
                -0.38851218212951893,
                -0.035300926085042074,
                0.39403079125661766,
                -0.28950060277086853,
                0.14503945159212536,
                -0.15075499234954845,
                -0.1324928425363931,
                -2.5413681251210848e-05,
                -0.018411578485928882,
                -0.37115212662193287,
                0.015596486002358412,
                -0.2427319968107451,
                -0.34807400443182895,
                0.22478563857771347,
                0.19872113269816508,
                0.4539592959543361,
                0.17538471131710212,
                0.08302296468145708,
                0.43290667309732833,
                -0.23898389194581213,
                0.18762424201227676,
                0.11759155474551365,
                0.188406318071907,
                -0.11207443874169581,
                0.17450064220287637,
                0.21596761715376406,
                0.37067085912160525,
                -0.20819145431777725,
                -0.25993269453068313,
                0.2636949014741665,
                -0.006189160561845558,
                -0.576958245862678,
                -0.09222322412187402,
                -0.048253019699229745,
                -0.09524219046567937,
                0.3280474570961098,
                0.25363355472167837,
                -0.16840709203294502,
                0.4600698849658019,
                -0.48343183115676996,
                0.23129227496008406,
                0.4677374703218285,
                -0.3048173898906716,
                0.48792744953188594,
                -0.16534463837736157,
                0.005980535089623649,
                0.13968852316512617,
                0.2690118330365249,
                -0.675810291710086,
                -0.18929872941021708,
                0.5017618402336096,
                0.26435158133211,
                0.5124691586419957,
                0.3467004348351324,
                0.0187821077046652,
                0.3507790747270007,
                -0.17734483473235424,
                -0.08724716885154334,
                -0.33226372915493174,
                -0.21538043363112389,
                0.13928525107944786,
                0.04420338832133534,
                -0.35255564805824313,
                0.2714767953630259,
                0.19688030974826812,
                0.32798123972266935,
                -0.16127056732436518,
                -0.0449655747980035,
                0.23015714940950585,
                0.5284190815105027,
                -0.32040892297577067,
                0.04554752763430563,
                0.25884904134517484,
                -0.2950821407615136,
                -0.07332660342632694,
                -0.2092532956719941,
                0.0869329153784603,
                0.3177419233072688,
                -0.128996627382204,
                0.29117119346885395,
                -0.1612195552758042,
                -0.29839849622357434,
                -0.2685130782314642,
                0.2618874410911719,
                -0.11493711718662139,
                0.18542438548462387,
                -0.4158133583123328,
                -0.5731551073097413,
                -0.014297085744895433,
                -0.4062478660600503,
                0.022003626254083027,
                0.17285621037109772,
                0.45478933666130555,
                0.489219170384408,
                0.3476723188142731,
                -0.060193230911794675,
                -0.37992560236142014,
                -0.3994765897618786,
                0.3707437307686963,
                0.3863604107310255,
                0.3380638890214762,
                0.23507661661775803,
                -0.428369296092209,
                -0.1917448212127481,
                -0.05962782376063688,
                -0.024990533931887656,
                0.3526277418185344,
                0.11589556056403186,
                0.4316307517464542,
                0.0702960844567858,
                -0.02431415575260882,
                -0.31303887106697986,
                -0.4943796557766752,
                -0.5035733693113487,
                -0.6281380262517946,
                -0.6415460305154637,
                0.05817125393791485,
                -0.21215638694554628,
                -0.27605379448905093,
                0.020639631292819288,
                -0.3693285182656716,
                -0.38950389227991966,
                -0.15164539405310817,
                -0.3508769205938386,
                -0.07559644015858447,
                0.07875881444381942,
                -0.33955027564075285,
                -0.5051311818227268,
                -0.5319914144878344,
                0.21993915111608708,
                0.15766908371370922,
                -0.3908325293999345,
                -0.5239373530196251,
                -0.38298806598340285,
                -0.3941072543567276,
                0.38623527508548083,
                0.5678288253901315,
                0.6557377878177674,
                0.29831454702502846,
                -0.44178949033727155,
                0.09621501151920221,
                -0.513457877068684,
                -0.3296363576484855,
                -0.2564150131949841,
                -0.23512515227686817,
                -0.40562131895929965,
                0.37186148131955526,
                -0.4357303564848133,
                0.4298579128642071,
                0.22053997570912687,
                0.36448786928401433,
                -0.4523030098134238,
                0.46180534468717144,
                0.03295224737319775,
                0.4348453007705014,
                0.1925883816799605,
                0.15640955155511707,
                -0.3645446993174695,
                0.3418627532557225,
                0.004209722280647275,
                -0.6249855610158596,
                -0.10080118003660206,
                -0.44766086053560733,
                -0.07184279249109998,
                0.818596134683236,
                0.10585217431633678,
                0.4884701938878283,
                0.18695102839214786,
                -0.3903178791935936,
                -0.5409648694930543,
                -0.15233598533051457,
                0.014399684575682803,
                -0.4754945843192837,
                0.05468156876929969,
                -0.09211892558866887,
                -0.1210780317215843,
                -0.3317243986166261,
                -0.12354970459196203,
                -0.09007314906542219,
                -0.07095717241677015,
                -0.2590526211951122,
                -0.4776818504045937,
                -0.1943652706717547,
                -0.06780914065471451,
                0.03170138210760712,
                -0.11013282175031187,
                0.18395860640655756,
                -0.445745382825259,
                -0.16471837573652037,
                0.18494475070208657,
                -0.259554896757969,
                0.054244052692007,
                0.8688379742282877,
                1.008767676155297,
                -0.12645986353203767,
                0.01639348233739819,
                0.4239284360933707,
                0.41181654241413335,
                0.4228988571609519,
                0.3138865498776656,
                0.31720517929016345,
                0.20917715057887246,
                -0.05603491542754385,
                -0.27541847304412664,
                -0.24667124999990328,
                -0.470944275938907,
                -0.2241036486381497,
                -0.2708437592603818,
                0.07073865871531379,
                -0.3455886064302201,
                -0.38123041545292446,
                -0.4540873169781663,
                0.28096091305810417,
                -0.007837715750797785,
                0.14155865104929038,
                0.246154634284895,
                0.22512929869212225,
                -0.2164065873748739,
                0.035567492164983894,
                0.44958454672376186,
                0.7131218778874411,
                0.5743434026588963,
                0.4309120136530542,
                -0.04288649195560661,
                0.27556138132059166,
                0.0845020954301683,
                -0.3919549672051531,
                -0.1779318096318547,
                -0.2640503370278338,
                -0.3594150210993974,
                -0.4174687383433694,
                -0.36554507154302845,
                -0.33856532581979937,
                0.2803768809159103,
                -0.1190103513251084,
                -0.3457987031722556,
                -0.0741459116292535,
                -0.24600917532638047,
                -0.10215426463443315,
                0.29487753188219357,
                -0.0764265642139928,
                -0.47335719371292373,
                -0.10750016053352465,
                -0.25270036600043244,
                -0.4159855319268998,
                0.008674160683604208,
                0.4932271240509172,
                0.09643026599876683,
                0.5819202300722491,
                1.1734067160970931,
                0.03987794368558891,
                0.1801575193092461,
                0.11346468459321936,
                0.057724293818600635,
                0.31096038875506177,
                -0.25972588626945026,
                -0.39929357820312833,
                0.06863313999406209,
                -0.1638298872539008,
                0.0723701624349522,
                -0.008488420003878385,
                0.2160751790049048,
                -0.0916817514676892,
                0.4118577188942647,
                0.1859412988411524,
                0.21377468470295385,
                0.26378535939803704,
                -0.04200556437432657,
                -0.19534544212182578,
                -0.1111099907551445,
                -0.2337584063841462,
                0.07440050568167653,
                -0.1284982771651393,
                -0.35691095195089084,
                -0.12935132092709176,
                0.05031804157049221,
                0.2247878356089017,
                -0.013235256430678393,
                -0.03316537689344165,
                0.1880810109731933,
                -0.14108640258812338,
                0.030289163931310915,
                -0.05489508086387379,
                0.20391131610859248,
                -0.14439840922867472,
                -0.39346284620068267,
                -0.23425136824802445,
                -0.14969895043544265,
                0.31228399063719126,
                -0.17539306843819136,
                -0.20029602559203852,
                -0.24367500557090382,
                0.40233729152221415,
                -0.20688045865701732,
                0.32847427544241525,
                0.2099560732618608,
                0.12291614482005304,
                -0.3459774474023071,
                -0.26448971446170655,
                -0.4969243164560112,
                -0.28770473231029897,
                -0.18221597453151106,
                0.41780346548188496,
                0.5426538555794057,
                0.4553886264435678,
                -0.18044348770545365,
                -0.23211523476758283,
                -0.1257159663834546,
                -0.4864477664172048,
                0.5634121541201713,
                0.13029211608026817,
                0.3609636997822307,
                -0.06532854729419287,
                -0.3811315736487471,
                -0.09937891840091191,
                0.10558933754206024,
                0.2930850074340707,
                0.33450884093590744,
                -0.25464616660208583,
                0.49743666413436904,
                0.27165528536018074,
                -0.04201688224754346,
                0.3024801194972071,
                -0.07271004774331334,
                0.07311423475661534,
                -0.21681862993181644,
                -0.2620108918103337,
                -0.27757347076366823,
                -0.31206794575779767,
                0.27254566255421897,
                -0.043825589559800544,
                0.18722180244621,
                0.5235214777023264,
                -0.17416395233876064,
                -0.5170176519337256,
                0.13287492185879055,
                0.3885818292110554,
                -0.0018183568518513012,
                0.1424432200307968,
                0.11448007736110041,
                0.13983194220526557,
                -0.21519816165728528,
                -0.12995180960681935,
                -0.04618172046313139,
                -0.2981883808355784,
                0.16770971054127073,
                0.09703285714788179,
                0.23545537588464804,
                0.3815719657803754,
                0.38444084914734006,
                0.47428092099595176,
                0.32326326149753104,
                -0.13991658749554703,
                -0.06401559726985735,
                0.19873877556302388,
                -0.011862068149668807,
                0.1907829268799218,
                0.20572709759180016,
                0.11243461579261944,
                0.14458970172237628,
                -0.0909841369984175,
                0.3292170695054613,
                0.012236940989245352,
                0.48950070963142633,
                -0.1228662674508791,
                0.0734805579478108,
                -0.11302587903044975,
                0.5768834411307637,
                0.25529433061611523,
                -0.40916847168917847,
                0.0799750188796991,
                0.20448614466180584,
                0.06069679524679725,
                -0.10241139273857343,
                0.259989379509158,
                0.12862914645143975,
                0.1954176013817827,
                -0.3611259950013329,
                0.11467361187604719,
                -0.075187388804537,
                0.2784727498204505,
                0.08386105548974987,
                -0.018320073656844932,
                0.04014101499297278,
                0.022288380794369757,
                0.5462520522323097,
                -0.30195567981935845,
                0.5514067599202039,
                -0.036244958678909776,
                0.22326215591796786,
                0.052767918111106704,
                -0.19995025015855616,
                0.03893155323702002,
                0.5378514244933678,
                -0.154003197902294,
                0.31696015850047543,
                0.06465194357591657,
                0.3635162103620531,
                -0.23750934696214027,
                -0.31351773151131135,
                -0.1733269867965131,
                0.1893046297413201,
                -0.08595400900144168,
                -0.2919437085695037,
                -0.34799404554396185,
                0.15079739030131317,
                -0.17913449628970915,
                -0.1242312759866826,
                0.3591503512098383,
                -0.552723575379188,
                0.33600169586756967,
                0.1158090724900442,
                0.22437407018218938,
                0.1520640477236482,
                0.6438798126177425,
                -0.16954304609828044,
                -0.1308677965530659,
                -0.0728495242528875,
                0.07757568831090411,
                0.08166611435607947,
                0.30967781477716577,
                0.6083570051214217,
                0.30379669983201096,
                0.23905956569188552,
                0.06474821370499212,
                0.18211144329755005,
                -0.28848009812570546,
                0.1555839645368026,
                -0.31722225938283694,
                0.43724939337446833,
                -0.1819578671909372,
                -0.4180910325165591,
                -0.28767238971651127,
                0.26738665422950764,
                -0.18136045016751787,
                0.20795069939247934,
                0.023358924966209053,
                0.27569725336322565,
                0.4150720807171724,
                -0.11406859334834057,
                -0.3241232623148158,
                0.022485496411311895,
                0.5507737010181959,
                -0.1290066811889933,
                0.2694779426009471,
                0.4966772070862638,
                0.5813696253056547,
                0.027016809023231954,
                -0.12733920271123947,
                -0.1423940135846518,
                -0.2698076099354472,
                0.2516349060293871,
                -0.14564483731242642,
                0.02281221246927191,
                -0.38767233849732347,
                -0.141088785675734,
                -0.17330422832367445,
                0.1412116316618598,
                -0.4114608177643322,
                0.41652158129201056,
                -0.024892392844994435,
                0.4597105663873344,
                -0.10816223177763822,
                -0.2118885616655918,
                -0.2550213390640409,
                0.6066029373569266,
                0.15430918209455144,
                -0.06993576994566074,
                0.4654539218342849,
                0.004275215353592526,
                0.1559942669910557,
                -0.03719046842082649,
                -0.09594780614998626,
                -0.464442495866293,
                -0.4171076647708707,
                -0.16513858374646068,
                0.48474304321310074,
                -0.3109497954593788,
                -0.19752416899763983,
                -0.2837244586860668,
                -0.056214654869927334,
                -0.5492953090119931,
                0.20123911354377516,
                0.08965312731226453,
                -0.45871619513852097,
                0.4115631430052381,
                0.035271229043543406,
                0.20511917887033815,
                0.06546852623900447,
                0.36354641074864713,
                -0.45887762225061063,
                0.07255289947636533,
                0.25031326569174445,
                0.5749433732129954,
                0.6292595214738614,
                0.44013928345440606,
                -0.002587094156270761,
                -0.05712538899067052,
                -0.2838505160391398,
                -0.17196957828691836,
                -0.3262437724457304,
                -0.2469647608658604,
                0.2692001298350214,
                -0.4210729930593196,
                -0.32458477837856003,
                -0.411920499008427,
                0.20899043523325966,
                -0.009447948494353757,
                0.16959299376003142,
                0.07385866003694895,
                0.18262757338484975,
                0.49232503188179,
                0.2461914879943659,
                0.44102384062030864,
                -0.019321107043631214,
                0.3588520412706636,
                -0.46096982924837643,
                0.20818645745928363,
                -0.3456291208878425,
                0.18373636413460576,
                0.15736030433731948,
                -0.08538544455659115,
                0.3676892833345687,
                0.310570351075424,
                0.05406659600685593,
                0.39966098414981693,
                0.3286393645426205,
                -0.0899888138536992,
                0.3378594090081696,
                -0.10727610428507654,
                -0.3594873046148548,
                0.47287020935434826,
                0.1660877380226552,
                -0.35627541235769977,
                0.39351058425128316,
                -0.44900745602511366,
                -0.022914278806368815,
                -0.22424544641637176,
                -0.20184198965239147,
                -0.1360360253569473,
                0.15852987686752507,
                -0.45327095400185224,
                0.11139964113320822,
                0.18388330640912398,
                -0.3771343299859682,
                -0.4171130494058937,
                0.2808538853207555,
                0.3917453273180688,
                -0.0022376476270631303,
                0.39628313319440756,
                -0.0974961938575665,
                0.09186065559921718,
                -0.0857570982355192,
                0.3736322934818556,
                0.08069185401633952,
                -0.08872921194804023,
                -0.352172490290978,
                -0.17388065461004762,
                -0.08307413913446889,
                -0.05026672247011552,
                0.14481653429479274,
                -0.14371581429715324,
                -0.36302775537455423,
                -0.44177246984642504,
                0.24369821277172654,
                -0.008381616177681421,
                -0.30851873658106854,
                -0.13568861424249068,
                -0.33140408347170347,
                -0.3657560560554264,
                0.348471358120102,
                0.3837667422054385,
                -0.38728804793519733,
                -0.005624002766659308,
                0.44143329222655825,
                -0.49431670926656024,
                0.16305741619289107,
                0.448604407855871,
                -0.07837440399882269,
                0.46733520496087333,
                0.28228634055889795,
                -0.05319212715612013,
                -0.13579580319390552,
                0.26197700052342415,
                -0.11845287874281109,
                -0.30903664315011714,
                0.32820671174487226,
                -0.3655536546482768,
                -0.09982023846954634,
                0.03915129918559425,
                0.2774485249057893,
                0.01898290937560002,
                -0.4104514802698686,
                0.20103586678498342,
                -0.42309107308382166,
                -0.3015882570218883,
                -0.294527350123131,
                -0.4249699106234617,
                -0.19789628234030066,
                0.3299079287812172,
                -0.09327434790418843,
                -0.4534462541250406,
                0.16976945992855474,
                0.3512346806118852,
                0.4227310432911287,
                0.34881798445350287,
                0.07988763381492307,
                -0.12264911347464666,
                0.3853690126036837,
                0.22204840210918853,
                -0.28403842354107317,
                0.12801668435438265,
                -0.2283604252019053,
                0.4700276285839531,
                0.3441077595913806,
                0.31807101877984223,
                0.16850099729246004,
                -0.3431833470696936,
                0.2171100076824513,
                0.03563267293662919,
                0.4156697631877704,
                -0.4062797536685341,
                0.10352933188337388,
                0.4641143289478047,
                0.023299775384412857,
                -0.2520516771626812
            ],
            [
                -0.3661109644413729,
                -0.3966544803042029,
                -0.4713243741412284,
                -0.21423794693771125,
                0.25732855796629184,
                0.13723864246494855,
                0.42338899934124197,
                0.3606750765975253,
                0.21608410657905675,
                -0.47119697721456666,
                -0.3259633548201588,
                0.4930992089104078,
                -0.2965200044840989,
                0.4221555368230948,
                -0.20148826785540508,
                0.15788065285710318,
                0.35710697844306993,
                -0.4932017253375829,
                -0.21303197184606648,
                -0.48328223125393344,
                -0.1871325027858317,
                -0.06586122004049488,
                -0.2443513553829737,
                0.03743613120734979,
                -0.30203274957746384,
                0.43279778805056646,
                -0.35347360009812157,
                0.31533007280854797,
                0.3317325723991973,
                0.06719329447398015,
                -0.046332898787522225,
                0.030308513881805554,
                -0.1312949483040401,
                0.06943321828642057,
                -0.23088778822106437,
                -0.23510940515484863,
                -0.10078585108764072,
                -0.2828335044262912,
                -0.37658026015352597,
                0.18725313786030215,
                -0.3028486732460407,
                -0.012202434661038014,
                0.20249675487947583,
                0.4949316040594691,
                -0.29126797350746714,
                -0.146382555544576,
                -0.23247941457497895,
                0.07258154753037202,
                -0.453153780062619,
                0.36274241960785014,
                0.28856976424035685,
                0.322348714044536,
                0.3355164879391934,
                -0.45940405341197166,
                0.3103531540647777,
                -0.006196166863105201,
                -0.41202658803308634,
                -0.4891032521291383,
                0.36323690889792704,
                -0.4385642694858851,
                0.36254384572845144,
                -0.3082039275629178,
                -0.47494146199008364,
                -0.341603475940591,
                0.24428285175771733,
                -0.44206420717685313,
                0.13061534450468673,
                -0.503161970400021,
                -0.1982550400904102,
                -0.012373400996223787,
                -0.35211594191407597,
                0.19331395015823097,
                -0.4758880512821465,
                0.06778516824873977,
                0.15730735033206492,
                -0.49495077733855125,
                0.2596887389530544,
                -0.09183043199453228,
                0.4002939323244721,
                0.21909842312731265,
                -0.04916634121261898,
                0.28770056734488536,
                -0.2878925234833668,
                -0.05935187565084388,
                0.21177698192027383,
                -0.020532679258757236,
                0.2392404751876118,
                -0.36407415198469195,
                0.2765765590282984,
                -0.10379725438957083,
                0.4145633347517483,
                -0.16645846570949416,
                0.2020591589968451,
                0.4586505749017623,
                0.42914918088496856,
                -0.07323811956975707,
                0.22337009719520798,
                -0.17239691837850316,
                0.05054690167111197,
                0.33937332268416504,
                0.1125168635509354,
                0.10262176191398738,
                -0.219875564511773,
                -0.16008027814417114,
                -0.177060816931533,
                0.11784380368073684,
                0.01544458281439142,
                -0.39046318753150644,
                0.0036970024676435485,
                0.44375130715000827,
                -0.40264006384185613,
                0.3279340607239638,
                0.4335622849865002,
                -0.08395133172919045,
                0.2326467769950913,
                0.4312948424077874,
                -0.1984074699646392,
                -0.0641015069949384,
                -0.47228868631524956,
                -0.14153666650501137,
                0.3501415599971588,
                -0.1312611925366206,
                0.4412446562863684,
                0.17955426987610515,
                0.2567116150606736,
                0.2695123671559882,
                0.0986741656936059,
                0.15162865983912743,
                -0.09397627083748032,
                0.031011941598905645,
                -0.0418711358600126,
                0.23172959333846546,
                0.08402172777126496,
                -0.4848136211302431,
                -0.22106614447442527,
                0.3119918455358815,
                0.24107808572390377,
                0.45083120561192314,
                -0.23795617005516426,
                0.2823490909843728,
                -0.165338766572924,
                -0.41625894819188125,
                -0.027717446563153662,
                0.4755532740450896,
                0.17817655635902735,
                -0.4998943085925741,
                -0.424666949803035,
                -0.05102274920090129,
                0.37719298036741544,
                0.3033652368423701,
                -0.11155431413691584,
                -0.23383768378738012,
                0.003358261531573754,
                -0.2575487787533379,
                0.2989520549229159,
                0.46784042484270105,
                0.32249367628499537,
                0.3820216742173463,
                0.4238184941935873,
                0.3795353496107656,
                0.077225943640913,
                -0.38580388227918605,
                -0.27763677386422103,
                0.33222714342448306,
                0.3432154957222984,
                -0.41025494911178134,
                0.48125816626258616,
                -0.34573818240130083,
                -0.24478584239375323,
                -0.44430422975803396,
                -0.40163736601739053,
                0.45808721295864785,
                -0.23109653436179795,
                -0.19846324602579277,
                0.3481442538835572,
                0.41985666150048745,
                -0.2074276025328286,
                -0.16905023822055948,
                -0.32337801353942497,
                0.025670907749518218,
                0.3876090813434571,
                0.09634075663831632,
                -0.12100079726659393,
                0.25426456772044714,
                -0.12837314224454335,
                -0.010239036199877071,
                -0.193602803413638,
                -0.2231965639918638,
                -0.14757459896099723,
                0.48003742841465197,
                0.24058903606604704,
                0.35857086948938915,
                -0.2980236912936536,
                -0.004402529711216469,
                -0.17846160673983893,
                -0.20178577211171134,
                -0.3679433980558007,
                -0.4520444563726288,
                -0.12833121648455584,
                0.3202591257118995,
                0.08912522774064773,
                -0.319920957343037,
                -0.42155999478366407,
                -0.21016611167956828,
                0.2885205289253179,
                0.01704426998408312,
                0.2751249591740069,
                0.3861640514174911,
                0.5420515909165012,
                0.22019135382545926,
                -0.040051765574094136,
                0.3238700322624069,
                0.49419064495677223,
                0.5502063025850918,
                0.6262352780149651,
                0.6070664370974512,
                -0.2057328230272046,
                -0.26325943941510366,
                0.3615953855992254,
                -0.39311153403636695,
                -0.35823158493539764,
                0.2542438782938911,
                -0.25045844185913746,
                -0.22352824658823575,
                0.2158156380939924,
                -0.3659270366829632,
                0.3724308458838718,
                0.5089054847984859,
                0.38842078095793364,
                -0.2123121451385802,
                0.46706535419863954,
                -0.30415742769611664,
                0.33356275345339254,
                -0.027292449601379408,
                0.13513072099219145,
                0.5204447427358304,
                0.24604495880515379,
                0.32017828478412774,
                -0.30605720589161256,
                0.21285045925967047,
                0.13627326831437733,
                0.031046025848841433,
                0.3303210848164272,
                0.046788387526059294,
                0.17566689035142255,
                -0.37030838675981115,
                0.5086728855927527,
                0.21140656053559426,
                -0.12091411813865519,
                0.5342334271586969,
                0.11208529200435788,
                -0.46878019255162323,
                0.02613350194412245,
                -0.36734326117503774,
                0.07517179055039483,
                -0.034225001482476626,
                0.31688309732009934,
                0.30156330004213094,
                -0.0106154859729169,
                -0.2459813949378752,
                0.11514894911135744,
                0.11335171144925872,
                0.09646322411312153,
                -0.25457965687391215,
                0.09530331237753757,
                0.5884169514869406,
                0.042785999393213446,
                0.28043537416885017,
                0.4650976306181743,
                -0.0505511241593401,
                0.06084904713752832,
                -0.0052571173118450085,
                0.3467279827609654,
                -0.4306821381008508,
                0.3702185803436726,
                0.4053351093356939,
                0.41716442348224697,
                -0.13545358691265902,
                0.4715195578143862,
                0.015391495501627106,
                -0.025471818181354466,
                -0.41850140925136414,
                -0.11297174241731878,
                -0.01168327136292105,
                -0.14620477327589165,
                -0.11846925871589183,
                0.05554138591007051,
                -0.24539421958831673,
                -0.3178045588644894,
                0.29417365938666057,
                0.41616873316649666,
                0.3119817480089302,
                0.3768207781698061,
                0.4090072169158944,
                0.13169250656185455,
                0.045867505439388535,
                -0.11209341551870541,
                0.30780157784636714,
                0.30706673760265235,
                -0.13956758495380991,
                0.07554531181821798,
                -0.013018776391312319,
                0.30109853151886856,
                0.34751152110649275,
                -0.17226821511343943,
                0.1858010689411734,
                -0.45558678536952446,
                -0.41540617507691646,
                -0.15931647372545477,
                0.4219254996612565,
                -0.4621908907498007,
                0.3442518299771122,
                0.1809530277256759,
                -0.4745756240546828,
                0.31405192521893066,
                -0.39780092327794886,
                -0.22203159614576973,
                0.44856401071377167,
                -0.20191121175350207,
                -0.35036113148776166,
                0.22641234597611898,
                -0.03097492510005447,
                0.3540146104899682,
                -0.20039707417139033,
                -0.4971149478725781,
                -0.29544621382947683,
                -0.0759143239317737,
                0.2590775529627483,
                0.01412139235512209,
                0.4051466112741692,
                0.36961697846837216,
                -0.14801126438461895,
                0.23262447778576986,
                0.004207494738530808,
                0.034010032782106014,
                -0.13403383616449716,
