{
    "activation_funcs": [
        "relu",
        "sigmoid"
    ],
    "layers_amount": 3,
    "weights": [
        [
            [
                -0.055545417302694244,
                -0.38352629590815124,
                -0.1299178977189802,
                -0.3766114463684693,
                0.11636174150343415,
                -0.033669148265999205,
                -0.255018422753184,
                0.3969825624344895,
                0.4831076650109186,
                -0.0363860404968378,
                -0.3390464643679232,
                0.25724366898643414,
                -0.18802702046056696,
                -0.3748508733894511,
                -0.333520128767929,
                -0.1872414281281406,
                -0.07453062797936516,
                -0.3482838111062839,
                0.152681808282898,
                0.14434105767096927,
                0.24972995441941848,
                -0.04775459811579119,
                -0.15540103342814326,
                -0.2968139070718461,
                -0.048158714138865855,
                -0.44211517815170254,
                -0.05002918755013519,
                -0.2854245253298541,
                0.05653465106010014,
                0.38032980463013655,
                -0.3751364000924837,
                -0.21812525039703123,
                0.2347304096350512,
                0.4200760535778959,
                -0.29233788743507194,
                0.024570950170166528,
                0.1360870598809033,
                -0.08875049270739543,
                -0.3547499912525037,
                -0.05191386549720267,
                -0.41104281565938006,
                -0.046935645108882484,
                0.00524530665331524,
                -0.1622927437664461,
                0.3357406235553413,
                0.12962941299919506,
                -0.04484629640015719,
                0.3826758782254408,
                -0.15028542596670325,
                -0.4524937258722609,
                0.46065259072738807,
                -0.39435476347571774,
                0.2481947607917514,
                0.18713588358187538,
                -0.2068658819386363,
                0.20384400774576616,
                0.3005947350825644,
                -0.19165790806287153,
                0.28775887449219273,
                -0.20048341889371823,
                -0.29038398873945226,
                -0.20820576902148313,
                -0.16217806332543971,
                0.3655876114796964,
                -0.07156299775395725,
                -0.1514137613963101,
                0.15908290068189573,
                -0.4174224068247757,
                0.11250502391347678,
                -0.41132338229347226,
                0.38469276368632793,
                -0.21264234127723788,
                -0.12196220230653863,
                -0.10188587362108022,
                -0.44980498420731413,
                0.24643780694269574,
                -0.35716668835684395,
                -0.49723702220764426,
                0.3698027969988828,
                -0.17017272687771637,
                -0.25180133443984387,
                0.3069660415144392,
                0.03647463535798767,
                -0.2637918326931178,
                0.16522257307376298,
                0.49764298232073423,
                -0.03482822412769648,
                -0.02734903921864973,
                0.013863729054321539,
                -0.21498125028421156,
                -0.286190255435128,
                0.3057709387678994,
                -0.13572179776417656,
                -0.19702107211671188,
                0.29137295989257517,
                0.4984636649937083,
                -0.27600388391823977,
                -0.03664384860418468,
                -0.17741311767108386,
                -0.3199380712788237,
                -0.461986462629305,
                -0.2170880214894489,
                -0.42179878908168933,
                0.4146638645900837,
                -0.20542966315521421,
                -0.09220283548681787,
                -0.2834447332524317,
                -0.32868268030731573,
                0.4964800532229381,
                0.14652705251575504,
                0.3147571800267882,
                -0.31904101869340173,
                -0.4750361688002689,
                0.3145828672672999,
                0.1871015450206317,
                0.4752622905268208,
                -0.31560973380643975,
                -0.10334296806342645,
                -0.14436793217706329,
                -0.2799162648484927,
                -0.43885648975458963,
                0.2608624986727799,
                -0.2261074460211751,
                -0.3087959931068194,
                -0.380871399257564,
                -0.42121387154345846,
                0.2318959618179555,
                -0.3644002295679987,
                -0.2691806888579915,
                -0.07002004651675142,
                0.11231112413980988,
                0.1382230224322699,
                0.18763880177438685,
                -0.09738428658075025,
                -0.2567691941298296,
                0.2477351288693183,
                -0.2227131629227591,
                -0.05042651709601942,
                -0.41621393421123176,
                -0.3026466595238396,
                -0.04830384322268477,
                0.47610503453104847,
                0.043073373341724897,
                0.06043338466485485,
                0.11031940484883965,
                0.12276639469370815,
                0.22774445858550227,
                -0.20279884187093783,
                -0.37417886486851615,
                -0.1419773181671132,
                0.23905161645761536,
                0.44416037928265145,
                0.3044127603896442,
                0.14450346417551432,
                0.13857937048417124,
                0.20962642298206147,
                0.10383884178702164,
                -0.3519688831837993,
                -0.3124357759875127,
                -0.17640719808615807,
                -0.12317105386306648,
                0.1762392160903885,
                -0.26006618668685555,
                0.3689985243985453,
                -0.052520910974555544,
                0.2761416144052782,
                0.21576520239998764,
                -0.31155175831842685,
                0.29091931000099414,
                -0.4039715758370508,
                0.32828038635416934,
                0.4484098744353619,
                -0.24401560729839047,
                -0.13335099254470198,
                -0.33542739005354005,
                -0.4656343551606845,
                0.2954629511322476,
                -0.41860834084460263,
                -0.29346013988821357,
                -0.05337881172657999,
                0.1853965083134869,
                -0.5015179235202273,
                -0.46344170807856655,
                0.2763634288060972,
                0.09812263606590836,
                -0.47825477213515766,
                0.3250099315340337,
                -0.34497925462490225,
                0.16825492273338974,
                0.41207937925625177,
                0.11288335859496022,
                0.30070252989304125,
                -0.05343043613505072,
                0.053722574135236734,
                0.28146779483622986,
                -0.4103929573265547,
                -0.3322148159147369,
                0.3834959121920648,
                0.2620555118813489,
                0.4648126994758861,
                0.08465269780777059,
                -0.27842650230362825,
                -0.25492030113472386,
                -0.3596802998187642,
                -0.3882132408992152,
                -0.00961911212142427,
                -0.2635351958120562,
                -0.303671072173079,
                -0.24812039641199374,
                -0.49153436376931786,
                0.4006129137806026,
                0.3718372923248925,
                -0.4240924145092028,
                -0.10118986188534557,
                0.3444697586821255,
                0.13120393796639523,
                -0.1028400368142271,
                -0.24421437214357503,
                -0.43405695662313665,
                -0.27206322547417583,
                -0.3459127014290482,
                0.1043954521492596,
                0.09432767920953189,
                -0.266047227386482,
                0.22430933622568494,
                0.3195833505558324,
                0.3741455462317106,
                0.45480232075306803,
                0.22117743340322044,
                -0.1483686076252958,
                0.1281476260891601,
                -0.026887653403667687,
                -0.22741117119650928,
                -0.177079850411775,
                0.013827821663298483,
                -0.2392569860656318,
                -0.5283857140705002,
                0.32673946005629195,
                0.12057651035589126,
                0.08116658601209935,
                -0.3812332898089276,
                -0.524045068905886,
                -0.06126296271472763,
                -0.4717064199334399,
                -0.2997610071388945,
                -0.24872042020593907,
                0.32363161456242345,
                -0.2497708843210631,
                -0.4904687501420272,
                0.28287734701583467,
                0.4376588739232985,
                0.02467920708709337,
                -0.2531440462818024,
                -0.27654454612142143,
                0.3641699263252812,
                0.1947651994503774,
                -0.16878704008337903,
                0.45845692226257356,
                0.30239736593248046,
                -0.45597573199697605,
                -0.4141986162264288,
                0.1272422255848333,
                -0.37053335867176124,
                0.1439604164358345,
                0.1923151818482102,
                0.3323128104971282,
                -0.18978925284418843,
                -0.0320516868854882,
                -0.17007541391600162,
                0.3267483661709054,
                -0.08411725418627926,
                0.16383104497822107,
                -0.44477135713063065,
                -0.20078159876260068,
                -0.47162605383512474,
                0.041620282387851426,
                0.2757673183281799,
                -0.004640733313155065,
                -0.11993284057011068,
                0.18870725783688347,
                0.4491803435308561,
                -0.023900245585286473,
                -0.029381468306227197,
                -0.3442007357051354,
                0.09343273188160127,
                -0.09766140450785979,
                -0.1795364209523958,
                -0.2854598186688662,
                0.4808023023607542,
                0.051990251241235935,
                -0.1652941357310082,
                -0.2575080506677375,
                -0.4954871875202111,
                0.14675758812923373,
                0.3990228379716199,
                -0.2042889406153975,
                0.4725297872684229,
                0.2097975650088322,
                -0.1838856738247123,
                0.21690322053740976,
                0.07144932646455775,
                -0.3578520651323999,
                -0.43552706635603566,
                -0.3646937918062044,
                0.11641331770225706,
                0.355140576306622,
                0.485838719102596,
                0.16906566879556528,
                0.15055185921681113,
                -0.2186699179659487,
                0.14832428906812337,
                -0.19667823621749267,
                0.06441760898398016,
                0.3482641006565994,
                0.07801781840093269,
                0.2868637029752172,
                -0.21977662172832363,
                0.38161034183268744,
                0.2521801786082945,
                -0.02905322945966302,
                -0.32251926002067777,
                -0.2606112369449511,
                0.040853347824519964,
                0.12238502174370493,
                -0.12186776771958563,
                0.38184286097974995,
                0.18629411413593308,
                -0.09068410568508746,
                0.013468148612735912,
                -0.1283405765768845,
                -0.3281102750189744,
                -0.18499468303714878,
                0.13909757881845347,
                0.10641366559872288,
                -0.49403363695545116,
                -0.18125941272443769,
                0.43839767653160655,
                -0.2112234441481704,
                -0.40055188500039784,
                -0.38526838285165077,
                -0.23009312648706765,
                0.5996901992069397,
                0.018879417580648834,
                0.23589199276074996,
                -0.31367532501480044,
                0.12239440719296393,
                0.27467519855425426,
                0.3725845776386642,
                0.34985067592180374,
                -0.2842055543194816,
                0.30731423185634005,
                -0.34270087262535787,
                0.42649574259426876,
                0.4961450647056193,
                -0.04004587179126543,
                0.30505591032847,
                -0.2802675537613413,
                0.3288443065398329,
                0.44349602339618244,
                -0.03304979897803056,
                -0.4033088062802039,
                0.13272937430067244,
                -0.05672982334234289,
                -0.4903037563396545,
                -0.09010052047206063,
                0.08407457443917288,
                0.15322368613591975,
                -0.1461423835498395,
                0.46180637635509014,
                0.15431263134424014,
                0.010523943796964514,
                0.2643732635552132,
                0.34195715006470534,
                0.00297867747956856,
                0.013404622634839833,
                0.3163810057963341,
                0.20797080765395604,
                -0.1887319221404289,
                -0.47166105876102543,
                -0.26737726261313405,
                0.10147911157579939,
                -0.3385499154493742,
                -0.2691142836244911,
                0.5182922121451018,
                0.25812474093813215,
                0.1258323595452865,
                0.3249653515005151,
                -0.09032663663703892,
                -0.17948681641026634,
                0.28361500506449566,
                0.47756052719015896,
                -0.40100452328932557,
                0.31189590906042164,
                0.1660749811256218,
                -0.019158828024148675,
                0.1342488505195816,
                0.05005741543703446,
                -0.3837881512228816,
                0.00981428580565672,
                -0.511780803945672,
                0.27598836450960423,
                -0.3920348367807111,
                -0.3828115916060021,
                -0.10048848363922434,
                -0.47351100116583505,
                0.391785952330553,
                0.044607652295048004,
                0.22365591075228125,
                -0.04630828082063486,
                -0.2998378180351902,
                0.2588100146856963,
                -0.2138677655111539,
                -0.32163184324656624,
                -0.19348949161641701,
                -0.37850634616013856,
                -0.17675521470742697,
                -0.33634248421704693,
                -0.06137475066833161,
                -0.0959225758789306,
                -0.08143532657270813,
                -0.49457841584987483,
                -0.4659270739530136,
                -0.481038080012279,
                -0.3046132210899426,
                0.36881831740168897,
                -0.0653620974015086,
                0.12843947159630795,
                0.3003659504962134,
                0.22728085900553052,
                -0.1859400603945999,
                0.43879019192083946,
                0.19155280965969834,
                -0.2649737171943518,
                -0.5125731784773083,
                -0.12489195782501461,
                -0.010789501523675934,
                -0.37119761713550625,
                -0.2337039375645135,
                -0.20157835310374875,
                -0.08074489947100344,
                -0.017339163333806727,
                0.29412249706673343,
                0.26031841713936865,
                -0.45205791025801395,
                0.40093253017186165,
                -0.05551962664943212,
                -0.05796256039619119,
                0.47338461349472416,
                -0.1868310875291883,
                0.27769802419627354,
                0.24218284701861126,
                -0.13420234246340068,
                0.2961067098489095,
                -0.0015456181572626585,
                -0.45566404058857785,
                0.2962278494857122,
                -0.0853501843589728,
                -0.3615540288023686,
                -0.24442214690746494,
                -0.3197968669856733,
                -0.38081779516761727,
                -0.13893382332648185,
                0.14503804375792684,
                -0.29213191699623653,
                -0.1356962799055372,
                0.23054314589302494,
                0.3434070440655643,
                -0.008433455053469466,
                -0.46224100734576135,
                -0.3949531845532174,
                0.17827760911947374,
                0.3614001583543786,
                0.408524429295345,
                0.47922593700128646,
                -0.12068188506084498,
                -0.44439232575938925,
                -0.25426121687224357,
                0.2988222516539807,
                -0.22409029228845923,
                -0.0692521391731028,
                -0.06641266866609014,
                -0.33062944557469537,
                0.3486395481603487,
                0.3023182259098175,
                -0.4297514695717035,
                0.07849603182993416,
                -0.20415566727127288,
                0.30608113175319546,
                0.07516754906030737,
                -0.1879231344830963,
                -0.14564942492415814,
                0.21449194761620452,
                0.42377068641406634,
                -0.08958208825822332,
                -0.409530841053565,
                -0.049180515754974154,
                0.16916745576688302,
                0.25116603698743056,
                -0.19948533835632298,
                -0.42955316216488426,
                0.17691772845073903,
                0.2098519364452695,
                -0.4663531334955041,
                -0.07116600057556077,
                -0.11758379548342413,
                -0.4224642995283011,
                0.3373318504578239,
                -0.252081543221111,
                -0.19201308393646568,
                0.33925431618169055,
                -0.25414387424003587,
                0.20950094179976006,
                0.04436454189570115,
                -0.5014167349822016,
                0.3647412000537318,
                -0.1219284018673985,
                0.10325745715822043,
                0.42865401303922046,
                -0.0212246879988603,
                -0.38623925306114926,
                0.4181309353129432,
                -0.41303167623399184,
                0.5304871674526227,
                0.33403279811309583,
                0.21790411117427566,
                -0.14713265461885375,
                0.08255298812650855,
                -0.08889063953002349,
                0.2284306055125144,
                -0.009809990571287562,
                -0.32614430476070666,
                -0.4378408088130341,
                -0.053556009482947364,
                -0.16047663851409277,
                0.055261887942860355,
                -0.37743299711322587,
                -0.2942668732886385,
                0.3398440307703113,
                -0.4722015256608324,
                0.3598391932911617,
                0.2970736051885428,
                0.01826394612829705,
                -0.4270404133203611,
                -0.5152545509140366,
                0.046343469200812504,
                0.19230851859551193,
                0.4896250794061936,
                -0.19775485541441062,
                0.4311121440476031,
                -0.12180576261589665,
                -0.26618772383437367,
                0.1463187244625078,
                -0.1967227418090077,
                0.4258099444894833,
                0.47549768012046195,
                0.0014880307999576355,
                -0.388557635716419,
                -0.2263342367256179,
                0.31177318145629196,
                -0.2816600634065911,
                -0.4044386687261513,
                -0.3133778212732613,
                0.09049445941706769,
                -0.29045260371637427,
                -0.06232722638492813,
                -0.23569530252365162,
                -0.35930568956444975,
                -0.31963241128610054,
                0.3172244765070199,
                0.3171711156267435,
                0.3607580029073626,
                0.3244379070093982,
                -0.1279157286485298,
                0.4734733933942787,
                -0.1753881071313691,
                -0.11621473125634507,
                0.07920912596172869,
                -0.3423913962393533,
                0.20543869394332354,
                -0.4016110345349557,
                0.38151139131228506,
                0.3928257042670997,
                -0.13041541145465252,
                0.0459274334890509,
                0.23426590138745018,
                -0.4806638426693453,
                0.42132003702509946,
                -0.2154219556498802,
                0.0356880197026207,
                0.44364561804357205,
                -0.022718710634749506,
                -0.09762694211223744,
                -0.09788825100252714,
                0.029997454856920458,
                0.08514908925588094,
                0.1978264025021964,
                0.4057183751369487,
                -0.514814043847489,
                -0.38514947444968034,
                -0.3291742999630368,
                -0.045503050875458355,
                0.19667843023285647,
                -0.03679200393698697,
                -0.4146551311939108,
                0.04009305907771883,
                -0.057232263978220094,
                -0.012059169192562922,
                -0.03933634864528649,
                -0.08942409290487287,
                0.16439598902579078,
                0.4434841623318244,
                -0.03292343261847429,
                0.46631497694508495,
                0.4399251687269155,
                0.24001669355248478,
                -0.26609468556283666,
                -0.0895213065257382,
                0.3322549019110662,
                0.42427689402837954,
                0.2733103845826107,
                0.09763803611855804,
                -0.30727837681778436,
                0.2970420012212195,
                0.2963327946107895,
                -0.3614364911396094,
                -0.5137015520809335,
                0.2531564354019411,
                -0.4373607996178936,
                -0.21700189439218,
                -0.38120088957691173,
                -0.04212709806057832,
                0.2391842797853199,
                -0.29675755321790737,
                -0.25985509044253563,
                0.289345690662634,
                0.0694320712002236,
                -0.4863823067859562,
                -0.025495686022267528,
                -0.2187664547207879,
                0.24932349802676074,
                -0.03441754900338332,
                0.42855388495346075,
                -0.3072755172881241,
                0.05027100339727786,
                -0.4382155270443717,
                0.4292795989388223,
                -0.3725194382895999,
                -0.23925822221052007,
                0.2588542970173928,
                -0.07932779801897895,
                0.051580829995762564,
                -0.20539007531509196,
                -0.0866935629043261,
                -0.5062394461937623,
                -0.08053673040351099,
                -0.3198153492886994,
                0.4167711978309523,
                -0.2809763904788376,
                0.38034071786507934,
                -0.20488394096004953,
                0.35205809545921735,
                -0.3628139967869188,
                0.32698941844240803,
                -0.4627677750773134,
                -0.2938191241727375,
                0.21989897197852926,
                -0.07038041140799164,
                0.12519126696268762,
                -0.07674274450874004,
                -0.1646792196577378,
                -0.23981844527604612,
                0.1311942491094813,
                0.19760928341749073,
                -0.37472799212481334,
                0.1798406042944004,
                -0.3014725037282733,
                -0.38574599337776383,
                0.28071300161731333,
                -0.30932180200075743,
                -0.4403414071193233,
                0.025637035021311573,
                -0.04513386219522787,
                -0.025712360813260438,
                0.07386876267555315,
                -0.45592295761579965,
                -0.43836563955175933,
                0.4660045711451528,
                0.27595590367265466,
                -0.24002767932700148,
                0.13945740449183552,
                0.1916771663044007,
                -0.06886119954786565,
                0.324543912315844,
                0.024933426475071335,
                -0.15697662440196025,
                0.12425359650899573,
                0.15726890329127194,
                0.22196368663419364,
                0.09985542132328606,
                0.025051985120879916,
                0.1024075525446212,
                0.33281921862744557,
                0.15305888823345704,
                0.26917121188911086,
                -0.40652228180515126,
                -0.347098433335589,
                0.4182219314122355,
                -0.03736922201477555,
                -0.450324599228516,
                0.2801614589424606,
                -0.02071274165891281,
                0.2202069626969883,
                -0.20075537349021813,
                0.09937188046373681,
                0.2587457085667112,
                0.38943892895279536,
                -0.2117329708805196,
                0.09758671131796849,
                -0.22862211604529087,
                0.40873306647124824,
                0.42117966423841946,
                0.12582202432511638,
                0.0731581900644589,
                -0.3409946163358605,
                -0.10111518193821079,
                0.4140074214695627,
                0.3964614936865587,
                -0.0357340716110891,
                -0.2620879677225676,
                0.2423309995999201,
                0.013239622235843518,
                -0.0449600050706398,
                0.19303120951531894,
                -0.2093712996606797,
                -0.37784526060660517,
                -0.3992497457941294,
                -0.23237980661546997,
                -0.044805899524717155,
                0.15406742970419965,
                -0.24645040583537867,
                -0.3219344162788447,
                0.4944128444506715,
                -0.4269471861036556,
                -0.11181380057596997,
                -0.4829267454906247,
                0.3952722157690957,
                0.45865157575589255,
                -0.44528432097211446,
                -0.02611983565746093,
                0.3161057895707491,
                0.005514858885703355,
                0.25456639445020235,
                0.03134350848424816,
                -0.17664319650515958,
                -0.2690813209837051,
                -0.05154819968135094,
                0.09752796799380714,
                0.12448589235853091,
                0.1746297449340264,
                0.08316537045293171,
                0.3344603838112006,
                0.3869926363320625,
                0.22496963495869038,
                0.4478374755601018,
                -0.33324474173880714,
                -0.14084457396823813,
                0.20903160499924034,
                -0.16024722006196568,
                0.28351213378008355,
                0.12791058756942372,
                0.3460321440250724,
                0.021614966259201902,
                0.43255480359578474,
                -0.3994449045107834,
                -0.1898989135221989,
                -0.014186711103283178,
                -0.4319677600255807,
                0.28851240063129424,
                0.4465088881449423,
                0.04299816034113846,
                0.06863483713565555,
                -0.10709854864749158,
                0.1347917871394524,
                0.48558540756582036
            ],
            [
                -0.04227518844823175,
                0.0720826989577733,
                0.3146142029666025,
                0.0765215999565555,
                -0.21770662082318182,
                -0.4408602720313465,
                0.20097824730528313,
                -0.41752221016749347,
                -0.2882338301312528,
                -0.050979759653032475,
                0.29921239969476154,
                -0.26537664440289754,
                0.4714311605770982,
                0.3700711369392661,
                0.3929497014645711,
                -0.2639915090619398,
                0.03827741312980626,
                0.06965552470281189,
                0.21000364280546402,
                -0.18801194565217672,
                -0.14982919359903624,
                -0.42149084325536923,
                -0.10728838641182203,
                -0.4858693640320664,
                0.37480861227200324,
                0.39713783766830146,
                -0.08386610822131735,
                -0.4455820771883917,
                0.04350329894696314,
                -0.37436652707062223,
                -0.48560649574231096,
                0.0015147004550726262,
                0.22827014883440966,
                0.0615413626343847,
                0.4503750594182403,
                -0.3145193110921841,
                -0.1872925378282393,
                0.4553200764619759,
                -0.4713803748481152,
                -0.29172449795901956,
                -0.1424333603842448,
                0.2060897696227142,
                0.20835828502989728,
                -0.2150643792680319,
                -0.2622531175728525,
                0.4187214390551176,
                -0.4722145559426212,
                0.12763240828827815,
                -0.45134319294690806,
                -0.4374873170463749,
                -0.10792153760944023,
                0.3194585121602569,
                0.43375609465249987,
                -0.3740286024365509,
                -0.3163742654566908,
                -0.432909233892104,
                -0.03559665080207797,
                0.4086021590179054,
                0.33905452009547066,
                -0.38914715765962316,
                -0.4483224946202955,
                -0.2410432776789443,
                0.37233325441355225,
                0.47816174117123883,
                0.19786123450200693,
                -0.2916708075362185,
                0.30060970741998677,
                0.15893386399463283,
                -0.31371019227880564,
                -0.2741648729977212,
                -0.37366585505396077,
                0.11601872153919708,
                0.07619740088570702,
                -0.13312651254843946,
                0.10808106205038817,
                0.1801664780916238,
                -0.3846546974683183,
                -0.2696934597396451,
                -0.0973009033614155,
                0.1429899899702095,
                0.22808163674891513,
                0.2203787334171181,
                0.2199824543917399,
                -0.3789824818134191,
                -0.10095020447708436,
                0.28427030492118954,
                -0.35384016550204533,
                0.38105492926691376,
                0.3502688958078787,
                -0.28858820893819026,
                -0.06863855154196197,
                -0.10726066378507997,
                -0.13760963718483848,
                -0.420614137732728,
                0.49929352552517864,
                -0.04160981079705114,
                -0.18621556900752312,
                0.22008476437021707,
                0.24806971116410048,
                -0.10209976648844182,
                -0.08445351688929222,
                -0.4994028970009923,
                -0.05752316502119829,
                0.10688589101465541,
                -0.40853708562707963,
                -0.14919394502862476,
                0.46431979572144383,
                0.4195951545467915,
                -0.03306399655958846,
                0.29226029668033815,
                0.4193327926913275,
                0.437273896676207,
                0.30636330521758737,
                0.20142106055665276,
                -0.3121890440067674,
                0.021441459237002802,
                0.3809246425369581,
                -0.1610661171596931,
                -0.32537950267280336,
                0.0780732062784675,
                -0.23025567255265583,
                -0.038515867577314074,
                -0.463888972806333,
                0.043002991048294234,
                0.2752612940301884,
                0.06798899813699343,
                -0.3112417349892879,
                0.20744466968019756,
                0.3356593118712056,
                -0.1894983258549346,
                0.3132769105885238,
                -0.2899181395934597,
                0.11474641925939978,
                0.28548469529186665,
                0.2096711774349906,
                -0.34110189207715036,
                -0.22695723139791601,
                -0.42006207399474504,
                0.4759398085786327,
                -0.19616104005796797,
                0.04159049626112499,
                0.1605543972406337,
                0.34386396388681684,
                0.21745198577505753,
                0.43415929713565393,
                -0.05814274659636043,
                0.19187588412305168,
                -0.32806991112108097,
                -0.3213717578461715,
                -0.22109425695409204,
                -0.09819210307342212,
                -0.184885077227836,
                -0.023324169759150897,
                0.04444700065303177,
                -0.13503731398098193,
                -0.456679176291766,
                -0.0870219531171581,
                0.27676333770553424,
                -0.3112252421510312,
                -0.012720358309881566,
                -0.2718354708832422,
                -0.24574341213804246,
                0.21386998262205045,
                0.383226902598112,
                0.33908261222054875,
                0.4680108366860156,
                0.16738037804657901,
                -0.06742455792806701,
                -0.2303648315132183,
                -0.21193776569670597,
                0.1364990862892148,
                -0.3523900856877239,
                -0.4082769274496262,
                -0.11653414736180101,
                -0.47669133736058805,
                -0.2888077843265441,
                -0.42584227458547297,
                -0.2184491002300497,
                0.16277592662658705,
                0.12214605768631365,
                0.39137043272884925,
                -0.2531188887065808,
                -0.10242741834545954,
                -0.16316435998645273,
                -0.34933305925115893,
                0.17125145629428787,
                0.04548917472226914,
                -0.3554276819154169,
                0.25969674031146855,
                -0.1779028106615435,
                -0.43312022702140396,
                -0.0031540894772153433,
                0.2653177411961327,
                -0.2504780190065572,
                0.1074750571298142,
                -0.00017076126639026246,
                -0.19536234565996413,
                -0.2954851353693494,
                0.029665683918194463,
                -0.4881127465021693,
                -0.2053483339534956,
                0.2655888940357544,
                -0.2904379695625212,
                -0.444753887967533,
                0.48095651149423213,
                -0.21989545302313843,
                -0.04087282958493976,
                -0.30670502545462786,
                -0.41907657840092116,
                0.27846364943295027,
                -0.059962224964515094,
                -0.42669656858850763,
                0.09581638999728692,
                -0.04544198846841632,
                -0.3677186467857823,
                0.4644332733442268,
                -0.07251818363649934,
                0.3248802007269108,
                -0.003714686899319467,
                0.20213465921951687,
                0.03518823308769421,
                0.1712024977132255,
                -0.35790621999737493,
                0.35298899574393017,
                0.15564517128388322,
                -0.33171616126281545,
                0.41380914018536585,
                -0.3602094114158158,
                -0.13615149182170588,
                0.31698198899760677,
                -0.032104265353944506,
                -0.19127395688884,
                0.4657750358375772,
                -0.2540636928887732,
                -0.20030983539155328,
                -0.02175907555895735,
                -0.3373897180558617,
                0.02144004933875524,
                -0.2794655865928478,
                -0.4268706001268876,
                -0.1666780532731428,
                -0.40820398147850606,
                0.02448160681984274,
                0.19343613932110262,
                -0.3727849497395572,
                -0.4996332913650772,
                -0.44774262048674707,
                -0.41377831398799425,
                0.3760884314935729,
                -0.24627561729142095,
                -0.2590696146086246,
                -0.050751200212309056,
                -0.25467088293137863,
                0.364155139430572,
                -0.06026839998516829,
                0.16649109721508618,
                -0.49968816354537604,
                -0.40442198035870586,
                -0.2672049168104273,
                0.12328655811135743,
                -0.3280107776720309,
                0.33519786706192145,
                0.11393823693580296,
                -0.08274295786987378,
                -0.31341471184064856,
                0.4565008363186136,
                -0.044939131136057166,
                -0.30802269686739925,
                0.32350906440315313,
                -0.14745324187440098,
                -0.22933175515615603,
                0.18553508132284113,
                0.38833426141879446,
                -0.45375371770230494,
                -0.2751652558115583,
                0.3809398225628479,
                0.4324110823723236,
                -0.4998045622391712,
                0.12035812881303014,
                -0.05268050325757978,
                0.4047444676160217,
                0.471378862569366,
                -0.3930646052263509,
                -0.3716431699120685,
                -0.18442264032924746,
                0.19061371832888743,
                0.2077641187437205,
                0.20840683150081252,
                -0.32234935429730904,
                0.15169320583442764,
                -0.15755046244634308,
                0.22430560525715407,
                0.3974255047399341,
                -0.39407748255216657,
                -0.23642228994736972,
                0.3005343472000717,
                0.17793066380521128,
                0.40001520078007385,
                -0.33830335246828336,
                -0.32405440525972035,
                0.005776184624922213,
                0.021127918406735294,
                -0.5334487088103124,
                0.22255619240890206,
                0.4121349647247082,
                -0.3352738867550962,
                -0.12496350235210685,
                -0.41167903691179464,
                -0.34975837508636953,
                0.21936498086987222,
                -0.06821549987525063,
                0.2151276295524457,
                0.20412311868532274,
                0.16229191118495254,
                -0.11113070918592205,
                0.0626062617916084,
                0.35517656455667984,
                -0.16771578020212352,
                0.03565927187463004,
                -0.505465980231928,
                -0.39543517867881334,
                0.27937434968912594,
                -0.09763932848385083,
                -0.2121694528727589,
                0.11971224806728861,
                0.07321199130076063,
                -0.34934395392223483,
                0.1853029221653316,
                -0.0018789168201441854,
                0.09856871765111556,
                0.23256662716598786,
                0.03436230158166145,
                -0.19689058762638995,
                -0.1830914869515885,
                0.28278439776770015,
                0.38572998463441277,
                0.35838883032258195,
                0.16334832040210323,
                0.07614323643054768,
                -0.3761262438369627,
                0.2667679991021097,
                0.07908821312339159,
                0.4024575899463735,
                -0.165342789697911,
                0.4168228553228264,
                -0.3953463852315629,
                -0.09978273424987184,
                0.2850400966675881,
                0.2039941644446815,
                0.2807211378043345,
                -0.5559813804421181,
                0.0795472495877315,
                0.38963804206174907,
                -0.10156503092236409,
                -0.42657972455108495,
                -0.15072962722049899,
                0.07713381413422586,
                0.4138721737006435,
                -0.0881304168718624,
                -0.38702634384481327,
                -0.021913047543645845,
                0.2554581878964235,
                0.27898452216567005,
                -0.4355722126191044,
                -0.31855993701181085,
                -0.48512145502791526,
                0.19650154050345914,
                0.33375493947452956,
                0.36352574156478445,
                0.21431600573436144,
                0.012285317963333882,
                0.25324386024720447,
                -0.23260439233429894,
                0.18544123188886147,
                -0.5195183152561423,
                0.03092968175774731,
                -0.3791980742810531,
                0.31649743346266246,
                -0.00011823445641477944,
                -0.07405361368520781,
                -0.3683028301051798,
                -0.2197147094222839,
                0.3981040963518252,
                0.03759113718978562,
                0.18427287610200999,
                -0.150162084271676,
                0.23749664055343947,
                -0.33472259876409954,
                -0.39626041199939105,
                -0.25494145131174234,
                -0.019255407903297495,
                -0.06282511787565859,
                0.3842499482029449,
                -0.381317748927095,
                -0.11563670648951618,
                0.39345128783291133,
                -0.2749988251221614,
                0.06321668619175277,
                -0.4246117000040669,
                0.012074092283818337,
                -0.2854328397650734,
                0.0031973124025710116,
                -0.13089239650215462,
                0.19564167880591074,
                0.25641320133156154,
                0.10430119638952713,
                -0.3357037173961282,
                0.41889230628201374,
                -0.5045447291492525,
                -0.29307388903533194,
                0.3871633929972603,
                0.06043000000312962,
                -0.36317409684964314,
                0.37750448049065966,
                0.2880967819060364,
                0.16403624745405346,
                -0.28606573637290117,
                0.39922790318354434,
                -0.156187733123079,
                0.3482070790535443,
                0.47583891814086443,
                0.18167341620646693,
                0.32293569520782817,
                0.38073626818683104,
                -0.41851423642941954,
                -0.15699192723265956,
                -0.34929374166353594,
                -0.011196336321418013,
                0.3247919663513527,
                0.31689679936932336,
                0.10361826449101211,
                -0.04582010882084834,
                -0.4750683360052164,
                0.07194606559512219,
                -0.1476889763446966,
                -0.4951838746299462,
                0.30778988585504363,
                0.21415351460839985,
                0.24254407201332434,
                -0.0794251613305723,
                -0.022631660314001576,
                0.03178564359329415,
                -0.08355884770307238,
                -0.28688574421700197,
                0.006289636005263559,
                -0.025350754688481802,
                0.06137954481893748,
                0.42075133002530307,
                -0.23348224942682683,
                0.4577813101419719,
                -0.31062004466865434,
                -0.19692305409826305,
                -0.4408298242245732,
                -0.03903829644828828,
                -0.0009466644367698939,
                -0.3398259539397458,
                0.2592510750624398,
                -0.36978544651826833,
                0.0290659448025889,
                -0.22273390664912207,
                -0.1069739419569817,
                0.20160380821740873,
                0.07724356412711618,
                -0.26233733812820986,
                0.18618173495576346,
                -0.11231636525660471,
                -0.271050920240864,
                0.4729916201418989,
                0.3672515866425323,
                0.22602960481504533,
                0.19899331218097777,
                0.34629018663773237,
                -0.26157874346838683,
                0.0801327669623344,
                0.48872978714453663,
                0.2632766629752137,
                0.28397369994182264,
                0.05397667594691413,
                0.0455239608728909,
                0.02552350793270064,
                -0.13330335453806594,
                0.39643390810432083,
                0.3373591578599893,
                0.4339768678477999,
                0.11176769142900948,
                0.32858952066967173,
                0.03518731196357048,
                -0.2507023046567168,
                0.32257101017738865,
                -0.002617962559554164,
                -0.11641788746160643,
                -0.26856695547388915,
                -0.4167471200583231,
                0.3285382521463988,
                0.20386588918863524,
                -0.07948819875648368,
                -0.12326569523161307,
                -0.14836907933481025,
                -0.02710557969946549,
                0.4322901157767601,
                -0.4725096659037236,
                0.45904948276557256,
                0.2909587051999546,
                0.0956009127383326,
                0.2328583286733571,
                -0.1403970058605266,
                -0.35824666162485064,
                -0.44679948138423753,
                0.029548460954828232,
                0.39601837133263673,
                -0.4680266275931799,
                0.1649970512925967,
                0.3892375348744111,
                -0.0915981165561522,
                -0.20204873664186274,
                0.23113106968557576,
                0.2784486028160368,
                -0.4486105997000037,
                -0.45073650765552087,
                -0.2793057958564441,
                -0.4759139154161627,
                0.2256522534278004,
                0.0459295614494584,
                -0.19802376781637515,
                0.1189619576362677,
                -0.15480924785326197,
                -0.407031611513725,
                0.10542325856172995,
                0.18650585008043796,
                -0.32018900201412803,
                0.21101289547323804,
                0.1230547432955248,
                -0.08342381958826262,
                -0.05117495214685597,
                -0.3688102590029506,
                -0.4533153519147908,
                -0.3148248309921514,
                0.21470288729507778,
                -0.4561255383820762,
                -0.5358817872968283,
                -0.09151972539319084,
                -0.32247711614727453,
                0.35708149660536775,
                -0.30381041801908526,
                0.019944166632431013,
                -0.096675563451845,
                0.34125523611943065,
                0.3791271517627328,
                0.06749809270448005,
                -0.14506239223822393,
                0.0323678148014399,
                -0.14317460616391267,
                0.16187974288767723,
                -0.11022594733905718,
                -0.3240894285376321,
                -0.23990473605051646,
                0.04590026939738374,
                -0.38726848111228807,
                -0.035318291920382536,
                -0.3111395091084954,
                0.10318712398962016,
                0.3555354796859309,
                -0.20180594216398795,
                0.29542350674864815,
                -0.05483986754261858,
                0.11377964376398542,
                -0.006167828416239999,
                -0.42304314392298065,
                0.32995330347988455,
                -0.3540095572058944,
                0.1688898369734004,
                0.2389373967241734,
                0.20174716103374984,
                -0.3448532805255453,
                -0.30535237573864016,
                -0.3641416336571904,
                0.16620555044035415,
                -0.4945823329531021,
                -0.36183200117140096,
                0.03936093671900691,
                0.14967668609357349,
                -0.10736366242618653,
                0.48582776285530743,
                -0.2653280799607154,
                -0.13317321338409835,
                0.33597712064435836,
                0.19359356604230304,
                0.467743399206095,
                0.1535263046892863,
                0.09140403639484906,
                0.33378562232778786,
                -0.14519822064814014,
                -0.2304746523156178,
                -0.38853473869841765,
                0.3385282106328023,
                0.050822504060217516,
                -0.41732033240530425,
                0.366808629710966,
                0.24550943150419444,
                -0.44473091207720955,
                0.33242108445056356,
                -0.4482140910129462,
                -0.4414152220630116,
                0.3925301368812407,
                0.4351779800815729,
                -0.38528980371571214,
                -0.17941185600212486,
                0.03830998995827939,
                0.10296695994618518,
                0.35192014224216345,
                0.24281594807488577,
                0.20012225077764695,
                0.21842343370155506,
                0.12050999946064755,
                -0.20419826612705883,
                -0.24459406788229499,
                -0.43374175170183005,
                -0.14040229185453357,
                -0.11785734506575518,
                -0.10179488992327557,
                0.28205978333381543,
                -0.059786914426037854,
                -0.18722501446084175,
                0.16991112686757762,
                -0.36638800115830483,
                -0.05432952843701619,
                0.04275113900462534,
                -0.49554294623243345,
                0.401481759686617,
                0.2746766235019117,
                -0.4838859262472909,
                -0.3697390355127182,
                0.3855593647322195,
                0.38812580808546654,
                0.21364047481160012,
                0.24061643046351622,
                0.07333051972417473,
                -0.3513860428518294,
                -0.380152973464102,
                0.4783640255568024,
                0.08705641491611328,
                0.25817657869620037,
                -0.17929542966878143,
                -0.19500770045529436,
                -0.2675127410234661,
                -0.04780225109072378,
                0.20441540338028252,
                -0.3480568104996651,
                0.33691933571664445,
                0.379072762512065,
                -0.2311126354264944,
                -0.24794018011096436,
                0.43428114175861643,
                -0.09808669783007846,
                0.25175991993000535,
                -0.1261354900609556,
                -0.5025581616343545,
                -0.47756611427626017,
                0.29528659903664317,
                0.1217539831000491,
                0.20126426283927346,
                -0.3475417912519625,
                -0.05755938812074685,
                -0.2182269958631936,
                -0.42903411993325163,
                -0.1410561612220473,
                0.019379043658607757,
                -0.13212081704800566,
                0.16968892727246812,
                0.10409499017909585,
                0.16565887657255673,
                0.4405550196610466,
                -0.12867044719091092,
                -0.112984921261571,
                0.23760363043693122,
                0.20319494266436866,
                0.020153519961754407,
                -0.1698539554830507,
                0.2797350546756288,
                0.11548559647803809,
                0.30815318015436366,
                -0.47147736699940646,
                -0.33672945358057627,
                -0.034643220544036686,
                -0.44326163942849967,
                -0.47663816050494134,
                -0.27164152939246833,
                0.38735908715325273,
                0.3048702534914342,
                -0.2650672394614724,
                -0.035002224527342266,
                0.07426560937465734,
                -0.013586762684168953,
                -0.17897939878614588,
                -0.4298827955774125,
                0.3747680152073911,
                0.2254491178818719,
                -0.11915613940469327,
                -0.4345132914338893,
                0.2407912145531078,
                -0.3740432012553736,
                -0.3506236692088459,
                -0.2562733484350944,
                -0.14387756447242006,
                0.13670775156068038,
                -0.18455978547412313,
                0.2015103355941344,
                -0.18055446793267066,
                0.17915171309225242,
                -0.07663557167609725,
                0.37333402675490557,
                -0.32577516657916294,
                -0.19972973928779889,
                -0.4504644957501381,
                -0.2625752574550285,
                -0.25604706222887896,
                0.3795346611496571,
                -0.07849579360551436,
                0.4899013779669043,
                -0.02961060013816591,
                0.3547978559624883,
                0.1874786741420036,
                -0.37698093961448687,
                -0.2271368513099945,
                0.11110203662459783,
                -0.4867688539154732,
                0.30699093190977433,
                -0.196432137837116,
                0.06177595284217352,
                -0.454489320986172,
                -0.14590752758374115,
                -0.1884666213774946,
                0.036276783912356114,
                -0.1814225160106362,
                -0.4002858652989425,
                0.49409606494012315,
                0.31625935446067444,
                0.4303004000770293,
                0.18062381667416894,
                0.036352829637660955,
                0.34163168261029714,
                0.2879036871655273,
                -0.06310766292432568,
                0.02076243603107816,
                0.07106009034529742,
                0.4072001726946216,
                -0.42427796783581806,
                0.4797724227915903,
                -0.13869230994400406,
                0.45366182086708595,
                0.47581503869556663,
                -0.29222442072625743,
                -0.26470525074723694,
                -0.43192187899897583,
                0.28302117172095753,
                -0.2774657744135183,
                -0.19717104069075186,
                -0.21463839742657975,
                0.29567973314276663,
                0.16562809464912498,
                -0.36758300623397844,
                -0.1742789047134491,
                -0.19987037145552333,
                -0.3428052568099481,
                -0.20170597184021,
                0.011474777747067955,
                0.35601901162103855,
                -0.3743975625901007,
                0.38643114699756415,
                0.4790253666161873,
                -0.3249116591246091,
                -0.44273279071892174,
                0.3377820239269912,
                0.13969694516572173,
                0.25405559155427027,
                -0.024942006527667093,
                -0.4904580324768244,
                0.1210054469513473,
                0.4666085489379841,
                -0.4214046728633013,
                0.2551506734020339,
                -0.048132596370823455,
                -0.4481677544099075,
                -0.020159105179672787
            ],
            [
                0.20286504752682888,
                0.32237316658652126,
                0.058486817981012296,
                -0.17548612644397277,
                -0.2520441120590676,
                0.10124267004164644,
                -0.2632565140146984,
                -0.29464789302520566,
                -0.11085597835579253,
                0.1348395886826259,
                0.2125886320723409,
                -0.28215152447816805,
                0.11838360549323035,
                0.18912962520020482,
                -0.2880365216397648,
                -0.4143193386627949,
                -0.002022083591926682,
                0.4592046017310105,
                0.31636508708652955,
                -0.07691753041275173,
                0.06632196216134167,
                0.45875794896682476,
                -0.4224267470093901,
                -0.18323804175660985,
                0.25086100083144136,
                0.3927544502106056,
                -0.08331036558219707,
                -0.1339806790299457,
                -0.013702530241651467,
                0.10101974399404046,
                -0.37450298856666964,
                -0.3135683126118518,
                -0.08740114743495853,
                0.4308202124558198,
                0.34680272399738943,
                0.3321362210208233,
                0.06993589420620971,
                -0.39203394003600295,
                -0.21153678371715898,
                0.4915557712756128,
                0.10424130828954747,
                0.1450091659258187,
                0.407928920212011,
                0.13949022005416178,
                0.02648663449338584,
                0.4722876989510536,
                -0.07630950213751436,
                -0.3571082329959971,
                -0.3919018735429203,
                -0.27243635358935747,
                0.024579027136207854,
                0.18141621506861483,
                -0.30833568639950304,
                -0.2822883221367285,
                -0.4842272252991767,
                0.22532908607390822,
                -0.35638731412083013,
                0.33684518927164697,
                0.19268617553624967,
                0.33570982597637655,
                0.35828960781426544,
                -0.3317246906128185,
                -0.40375791727393084,
                0.17234081540539045,
                -0.0880790336787643,
                -0.22858720648837286,
                -0.4586673716595778,
                0.3841237908025862,
                -0.06504917363728933,
                -0.42054305356669486,
                -0.3805558707418958,
                0.4801735496559091,
                -0.15188684303161545,
                -0.038824215072332184,
                -0.439168851648239,
                0.3914845192284234,
                0.15214341140479626,
                0.42913751083663465,
                -0.300028564661083,
                -0.26855008927392376,
                0.0707633422023537,
                -0.3491230312403043,
                0.11770242652974883,
                -0.15234866942737968,
                0.4422331358985985,
                0.009608377140787772,
                -0.08420216700541781,
                -0.06476116526308158,
                0.41535719708554975,
                0.1490359963654022,
                -0.11434081531873308,
                0.410682360626265,
                0.4516094725702288,
                -0.18141876924283803,
                -0.17706005232526356,
                -0.35717437411134856,
                0.3543295144118449,
                -0.34560276172852933,
                0.020758462749968332,
                -0.5538551443972991,
                -0.26124505328212366,
                0.23487932256220947,
                -0.5169543991569905,
                0.07847668298922494,
                -0.07656867463492577,
                -0.06729851352951419,
                -0.4590269744720426,
                0.5060009516291007,
                0.5011848693174937,
                -0.005597031617692599,
                0.42256211154515433,
                -0.03243497592864264,
                -0.07461291014967486,
                0.28647757964620946,
                -0.2611468293630762,
                0.3874270515323678,
                -0.03272171154052528,
                0.4623773554567748,
                -0.026110785141096663,
                0.4800642623973294,
                -0.11194011630536509,
                0.2762150733082555,
                -0.26414479250371636,
                -0.49847129509604204,
                -0.18328398367110849,
                0.25386234000150704,
                0.3398851353905687,
                -0.021639228218520063,
                -0.1786069316164029,
                -0.500357620829776,
                -0.22546701406055297,
                0.5268875293351323,
                0.15882087471098683,
                -0.1924854766016718,
                0.3431848661630915,
                -0.09030891770172349,
                0.45558836767095734,
                -0.044643270888902555,
                0.1405738109620754,
                -0.035641770331799716,
                0.43654809909844816,
                0.418226780575498,
                0.22758869475918808,
                0.00832416137970114,
                -0.28350954111705134,
                0.41331319027829866,
                -0.0712524649729847,
                -0.44489642564315623,
                -0.10857466952077804,
                -0.500035314307734,
                -0.07977905312117926,
                -0.09173497216261102,
                0.14915124990921289,
                -0.41962003210189874,
                0.20510985863104106,
                -0.4021392833665393,
                0.2273696847176003,
                -0.28244687437036287,
                0.1410040742216609,
                0.3049619881256289,
                0.38432462532226813,
                -0.13076352881508901,
                0.15545949948853766,
                -0.43153276105076055,
                0.17819512898005138,
                0.2636550623755212,
                -0.22693645726879078,
                0.4314264376077144,
                -0.48841722545637345,
                -0.20772355354932037,
                -0.18449963685672288,
                -0.42784252505024534,
                0.2679996056678033,
                -0.4983271845812957,
                0.19658709478890046,
                -0.001404697424643453,
                -0.3626591102239853,
                -0.24396281087081814,
                0.23559066121188624,
                -0.24377486868655096,
                -0.09729712838373875,
                0.08556623830594419,
                0.20315563728118546,
                0.11675837044253838,
                -0.23532644322595256,
                0.1291062996025369,
                -0.40610441176048606,
                0.46623551109942096,
                -0.17637073338567621,
                -0.24837179704667078,
                0.22153220932002626,
                -0.07206304301530046,
                0.36275208351764376,
                -0.2870561447110068,
                -0.11299468960092358,
                -0.16002417390956625,
                0.10654030605317877,
                -0.19458131635603537,
                -0.2968436573900685,
                -0.3324925807721649,
                0.4172480023752487,
                0.18136022199541857,
                -0.23964704804005482,
                -0.5303164893401614,
                -0.2355722702434837,
                -0.3482632401160148,
                -0.23511030138097022,
                -0.004342585957791724,
                0.28374031473062306,
                -9.509093084398689e-06,
                -0.00268649712685954,
                0.10966534371142554,
                0.11700808029915823,
                0.3558417535426962,
                -0.27647875154129753,
                -0.4712827501294914,
                0.08098912967974897,
                -0.2026978816634646,
                -0.32343606214288845,
                0.19826441882658188,
                -0.4203435749679858,
                -0.2703728622271019,
                0.08914593996474583,
                -0.44745991798002493,
                0.18043402067344583,
                0.3643340995988764,
                -0.3211544572100451,
                -0.09598716766064805,
                -0.026921617465297733,
                0.13031999946811423,
                -0.13278702798382022,
                -0.5389590220413671,
                -0.25712986399402976,
                -0.44345240229552135,
                -0.3036486082288239,
                -0.13458956407294853,
                0.2028409020888577,
                0.08447511217180037,
                0.1529841293933899,
                0.25581118236038536,
                -0.025779658309339613,
                -0.03832054499512411,
                -0.035654932935857135,
                -0.05912811120819046,
                0.23827468340020186,
                0.2707271978802748,
                -0.5633663175893375,
                -0.3948067464139706,
                -0.313153916029237,
                -0.5934919016525464,
                0.311326262504483,
                0.47394728877443637,
                -0.10019487901931656,
                -0.09543473501786426,
                -0.19088139097808773,
                -0.45195625932200484,
                -0.6245346626565261,
                -0.08646039922523745,
                0.21904099800348203,
                -0.02165325958482411,
                0.37936930720629236,
                -0.11773138772085787,
                -0.10376902014323361,
                -0.36701521155648453,
                -0.3286653771833164,
                0.0477891646902514,
                -0.46248104400907697,
                0.32046782379635175,
                -0.4780788694702221,
                -0.12917602972944864,
                -0.11676316896008526,
                -0.4669610438394147,
                0.0834178011277748,
                -0.6072267339787135,
                0.19831899919549142,
                0.07154086919607358,
                -0.17578933643201805,
                -0.3839051874650914,
                0.2786202281295488,
                -0.09518807202282098,
                0.17779477178504122,
                0.19957931949742003,
                0.25053782960191046,
                0.3351457295165408,
                0.21844667535866866,
                -0.2064776481038661,
                -0.0960331171426781,
                -0.2517957146705841,
                0.4114726943658384,
                -0.02687375748098309,
                0.43332757028249563,
                0.2773355489926673,
                0.22328469104941273,
                -0.36418811094778597,
                0.15157192614932488,
                0.3045492594340301,
                -0.005096054123615021,
                -0.06776580535879857,
                0.12987888520442,
                -0.2316013542863647,
                0.3534830866998046,
                -0.27252648911268046,
                0.16471584445713666,
                -0.6175041576098059,
                -0.6641565664215328,
                -0.30316605092208815,
                -0.06875854009142644,
                -0.25950245216530576,
                -0.21736328062830734,
                0.49804499650449563,
                -0.36800784982029755,
                -0.23326003506905968,
                -0.024662191691054613,
                0.07084547407125687,
                -0.3540868451664741,
                -0.3320177132168751,
                0.34601793284304716,
                -0.040545723016206243,
                0.3677408135343446,
                -0.19868125828185873,
                0.38450387100441075,
                -0.13786984214444384,
                0.3731652040575771,
                -0.2895759285255705,
                0.07109560386501745,
                0.16935234893788548,
                0.015111263237793583,
                0.5582468605780384,
                0.19704065153955935,
                -0.24520829127875665,
                -0.12270515565274485,
                -0.31347560726508084,
                -0.5151920556627404,
                -0.08166057384173749,
                0.41412638149494035,
                -0.0750015084529187,
                0.03286239249712386,
                0.03551961459880926,
                0.10382266296050494,
                -0.5614818017195647,
                0.12454092475191325,
                -0.2675569195400068,
                0.21901293993610946,
                0.249756329143862,
                0.3090376302346272,
                0.05387083117721875,
                -0.2913568281763013,
                0.32831420721091376,
                -0.15705001994069284,
                0.2811087426307671,
                0.020325825588795136,
                0.5533638822749692,
                0.4576880005911722,
                -0.0472803545662573,
                0.382916458075795,
                0.49330025925028875,
                0.3163295585817169,
                0.1460634088541008,
                0.4013970663169311,
                0.40200657670840806,
                0.15158495384461962,
                0.12989252995714634,
                -0.27385267354433984,
                0.2218206760228898,
                -0.13187610177107056,
                0.36565305037668416,
                0.11151816196737988,
                -0.3178170092767449,
                0.19368945790468153,
                0.1801355383389765,
                -0.09294468174359619,
                0.6312790091699305,
                -0.056976880715010884,
                0.33710028297338257,
                0.3332312396084879,
                0.1460781724127529,
                -0.4069540135031154,
                -0.098444318813251,
                0.7447139198736488,
                0.13818389623687904,
                0.10010804366051589,
                0.3621795703210508,
                0.13963868890740083,
                0.2411938173953586,
                0.41646596882317694,
                -0.4676525840769218,
                -0.5208815839534954,
                0.03248374634794322,
                0.29271012653138484,
                -0.37957517011250724,
                0.3523081408196931,
                -0.09375987872139946,
                0.30228423143818073,
                -0.2212513310282983,
                -0.3596991578137262,
                0.001601585154786267,
                0.27367677461219664,
                0.5774843153104628,
                0.6568530688552511,
                0.0856930206972338,
                0.22712517049860517,
                0.2410353404324897,
                0.11802697060516404,
                -0.4709592655648374,
                -0.5134333094384642,
                0.8671601009135934,
                1.1777204513109363,
                0.48798956226073886,
                0.44717207013532767,
                -0.10466318627964283,
                0.1170285102632319,
                -0.2286950381472676,
                0.2124854062189659,
                0.09096518289157318,
                -0.5376130574299289,
                -0.11931349187631564,
                -0.418562764971363,
                0.4382667068058258,
                -0.304819007276104,
                -0.20133639252720037,
                -0.3035603130134614,
                0.020106377573226197,
                -0.45930505153944556,
                -0.09657881320112975,
                -0.19837344454885678,
                0.1410709428734859,
                0.05796599464023333,
                0.2912006683634312,
                -0.05255441287115805,
                0.2859546219669945,
                0.13747695243296418,
                -0.04224416552019302,
                0.4424187227335823,
                0.8338107860998553,
                0.16933959633771947,
                0.20675523825968004,
                0.10208503267384439,
                0.21964708653280896,
                0.5217904681201866,
                0.44209763841998173,
                -0.09487842915241106,
                -0.4246627535205092,
                -0.6100666386520013,
                -0.35543564950465345,
                -0.2393764886053928,
                0.39620769779028436,
                -0.21597614857805558,
                0.2470481619741256,
                0.2784042998516769,
                -0.41528337500192125,
                0.1360001278973666,
                0.3977252611822599,
                0.35712006084326253,
                -0.09919440306076804,
                0.39961231472196074,
                0.4495086347215424,
                0.19365631674130368,
                0.23234877931733067,
                -0.16111679099696558,
                -0.4340763609060701,
                0.544190453762236,
                0.9074223270992349,
                0.4314965023333214,
                0.4138175353660007,
                0.4867287672122196,
                0.13537026334089933,
                0.26635879069691565,
                -0.31748900079607195,
                -0.1646503523415499,
                0.0009318340018002094,
                0.08699139378484123,
                0.07847768160365712,
                -0.5486711840406334,
                -0.4586117512745173,
                0.45055197691061843,
                0.2129468943108399,
                0.14854479249632058,
                -0.40834142768019355,
                -0.44565961467459514,
                -0.1607903497775938,
                -0.2505733742700013,
                0.23638191287989052,
                0.004540510946412417,
                0.19759860836760634,
                -0.5561864198030382,
                0.3752788913731593,
                0.5842297274793862,
                0.5059446449350419,
                0.12241185349585691,
                0.35615682880421873,
                0.2112409079469992,
                0.28783225636458565,
                -0.10466616294267338,
                -0.2871031630734928,
                -0.360105544343207,
                -0.07517379871008628,
                -0.6176629358578686,
                -0.0909524238715421,
                0.06184934673320067,
                -0.40899111839740926,
                -0.013893241392985044,
                -0.430974278630656,
                -0.2757997312906222,
                0.4159494853344342,
                0.40787391460185807,
                0.0037639212997122584,
                -0.4876812931194525,
                -0.08718397811156194,
                0.3771696924804511,
                -0.40851886369678914,
                -0.6848827015859025,
                -0.1972309661978013,
                -0.47520380470914736,
                -0.15859837267422444,
                -0.17223712186864792,
                0.40699691130125126,
                0.2782110646742473,
                0.6644529803762819,
                0.3316470621982305,
                0.05139495550166036,
                0.27615446057494186,
                -0.40864052772029397,
                -0.38414638131861556,
                -0.2642774024719221,
                -0.4364075721010089,
                -0.638945225795296,
                -0.46687413469895606,
                -0.7730134869443859,
                -0.590525097240281,
                -0.11093675725758212,
                0.2684688572424538,
                -0.32411426375927543,
                0.08935737015327283,
                0.21444222292816673,
                -0.23591168482875224,
                0.13777987922824464,
                -0.14423399586480956,
                0.09623239898267028,
                -0.615696031794607,
                -0.7642567819612844,
                -0.15594858196268,
                -0.4533496363556946,
                -0.20738113336681166,
                -0.24026067732418155,
                -0.4603677985872992,
                0.07573242049470416,
                -0.2324226295428958,
                -0.45920422741195244,
                -0.11038222184382837,
                -0.07451756545046027,
                0.09974514944745891,
                -0.13338323266013954,
                -0.2717181853677258,
                0.09957255942944812,
                -0.5886434626001714,
                -0.25334575544903,
                -0.5883035349937861,
                0.39486328124431674,
                0.09072953399456699,
                -0.22401063474730543,
                0.07338211662079475,
                0.3215779058982742,
                -0.19891133729224908,
                0.2762509037079091,
                -0.5995145948708025,
                -0.7577894414565326,
                -0.7614556448545531,
                -0.185692294605961,
                -0.36137647466708195,
                -0.004874523600334082,
                -0.31848861154537766,
                -0.20927054524234526,
                -0.44340597332303777,
                -0.4779544893331866,
                -0.12800264899733196,
                0.08990172584155208,
                -0.08971288494784568,
                -0.13041065124200468,
                0.11299786924006021,
                -0.3930491468505017,
                -0.15395121273893067,
                -0.007582896013008807,
                -0.4019826707851476,
                -0.33646805115011647,
                0.04262192210469694,
                0.01208275740038956,
                0.4811748430448489,
                -0.389216687191389,
                -0.3420401093190689,
                0.34762830575394177,
                -0.19203660770575115,
                -0.16234759208611554,
                0.04655843367079432,
                -0.5163584182482499,
                0.23335342556586933,
                -0.042428898660902235,
                0.09665865132038479,
                -0.5329705984228296,
                -0.33389323371712526,
                -0.22462611645532063,
                0.06811308302777172,
                -0.15772803495361787,
                -0.35340663905034886,
                0.07033856543420158,
                -0.1325920234326443,
                -0.16272993293036275,
                -0.1512290464289102,
                -0.2088717224157999,
                -0.22563278134797066,
                -0.17597584422418902,
                0.19625574461247883,
                0.2276003653287692,
                0.13743038775782082,
                -0.5048917818407891,
                0.2892083177299708,
                -0.13088395668763952,
                0.02059938463611599,
                0.22816800775138502,
                -0.04701393584268332,
                -0.26647325529703386,
                -0.22871902580766584,
                -0.4438051484587825,
                -0.44974790944395515,
                -0.4751885146542123,
                -0.1537193512604723,
                0.044030461308065545,
                0.05078461781040572,
                -0.06761332817062042,
                -0.571624146708005,
                0.0884291550143203,
                0.079876538571037,
                -0.10310902758950467,
                -0.13747555731653832,
                0.03659837654445039,
                0.23755712819380195,
                0.09769893510512556,
                0.10270982197298861,
                0.48145190664702703,
                0.3900142607624541,
                -0.25857823613199066,
                0.10591176933269067,
                -0.2685162357677357,
                -0.08463483936418759,
                -0.09307432703392349,
                0.2779629948099711,
                -0.36581684859222074,
                -0.38593082134482104,
                -0.19724462855532524,
                0.41299712530179633,
                -0.39296309524142853,
                0.3033731961676737,
                -0.3798654079601694,
                0.2323192651505215,
                -0.30333444021154016,
                0.2916944195022766,
                -0.24634177988021283,
                0.07230904816717487,
                -0.018921329662151116,
                0.1285956126931936,
                -0.24530291065888687,
                0.2810296297236885,
                -0.004741256118550048,
                -0.16235584478067902,
                -0.36758121201510296,
                0.08982181638030284,
                0.4342403341786969,
                0.5063958252385441,
                -0.23288036960005745,
                -0.2484520626101902,
                0.26620896017624707,
                0.2990251995395302,
                0.31492830257590576,
                0.31897043661611135,
                0.4152920979818332,
                0.3008899462113389,
                0.10568515158832736,
                -0.06701367483322343,
                -0.284092992972095,
                -0.05426115107609314,
                -0.26572854264417095,
                -0.17808909359727196,
                -0.07615076549744725,
                -0.5303226946792591,
                -0.1584755418981854,
                -0.49926976140152607,
                -0.4730070066584193,
                0.3515068259453682,
                0.32356851363500905,
                -0.32449887223512536,
                0.10311401034786094,
                0.12688256251175245,
                0.3565727366825379,
                0.5117059554609561,
                0.14521359303424705,
                0.07328134793742586,
                -0.36457584398404436,
                -0.3039325010606404,
                0.3172750465430879,
                -0.05681427187771437,
                -0.07618956649102748,
                0.2197556704211997,
                0.14656716728621322,
                -0.26404108178631813,
                -0.2696947289057834,
                0.08600728635500662,
                0.45869332845526506,
                0.16170746081886953,
                -0.09299057571438771,
                0.199707438200419,
                0.396150596322987,
                -0.10564668616368464,
                0.19784171731534345,
                -0.19809118362800104,
                -0.13008843950453178,
                -0.4547404332968787,
                0.13339763229279883,
                -0.3502088964831661,
                0.03561575148055593,
                0.3999577611556007,
                0.4810006909750312,
                -0.16208897107024142,
                0.16913053721680935,
                0.4690608905851127,
                0.4411091070727178,
                -0.30539240349853636,
                0.3600879320142477,
                0.1542841475481811,
                -0.4697859930705295,
                0.12801446739803546,
                0.35708144186458224,
                0.07125581716314433,
                0.1456587735829843,
                0.49896403371703013,
                0.18612045317313133,
                0.26945035077152346,
                -0.011486289400779205,
                -0.39826327016084384,
                -0.2883394000908751,
                0.09627397771562443,
                0.24605167877494863,
                0.3535661213352804,
                -0.3155627168225925,
                -0.4429064907412893,
                0.36573044823122686,
                -0.21999006411513067,
                -0.42415052714907253,
                0.2193843296055883,
                0.4334266549829062,
                0.18033181152104974,
                -0.2772910623555082,
                0.4490159080976214,
                0.2242080570868683,
                0.1941303581882996,
                -0.3278892722817278,
                0.4405436385727336,
                0.1272048756820724,
                0.026373488682801316,
                0.19139687540792572,
                0.2382698003066509,
                0.004659453474080255,
                -0.06673724702684802,
                -0.2525341918837408,
                0.31602939067339386,
                -0.42717627084402304,
                -0.25934483255308066,
                0.05791295618898291,
                -0.3440703367406086,
                0.36092886534092067,
                -0.20635147145291485,
                -0.4644020912502464,
                -0.2900028570567778,
                -0.4599728292266382,
                -0.3287818696305072,
                0.4412364643275656,
                -0.3282921914820739,
                0.32008904938035554,
                -0.13619318035042138,
                -0.1599309376443543,
                0.22537561470702328,
                -0.4095305182748845,
                0.37890844226393516,
                0.21428642250769248,
                0.09023125145826416,
                0.36112474124091554
            ],
            [
                0.18113241175584738,
                0.2749806886575902,
                0.36047134198522324,
                0.49942093070840554,
                -0.4191850764061821,
                0.1525067163460816,
                -0.053002257250852836,
                -0.08567189851734369,
                0.43540814641781644,
                0.1942550980117751,
                -0.34438830754017025,
                -0.0008956305268345011,
                -0.19202023513526367,
                -0.4104445515050089,
                -0.4037569180674201,
                0.4449569069025241,
                0.30581688919511985,
                0.49922356338358553,
                -0.0915195216206548,
                -0.2580714184724814,
                0.11737513332786365,
                -0.37312737503086824,
                0.4862629359406557,
                0.48551521761626826,
                -0.3914513947882571,
                0.4192878537297223,
                0.4799133004213225,
                -0.22488215439908743,
                0.43533117462899595,
                0.1511153578099298,
                0.04431656104580428,
                0.2476479368106307,
                0.47126861165894796,
                -0.06217057780068125,
                0.0563094687125929,
                -0.16968164887320492,
                -0.08017584040587133,
                0.19561390083087035,
                -0.09327401597290906,
                0.26251281558291284,
                0.25507625006590384,
                0.4363096463560202,
                0.4644296730260996,
                -0.0762903563428275,
                0.0318808269424584,
                -0.3704957277400526,
                0.4508814860241445,
                0.12379639933154551,
                -0.10423890591332008,
                -0.4914428535558111,
                -0.49716431466083066,
                -0.2728471275864448,
                -0.09234890917271699,
                -0.011896346970725835,
                0.4336722249960355,
                0.1537496765863956,
                -0.4753768523178521,
                0.08331371542312749,
                -0.25531955506157056,
                -0.08631978595655121,
                0.43353065883022823,
                0.17878589979121406,
                0.4761750166778612,
                0.18194915798959602,
                -0.17654296058601254,
                0.09323234544568504,
                -0.1309849597243497,
                0.12012257444013545,
                0.019486715141358014,
                -0.03817384091460916,
                -0.2101550664722242,
                -0.2533286694566644,
                0.01971492139465419,
                -0.2849512579987808,
                0.18850636652592778,
                -0.002687875756354674,
                -0.031578891318810275,
                0.06921856969927015,
                0.3421057946744333,
                -0.37074316053268197,
                -0.011951595071603927,
                -0.08971568966825738,
                -0.19353336559035839,
                -0.18641197422399747,
                -0.2734013987032424,
                -0.43592325044348934,
                0.27934177480303607,
                0.1919634735293136,
                -0.2443690339521648,
                0.23660857674953675,
                0.4253333293584345,
                0.5031450775894203,
                0.491347880313528,
                0.26803619655772476,
                0.6243308451307039,
                -0.43170287623417725,
                0.18657533928091005,
                -0.2928341468056114,
                -0.026299652523280724,
                0.11281634781529074,
                0.26864479193141527,
                0.32868910255531497,
                0.3699414069687103,
                0.28091578776593534,
                0.3301697213841426,
                0.23054643411093406,
                -0.12804207747110943,
                0.14536818284917005,
                -0.40641958985242826,
                0.4675835238595999,
                0.1319684328682702,
                0.1177006430028229,
                0.3165135458091788,
                -0.4069767139910119,
                -0.3390216652049801,
                -0.17102512336210396,
                -0.39538401812951696,
                -0.37245505912315346,
                -0.4513371076908661,
                0.2873082566443125,
                0.04431641649282756,
                -0.30421442731660503,
                -0.10103197155341204,
                -0.08778697038088924,
                0.008115820300388288,
                -0.14687176157136492,
                0.4813779697879114,
                0.29137141443036085,
                0.38209780454894654,
                0.17291255422901292,
                0.10714959385441471,
                0.5557694536426878,
                0.0738990650637509,
                -0.4008247601904769,
                -0.33307054007127973,
                0.04040847891262003,
                0.3360798179197307,
                -0.3847968242275233,
                -0.4022599305775094,
                -0.14675535323218447,
                0.1880630870693646,
                -0.067326235536047,
                -0.07102989384790315,
                -0.03401909288389719,
                -0.46456163985126775,
                -0.5325425878526594,
                -0.10501457463796121,
                0.14223459123679394,
                0.07310779014811654,
                -0.04198747564791902,
                0.19542275185951735,
                0.5149431382181396,
                0.03168199904100105,
                0.12246355361266777,
                -0.11400449533383128,
                0.4384893246996361,
                0.29148735854439656,
                0.20106589821791163,
                0.048071569168801946,
                0.2852044202213382,
                -0.43030869571953,
                -0.3518534257976884,
                -0.40485519443339624,
                0.022687280457703865,
                0.04125899777177432,
                -0.4786059194614613,
                -0.3276976821193962,
                0.3754183678104178,
                0.05429628215247295,
                -0.36463962501867064,
                -0.22733924753451273,
                -0.44410221403320405,
                0.36263407780184503,
                -0.5339725110608514,
                0.08078369528295463,
                0.2985637279082456,
                -0.019292035614366973,
                0.4211683951086145,
                -0.1331046732810965,
                0.2663820613272437,
                -0.412206040562694,
                0.15935127292111081,
                -0.1329173515918042,
                0.21920884547224528,
                -0.3586350634773805,
                0.19505428931647414,
                0.20005531983667552,
                -0.470490948401018,
                0.35211640459110577,
                -0.5267569059793153,
                -0.303993381660331,
                -0.12911950988614182,
                -0.17644610645793685,
                -0.0441894322593617,
                0.40624564724212536,
                -0.010540244337869709,
                0.19809702643773242,
                -0.12241042510351008,
                0.21202488130193242,
                0.3412143630614042,
                0.07418893047317231,
                0.0913276119072315,
                -0.32651660764468715,
                0.09751467708431232,
                0.4713915898394877,
                -0.5832658016618071,
                0.061815868870305976,
                0.060612256886591186,
                -0.5568181605873215,
                -0.39702824880915993,
                0.12617600464933576,
                -0.035824272431637084,
                0.47076935870980413,
                -0.15040448596708353,
                -0.25159551522590184,
                0.2819599857044516,
                -0.23680059330064296,
                0.1547891645263866,
                -0.5655828193928362,
                -0.4240836764192898,
                0.0877619701400559,
                -0.44771687989846054,
                -0.11317977404373182,
                -0.2143483530440593,
                -0.06778753444012353,
                0.20983142115842246,
                0.3876828452373306,
                -0.19582556030730455,
                0.10865212830468415,
                0.5242464131842541,
                -0.001116040389803224,
                -0.2076076122943251,
                -0.3403225005300914,
                0.001398228077561332,
                0.11888587505769192,
                0.3837707259813605,
                0.5623600294625983,
                -0.06387603124727682,
                -0.22616896138636838,
                -0.3564312027205061,
                0.3715785907766538,
                -0.0747222046637743,
                0.33940260223362495,
                -0.47782654888373516,
                0.5138403998908799,
                0.31972077268087945,
                -0.08382948177554521,
                0.06247349979557463,
                0.351536077149511,
                0.1895368304184641,
                0.02825573265798266,
                -0.1998155674122375,
                -0.21000765296611756,
                0.14267546332610137,
                -0.2108096999224996,
                0.40360799471214576,
                0.41752044894784396,
                0.42711150628954353,
                -0.4068226571949022,
                -0.3430596689665385,
                0.2674183476180117,
                0.04478254977544655,
                -0.06352714193897281,
                0.35459770087531695,
                0.035224628713090365,
                0.38617164037451596,
                0.15406543665073794,
                -0.6171268088299382,
                -0.04890688626548837,
                -0.0687416628462009,
                -0.16868967644395447,
                -0.39721596445164276,
                0.5243415371458238,
                0.24670331299452455,
                0.21991563277152046,
                0.3367988397454908,
                -0.33882870639080886,
                0.3391948509477156,
                0.23925949209235267,
                -0.44609091747704066,
                0.26808194134203167,
                -0.38311667778221925,
                0.12886181577113398,
                -0.09834118327215469,
                0.36332216163602354,
                0.16332652129949787,
                -0.2107687867385563,
                0.07449681052651898,
                -0.42152501543005705,
                0.16451466180401952,
                -0.12841923767103194,
                -0.028822781185451896,
                0.5470630047990971,
                0.07303164843438688,
                -0.4275233589745116,
                -0.10468962064883888,
                -0.10975213551624724,
                0.0991756212097677,
                -0.42508430348034704,
                0.14953810164236664,
                0.029393442046362593,
                -0.31863585420499946,
                0.1408601828952605,
                -0.23536222304088805,
                -0.11264141874906156,
                -0.3451348519886685,
                0.23140227316589795,
                -0.06617578510079045,
                -0.10098555201960469,
                -0.22044414697268666,
                -0.2226973431246927,
                -0.13333529459095486,
                -0.11517499685554343,
                0.12167912760769893,
                -0.33765475351927504,
                -0.39195018445311985,
                -0.09832284208686552,
                -0.20515706715961607,
                0.27203757839166154,
                -0.20603805818612958,
                -0.31978873593007423,
                -0.3212235511282797,
                -0.8495270240228132,
                -1.0687984425727077,
                -0.10046600932183213,
                0.052783896238069304,
                -0.10949428344376436,
                0.00884356116075528,
                -0.11865940602242366,
                -0.26804573158165657,
                0.4709203314631116,
                -0.29065784559657004,
                0.374863083425517,
